{"learner":{"attributes":{"scikit_learn":"{\"_estimator_type\": \"classifier\"}"},"feature_names":[],"feature_types":[],"gradient_booster":{"model":{"cats":{"enc":[],"feature_segments":[],"sorted_idx":[]},"gbtree_model_param":{"num_parallel_tree":"1","num_trees":"300"},"iteration_indptr":[0,1,2,3,4,5,6,7,8,9,10,11,12,13,14,15,16,17,18,19,20,21,22,23,24,25,26,27,28,29,30,31,32,33,34,35,36,37,38,39,40,41,42,43,44,45,46,47,48,49,50,51,52,53,54,55,56,57,58,59,60,61,62,63,64,65,66,67,68,69,70,71,72,73,74,75,76,77,78,79,80,81,82,83,84,85,86,87,88,89,90,91,92,93,94,95,96,97,98,99,100,101,102,103,104,105,106,107,108,109,110,111,112,113,114,115,116,117,118,119,120,121,122,123,124,125,126,127,128,129,130,131,132,133,134,135,136,137,138,139,140,141,142,143,144,145,146,147,148,149,150,151,152,153,154,155,156,157,158,159,160,161,162,163,164,165,166,167,168,169,170,171,172,173,174,175,176,177,178,179,180,181,182,183,184,185,186,187,188,189,190,191,192,193,194,195,196,197,198,199,200,201,202,203,204,205,206,207,208,209,210,211,212,213,214,215,216,217,218,219,220,221,222,223,224,225,226,227,228,229,230,231,232,233,234,235,236,237,238,239,240,241,242,243,244,245,246,247,248,249,250,251,252,253,254,255,256,257,258,259,260,261,262,263,264,265,266,267,268,269,270,271,272,273,274,275,276,277,278,279,280,281,282,283,284,285,286,287,288,289,290,291,292,293,294,295,296,297,298,299,300],"tree_info":[0,0,0,0,0,0,0,0,0,0,0,0,0,0,0,0,0,0,0,0,0,0,0,0,0,0,0,0,0,0,0,0,0,0,0,0,0,0,0,0,0,0,0,0,0,0,0,0,0,0,0,0,0,0,0,0,0,0,0,0,0,0,0,0,0,0,0,0,0,0,0,0,0,0,0,0,0,0,0,0,0,0,0,0,0,0,0,0,0,0,0,0,0,0,0,0,0,0,0,0,0,0,0,0,0,0,0,0,0,0,0,0,0,0,0,0,0,0,0,0,0,0,0,0,0,0,0,0,0,0,0,0,0,0,0,0,0,0,0,0,0,0,0,0,0,0,0,0,0,0,0,0,0,0,0,0,0,0,0,0,0,0,0,0,0,0,0,0,0,0,0,0,0,0,0,0,0,0,0,0,0,0,0,0,0,0,0,0,0,0,0,0,0,0,0,0,0,0,0,0,0,0,0,0,0,0,0,0,0,0,0,0,0,0,0,0,0,0,0,0,0,0,0,0,0,0,0,0,0,0,0,0,0,0,0,0,0,0,0,0,0,0,0,0,0,0,0,0,0,0,0,0,0,0,0,0,0,0,0,0,0,0,0,0,0,0,0,0,0,0,0,0,0,0,0,0,0,0,0,0,0,0,0,0,0,0,0,0,0,0,0,0,0,0,0,0,0,0,0,0],"trees":[{"base_weights":[5.3111144E-4,-8.2820255E-1,1.3988098E0,-1.9846557E0,-4.6078265E-1,8.8260335E-1,1.7453309E0,-9.986111E-2,-1.2759823E0,6.291372E-1,-9.502196E-1,5.596604E-1,1.4156964E0,1.455736E0,1.8676589E0,5.795787E-2,-9.2307694E-2,1.4645623E0,-2.6711234E-1,-1.6258653E0,-3.6598024E-1,3.914302E-1,1.9008425E0,5.748881E-1,1.5300419E0,6.055063E-1,1.5651964E0,1.9406582E0,1.7401505E0,1.7566396E0,5.189905E-1,-1.4567473E0,1.094905E0,-1.7392002E0,-5.197039E-1,-6.600735E-1,1.3792988E0,7.346075E-1,-3.2389528E-1,8.9655415E-4,9.79551E-2,1.1516249E0,-1.3846606E0,1.665365E-1,1.5879216E0,-1.1842871E0,1.5367848E0,1.6666521E0,5.4532576E-1,1.3492769E0,9.843839E-2,2.2363728E-2,1.7586384E0,9.488102E-2,5.3101506E-2,-4.0212753E-3,6.4265005E-2,-2.9505724E-2,-9.6578315E-2,2.547724E-2,8.542015E-2,-9.711901E-2,-7.073101E-2,-8.8442646E-2,2.486061E-3,-8.920678E-2,-1.648064E-2,-8.6666666E-2,7.83077E-2,1.7309202E-2,8.527592E-2,-7.7033944E-2,3.1264458E-2,-2.5531033E-2,8.539634E-2,1.1995716E-2,-8.571429E-2,-8.0000006E-2,7.1049385E-2,8.215614E-2,2.6788855E-2,4.7614496E-2,-9.090909E-2,3.8022503E-2,9.4194464E-2,7.549415E-2,9.724065E-2,7.948462E-2,-8.888889E-2,9.242149E-2,-2.9416708E-2,6.0710873E-2,-6.0000002E-2,8.403546E-2,9.856658E-2],"categories":[],"categories_nodes":[],"categories_segments":[],"categories_sizes":[],"default_left":[0,0,0,0,0,0,0,0,0,0,0,0,0,0,0,0,0,0,0,0,0,0,0,0,0,0,0,0,0,0,0,0,0,0,0,0,0,0,0,0,0,0,0,0,0,0,0,0,0,0,0,0,0,0,0,0,0,0,0,0,0,0,0,0,0,0,0,0,0,0,0,0,0,0,0,0,0,0,0,0,0,0,0,0,0,0,0,0,0,0,0,0,0,0,0],"id":0,"left_children":[1,3,5,7,9,11,13,-1,15,17,19,21,23,25,27,-1,-1,29,31,33,35,37,39,41,43,45,47,49,51,53,55,57,59,61,63,65,67,69,71,-1,-1,73,75,77,79,81,83,85,87,89,-1,91,93,-1,-1,-1,-1,-1,-1,-1,-1,-1,-1,-1,-1,-1,-1,-1,-1,-1,-1,-1,-1,-1,-1,-1,-1,-1,-1,-1,-1,-1,-1,-1,-1,-1,-1,-1,-1,-1,-1,-1,-1,-1,-1],"loss_changes":[5.6251523E3,1.2941382E3,3.2158496E2,3.9934082E0,1.2351567E3,1.2446753E2,3.5534912E1,0E0,2.3755125E1,5.378406E2,6.300034E2,1.01860855E2,2.5447144E1,2.9318298E1,3.6564941E0,0E0,0E0,1.0173303E2,5.6406323E2,9.193164E1,4.412979E2,9.973953E1,5.4963684E0,4.0452644E1,1.8711548E1,6.636455E1,2.883789E1,5.187378E0,9.004761E0,2.5749878E1,4.1043457E1,7.52843E1,5.7455154E1,4.1520874E1,5.005395E1,2.7241232E2,7.486546E1,1.0282591E2,1.535392E2,0E0,0E0,2.59416E1,4.841275E0,2.644678E1,1.2509216E1,2.0445847E1,5.548237E0,8.444519E0,6.953994E1,2.4868153E1,0E0,7.350475E0,1.3565063E0,0E0,0E0,0E0,0E0,0E0,0E0,0E0,0E0,0E0,0E0,0E0,0E0,0E0,0E0,0E0,0E0,0E0,0E0,0E0,0E0,0E0,0E0,0E0,0E0,0E0,0E0,0E0,0E0,0E0,0E0,0E0,0E0,0E0,0E0,0E0,0E0,0E0,0E0,0E0,0E0,0E0,0E0],"parents":[2147483647,0,0,1,1,2,2,3,3,4,4,5,5,6,6,8,8,9,9,10,10,11,11,12,12,13,13,14,14,17,17,18,18,19,19,20,20,21,21,22,22,23,23,24,24,25,25,26,26,27,27,28,28,29,29,30,30,31,31,32,32,33,33,34,34,35,35,36,36,37,37,38,38,41,41,42,42,43,43,44,44,45,45,46,46,47,47,48,48,49,49,51,51,52,52],"right_children":[2,4,6,8,10,12,14,-1,16,18,20,22,24,26,28,-1,-1,30,32,34,36,38,40,42,44,46,48,50,52,54,56,58,60,62,64,66,68,70,72,-1,-1,74,76,78,80,82,84,86,88,90,-1,92,94,-1,-1,-1,-1,-1,-1,-1,-1,-1,-1,-1,-1,-1,-1,-1,-1,-1,-1,-1,-1,-1,-1,-1,-1,-1,-1,-1,-1,-1,-1,-1,-1,-1,-1,-1,-1,-1,-1,-1,-1,-1,-1],"split_conditions":[3.21802E1,5.5333333E0,3.477377E1,5.4333334E0,9.75E0,-1.2776059E0,2.3135E0,-9.986111E-2,2.88719E1,2.8904966E1,4.2443046E-1,2.21E1,1E0,1E0,2.9355495E1,5.795787E-2,-9.2307694E-2,2.64667E1,2.58375E1,2.65844E1,2.65844E1,1.9566668E1,1.4186983E1,1.8233334E1,2.9076551E1,9.166667E0,2.65844E1,8.2E0,3.4211468E1,3.0047655E1,7.9166665E0,2.883285E1,1.4532267E1,1.48141E1,2.9401033E1,1.3183333E1,1.1E1,2.6489567E1,4E0,8.9655415E-4,9.79551E-2,3.384535E1,-1.5729333E-1,3.50156E1,2.025E1,3.35031E1,3.5196064E1,3.633595E1,2.13E1,7.9166665E0,9.843839E-2,3.5620865E1,2.255E1,9.488102E-2,5.3101506E-2,-4.0212753E-3,6.4265005E-2,-2.9505724E-2,-9.6578315E-2,2.547724E-2,8.542015E-2,-9.711901E-2,-7.073101E-2,-8.8442646E-2,2.486061E-3,-8.920678E-2,-1.648064E-2,-8.6666666E-2,7.83077E-2,1.7309202E-2,8.527592E-2,-7.7033944E-2,3.1264458E-2,-2.5531033E-2,8.539634E-2,1.1995716E-2,-8.571429E-2,-8.0000006E-2,7.1049385E-2,8.215614E-2,2.6788855E-2,4.7614496E-2,-9.090909E-2,3.8022503E-2,9.4194464E-2,7.549415E-2,9.724065E-2,7.948462E-2,-8.888889E-2,9.242149E-2,-2.9416708E-2,6.0710873E-2,-6.0000002E-2,8.403546E-2,9.856658E-2],"split_indices":[3,0,18,0,0,16,14,0,3,18,19,0,1,1,27,0,0,25,25,25,25,0,24,0,27,0,25,0,5,27,0,20,24,24,20,0,0,25,1,0,0,3,15,3,0,7,18,3,0,0,0,3,0,0,0,0,0,0,0,0,0,0,0,0,0,0,0,0,0,0,0,0,0,0,0,0,0,0,0,0,0,0,0,0,0,0,0,0,0,0,0,0,0,0,0],"split_type":[0,0,0,0,0,0,0,0,0,0,0,0,0,0,0,0,0,0,0,0,0,0,0,0,0,0,0,0,0,0,0,0,0,0,0,0,0,0,0,0,0,0,0,0,0,0,0,0,0,0,0,0,0,0,0,0,0,0,0,0,0,0,0,0,0,0,0,0,0,0,0,0,0,0,0,0,0,0,0,0,0,0,0,0,0,0,0,0,0,0,0,0,0,0,0],"sum_hessian":[4.852289E3,3.0468723E3,1.8054166E3,7.335679E2,2.3133044E3,7.2658405E2,1.0788325E3,7.19E2,1.456785E1,7.1679614E2,1.5965082E3,4.5375385E2,2.7283023E2,3.2420984E2,7.546227E2,2.5678499E0,1.2E1,3.706585E2,3.4613763E2,7.395129E2,8.5699536E2,4.04329E2,4.9424847E1,3.3383266E1,2.3944696E2,3.7723732E1,2.864861E2,4.708426E2,2.8378012E2,2.8253012E2,8.8128395E1,1.8472372E2,1.614139E2,6.7026654E2,6.9246346E1,7.339421E2,1.23053246E2,2.7322324E2,1.3110577E2,1.5226166E0,4.790223E1,2.611065E1,7.2726164E0,9.908317E0,2.2953864E2,1.281785E1,2.4905882E1,2.5998853E2,2.6497566E1,2.3588032E1,4.4725455E2,3.0452332E0,2.807349E2,2.334219E2,4.9108215E1,4.9951115E1,3.817728E1,6.61785E1,1.18545235E2,8.353793E1,7.787596E1,4.0915833E2,2.6110822E2,2.1022617E1,4.8223732E1,1.6574878E2,5.681933E2,6.5E0,1.16553246E2,1.9611987E2,7.710335E1,5.718093E1,7.392485E1,6.56785E0,1.9542799E1,1.2726166E0,6E0,4E0,5.9083166E0,2.1756247E2,1.1976166E1,2.8178499E0,1E1,8.680933E0,1.6224949E1,1.7038762E2,8.9600914E1,1.8497566E1,8E0,1.8792799E1,4.7952332E0,1.5452332E0,1.5E0,2.11972E2,6.876288E1],"tree_param":{"num_deleted":"0","num_feature":"28","num_nodes":"95","size_leaf_vector":"1"}},{"base_weights":[-4.489547E-3,-8.6906946E-1,1.2162617E0,-4.1673148E-1,-1.704258E0,6.451788E-1,1.6515677E0,1.2603897E0,-8.725371E-1,-9.511494E-2,-1.1838291E0,4.4040266E-1,1.3061091E0,1.3374482E0,1.7762661E0,7.371598E-1,1.7076154E0,-1.5647339E0,-3.2067937E-1,-1.891953E0,-2.7620137E-1,3.134211E-1,1.7015499E0,7.935254E-1,1.6224878E0,1.4195296E0,5.4108566E-1,1.8226398E0,1.5773761E0,1.1144843E0,-4.8227793E-1,1.7385E0,-6.278779E-2,-1.833848E0,-1.5460318E-1,7.693727E-1,-6.2277466E-1,-9.55187E-2,-9.1352874E-1,3.9402857E-1,-1.6061729E0,5.527305E-1,-4.4319034E-1,-5.93003E-2,1.7953714E0,1.3182229E0,6.565378E-2,1.3361067E0,1.8547423E0,1.2438332E0,1.8273658E0,1.5353036E0,-8.63895E-2,1.5343846E0,1.8394728E0,1.6259215E0,-3.3492213E-1,6.134369E-2,-7.9613596E-2,-6.8892114E-2,9.206291E-2,9.043884E-2,4.0000524E-2,-9.337394E-2,4.599163E-2,3.269507E-2,-7.226217E-2,-1.4049381E-2,5.6038108E-2,-4.4286262E-2,6.7898765E-2,-7.230009E-2,2.6256159E-2,-9.034042E-2,4.519802E-2,5.8183845E-2,-8.719268E-2,1.3166404E-2,6.872118E-2,1.0663751E-2,-6.3424475E-2,3.916593E-2,9.185136E-2,7.442408E-2,-6.983354E-2,-9.214049E-2,4.0557366E-2,3.186286E-2,8.007645E-2,1.1553588E-2,9.414007E-2,6.4608715E-2,-7.798534E-2,-9.708498E-3,9.359418E-2,8.4639475E-2,-1.0751392E-2,9.049232E-2,1.5522468E-2,2.1633878E-2,9.220444E-2,8.833458E-2,6.633305E-2,-7.012101E-2,5.8042247E-2],"categories":[],"categories_nodes":[],"categories_segments":[],"categories_sizes":[],"default_left":[0,0,0,0,0,0,0,0,0,0,0,0,0,0,0,0,0,0,0,0,0,0,0,0,0,0,0,0,0,0,0,0,0,0,0,0,0,0,0,0,0,0,0,0,0,0,0,0,0,0,0,0,0,0,0,0,0,0,0,0,0,0,0,0,0,0,0,0,0,0,0,0,0,0,0,0,0,0,0,0,0,0,0,0,0,0,0,0,0,0,0,0,0,0,0,0,0,0,0,0,0,0,0,0,0],"id":1,"left_children":[1,3,5,7,9,11,13,15,17,-1,19,21,23,25,27,29,31,33,35,37,39,41,43,45,47,49,51,53,55,57,59,61,-1,63,65,67,69,-1,71,73,75,77,79,-1,81,83,85,87,89,91,93,95,-1,97,99,101,103,-1,-1,-1,-1,-1,-1,-1,-1,-1,-1,-1,-1,-1,-1,-1,-1,-1,-1,-1,-1,-1,-1,-1,-1,-1,-1,-1,-1,-1,-1,-1,-1,-1,-1,-1,-1,-1,-1,-1,-1,-1,-1,-1,-1,-1,-1,-1,-1],"loss_changes":[5.078664E3,1.0634731E3,4.9488843E2,1.3989343E3,9.971265E1,1.16438385E2,4.194336E1,9.027667E1,5.489573E2,0E0,1.764448E2,1.05412674E2,3.1795166E1,2.0513367E1,4.5668945E0,8.429315E1,2.1416138E1,2.4175635E2,2.6444147E2,1.0394287E0,1.0924311E2,1.0929641E2,1.8463547E1,3.0395718E1,5.848297E0,1.883197E1,7.492059E1,3.2128906E-1,1.5397278E1,4.433499E1,9.349708E1,1.2297607E1,0E0,5.1309814E1,1.0874444E2,6.468025E1,3.283919E2,0E0,4.4144993E0,9.3457344E1,1.7674232E1,1.0855138E2,7.897861E1,0E0,1.0396118E0,2.3493393E1,5.05605E1,1.0041313E1,2.5967865E0,3.0338165E1,8.152405E0,6.650345E0,0E0,1.3522713E1,3.144287E0,4.236603E0,9.276667E0,0E0,0E0,0E0,0E0,0E0,0E0,0E0,0E0,0E0,0E0,0E0,0E0,0E0,0E0,0E0,0E0,0E0,0E0,0E0,0E0,0E0,0E0,0E0,0E0,0E0,0E0,0E0,0E0,0E0,0E0,0E0,0E0,0E0,0E0,0E0,0E0,0E0,0E0,0E0,0E0,0E0,0E0,0E0,0E0,0E0,0E0,0E0,0E0],"parents":[2147483647,0,0,1,1,2,2,3,3,4,4,5,5,6,6,7,7,8,8,10,10,11,11,12,12,13,13,14,14,15,15,16,16,17,17,18,18,19,19,20,20,21,21,22,22,23,23,24,24,25,25,26,26,27,27,28,28,29,29,30,30,31,31,33,33,34,34,35,35,36,36,38,38,39,39,40,40,41,41,42,42,44,44,45,45,46,46,47,47,48,48,49,49,50,50,51,51,53,53,54,54,55,55,56,56],"right_children":[2,4,6,8,10,12,14,16,18,-1,20,22,24,26,28,30,32,34,36,38,40,42,44,46,48,50,52,54,56,58,60,62,-1,64,66,68,70,-1,72,74,76,78,80,-1,82,84,86,88,90,92,94,96,-1,98,100,102,104,-1,-1,-1,-1,-1,-1,-1,-1,-1,-1,-1,-1,-1,-1,-1,-1,-1,-1,-1,-1,-1,-1,-1,-1,-1,-1,-1,-1,-1,-1,-1,-1,-1,-1,-1,-1,-1,-1,-1,-1,-1,-1,-1,-1,-1,-1,-1,-1],"split_conditions":[3.12664E1,1E0,3.59258E1,2.9290634E1,5.4333334E0,2.4131625E0,2.1246E0,1.4532267E1,2.56865E1,-9.511494E-2,2.74859E1,2.2016666E1,2.597735E1,2.65844E1,2.64667E1,-5.1214566E0,2.91594E1,1.79E1,1.338305E1,3.95344E1,9.94887E-1,2E1,1.4186983E1,1.0133333E1,3.6010666E0,2.21E1,2.13E1,8.2E0,2.3760333E0,8.866667E0,2.65844E1,9.85E0,-6.278779E-2,3.62073E1,2.5663567E1,1.1666667E1,4.09469E1,-9.55187E-2,1.3281E0,2.5663567E1,2.903125E1,2.6489567E1,2.58375E1,-5.93003E-2,3.208125E1,5.4395666E0,1.66E1,3.3792732E1,3.89575E-1,2.1833334E1,3.2002068E1,-7.878417E-2,-8.63895E-2,7.9166665E0,3.327619E1,2.025E1,3.1080666E0,6.134369E-2,-7.9613596E-2,-6.8892114E-2,9.206291E-2,9.043884E-2,4.0000524E-2,-9.337394E-2,4.599163E-2,3.269507E-2,-7.226217E-2,-1.4049381E-2,5.6038108E-2,-4.4286262E-2,6.7898765E-2,-7.230009E-2,2.6256159E-2,-9.034042E-2,4.519802E-2,5.8183845E-2,-8.719268E-2,1.3166404E-2,6.872118E-2,1.0663751E-2,-6.3424475E-2,3.916593E-2,9.185136E-2,7.442408E-2,-6.983354E-2,-9.214049E-2,4.0557366E-2,3.186286E-2,8.007645E-2,1.1553588E-2,9.414007E-2,6.4608715E-2,-7.798534E-2,-9.708498E-3,9.359418E-2,8.4639475E-2,-1.0751392E-2,9.049232E-2,1.5522468E-2,2.1633878E-2,9.220444E-2,8.833458E-2,6.633305E-2,-7.012101E-2,5.8042247E-2],"split_indices":[3,2,21,21,0,14,14,24,25,0,20,0,25,25,25,16,3,0,24,7,17,0,24,0,14,0,0,0,13,0,25,0,0,21,25,0,26,0,12,25,4,25,25,0,21,14,0,21,13,0,7,16,0,0,18,0,13,0,0,0,0,0,0,0,0,0,0,0,0,0,0,0,0,0,0,0,0,0,0,0,0,0,0,0,0,0,0,0,0,0,0,0,0,0,0,0,0,0,0,0,0,0,0,0,0],"split_type":[0,0,0,0,0,0,0,0,0,0,0,0,0,0,0,0,0,0,0,0,0,0,0,0,0,0,0,0,0,0,0,0,0,0,0,0,0,0,0,0,0,0,0,0,0,0,0,0,0,0,0,0,0,0,0,0,0,0,0,0,0,0,0,0,0,0,0,0,0,0,0,0,0,0,0,0,0,0,0,0,0,0,0,0,0,0,0,0,0,0,0,0,0,0,0,0,0,0,0,0,0,0,0,0,0],"sum_hessian":[4.809905E3,2.8158833E3,1.9940215E3,1.8275703E3,9.8831287E2,8.6357245E2,1.130449E3,3.9017386E2,1.4373965E3,7.1396857E2,2.7434427E2,6.605733E2,2.0299915E2,3.2457065E2,8.0587836E2,1.8102855E2,2.091453E2,6.3680927E2,8.005872E2,1.5350017E2,1.2084411E2,6.0128046E2,5.9292816E1,7.88148E1,1.2418434E2,2.9353354E2,3.1037104E1,6.468849E2,1.5899352E2,1.3831615E2,4.271241E1,2.0739711E2,1.7481792E0,5.345025E2,1.0230675E2,1.7339137E2,6.2719586E2,1.4972868E2,3.7714937E0,8.081944E1,4.0024666E1,4.5700375E2,1.4427672E2,1.4995617E0,5.7793255E1,4.5328197E1,3.34866E1,5.863602E1,6.554832E1,2.0798372E2,8.554983E1,2.1805351E1,9.231752E0,4.077575E1,6.0610913E2,1.552033E2,3.790217E0,1.333269E2,4.989239E0,3.1123453E1,1.1588958E1,1.9208583E2,1.5311276E1,5.2837134E2,6.1311884E0,6.3205708E1,3.9101036E1,4.3515823E1,1.2987555E2,5.541796E2,7.301619E1,2.7489464E0,1.0225472E0,1.4724799E1,6.609464E1,1.5424179E0,3.848225E1,3.3894644E2,1.1805733E2,8.077091E1,6.3505802E1,3.0676417E0,5.4725613E1,4.307837E1,2.2498314E0,8.992884E0,2.4493715E1,1.7076088E1,4.1559933E1,1.2703972E0,6.427792E1,2.0498822E2,2.9954953E0,1.7709266E0,8.37789E1,2.0035532E1,1.7698197E0,3.2893867E1,7.881882E0,2.2920692E0,6.038171E2,1.02217384E2,5.2985912E1,2.2481594E0,1.5420575E0],"tree_param":{"num_deleted":"0","num_feature":"28","num_nodes":"105","size_leaf_vector":"1"}},{"base_weights":[7.736205E-3,-8.2335424E-1,1.1582507E0,-3.9559826E-1,-1.6155816E0,5.9671116E-1,1.5957344E0,1.2217904E0,-8.4805214E-1,-1.6852239E0,1.7888926E-2,3.6740124E-1,1.2833223E0,1.3430891E0,1.698811E0,6.79247E-1,1.6432831E0,-1.0810297E0,7.9999816E-1,-9.101417E-2,-1.2744268E0,-1.4067076E0,8.637436E-1,2.1533678E-1,1.4992263E0,8.520336E-1,1.539739E0,6.182643E-1,1.4346226E0,8.694192E-2,1.5251505E0,1.0805668E0,-2.2987781E-1,1.7290901E0,3.5314283E-1,-1.3545117E0,-3.0518952E-1,-2.0757788E-1,1.1140032E0,-9.122827E-2,-4.6182126E-1,-1.5821014E-1,-8.776774E-2,-2.2828661E-1,9.188207E-2,4.762101E-1,-6.2974715E-1,-7.331055E-2,1.6352199E0,1.41246E0,8.2405806E-2,6.250309E-1,1.7324663E0,-5.1727813E-1,1.4738861E0,1.5213279E0,5.139121E-1,1.5750841E0,2.7540955E-1,6.0834374E-2,-7.77998E-2,-7.34654E-2,9.156182E-2,8.8208914E-2,-3.3047162E-2,-8.3262675E-2,7.894906E-2,-8.812078E-2,-4.158414E-2,1.5981718E-3,-4.6195034E-2,8.0426924E-2,-9.311218E-2,6.54601E-2,-5.468244E-2,2.9183036E-2,-8.538277E-2,-6.334051E-2,6.041501E-2,3.6870208E-2,-8.213984E-2,1.0285073E-2,6.420519E-2,-8.493405E-2,1.6593141E-2,1.0212286E-2,8.6991124E-2,7.680722E-2,-6.1992712E-2,-8.861642E-2,3.8204964E-2,-9.4350185E-3,7.66482E-2,8.29262E-3,8.743094E-2,-7.6676056E-2,5.081994E-2,-6.589407E-2,8.846917E-2,1.2728303E-2,7.8227274E-2,7.029941E-2,-8.106878E-2,2.240464E-2,8.033587E-2,-6.70424E-2,5.6549307E-2],"categories":[],"categories_nodes":[],"categories_segments":[],"categories_sizes":[],"default_left":[0,0,0,0,0,0,0,0,0,0,0,0,0,0,0,0,0,0,0,0,0,0,0,0,0,0,0,0,0,0,0,0,0,0,0,0,0,0,0,0,0,0,0,0,0,0,0,0,0,0,0,0,0,0,0,0,0,0,0,0,0,0,0,0,0,0,0,0,0,0,0,0,0,0,0,0,0,0,0,0,0,0,0,0,0,0,0,0,0,0,0,0,0,0,0,0,0,0,0,0,0,0,0,0,0,0,0],"id":2,"left_children":[1,3,5,7,9,11,13,15,17,19,21,23,25,27,29,31,33,35,37,-1,39,41,43,45,47,49,51,53,55,-1,57,59,61,63,65,67,69,71,73,-1,75,77,-1,79,-1,81,83,-1,85,87,89,91,93,95,97,99,101,103,105,-1,-1,-1,-1,-1,-1,-1,-1,-1,-1,-1,-1,-1,-1,-1,-1,-1,-1,-1,-1,-1,-1,-1,-1,-1,-1,-1,-1,-1,-1,-1,-1,-1,-1,-1,-1,-1,-1,-1,-1,-1,-1,-1,-1,-1,-1,-1,-1],"loss_changes":[4.6303896E3,9.5215466E2,4.9798975E2,1.3381011E3,1.12137695E2,1.3981213E2,2.7432129E1,9.031E1,5.492742E2,5.0122314E1,5.0966354E1,1.148747E2,2.3312744E1,2.1365417E1,2.9550781E0,6.4646255E1,2.4219788E1,2.6519678E2,5.6382874E1,0E0,1.0519797E2,6.583252E0,2.8629908E1,1.3063937E2,3.4299988E1,3.6658924E1,2.3316467E1,3.90081E1,2.2930725E1,0E0,9.502563E0,4.590262E1,1.4288428E2,1.8781555E1,4.0347355E1,1.9586157E2,6.835665E1,1.3224837E2,5.980902E1,0E0,1.2746591E2,8.408103E0,0E0,1.950706E1,0E0,9.8589005E1,1.4435298E2,0E0,1.1037247E1,1.806913E1,4.8120068E1,1.924062E1,2.58844E0,2.9075884E1,2.1065536E1,1.4435852E1,5.385344E1,4.730896E0,1.1651826E1,0E0,0E0,0E0,0E0,0E0,0E0,0E0,0E0,0E0,0E0,0E0,0E0,0E0,0E0,0E0,0E0,0E0,0E0,0E0,0E0,0E0,0E0,0E0,0E0,0E0,0E0,0E0,0E0,0E0,0E0,0E0,0E0,0E0,0E0,0E0,0E0,0E0,0E0,0E0,0E0,0E0,0E0,0E0,0E0,0E0,0E0,0E0,0E0],"parents":[2147483647,0,0,1,1,2,2,3,3,4,4,5,5,6,6,7,7,8,8,9,9,10,10,11,11,12,12,13,13,14,14,15,15,16,16,17,17,18,18,20,20,21,21,22,22,23,23,24,24,25,25,26,26,27,27,28,28,30,30,31,31,32,32,33,33,34,34,35,35,36,36,37,37,38,38,40,40,41,41,43,43,45,45,46,46,48,48,49,49,50,50,51,51,52,52,53,53,54,54,55,55,56,56,57,57,58,58],"right_children":[2,4,6,8,10,12,14,16,18,20,22,24,26,28,30,32,34,36,38,-1,40,42,44,46,48,50,52,54,56,-1,58,60,62,64,66,68,70,72,74,-1,76,78,-1,80,-1,82,84,-1,86,88,90,92,94,96,98,100,102,104,106,-1,-1,-1,-1,-1,-1,-1,-1,-1,-1,-1,-1,-1,-1,-1,-1,-1,-1,-1,-1,-1,-1,-1,-1,-1,-1,-1,-1,-1,-1,-1,-1,-1,-1,-1,-1,-1,-1,-1,-1,-1,-1,-1,-1,-1,-1,-1,-1],"split_conditions":[3.12664E1,1E0,3.59258E1,2.9290634E1,3.023125E1,2.3135E0,2.1246E0,1.4532267E1,2.65844E1,5.4333334E0,2.72156E1,2.1833334E1,2.597735E1,1E0,2.64667E1,8.988628E-1,9.85E0,3.100785E1,1.1666667E1,-9.101417E-2,2.85E1,2.245E1,2.235E1,2E1,1.42177E1,1.0033334E1,1E0,9.166667E0,2.65844E1,8.694192E-2,3.5510166E0,8.866667E0,2.65844E1,3.8999667E0,1.395E1,2.56865E1,3E0,9.266666E0,-8.191208E-1,-9.122827E-2,2.95703E1,2.6299225E1,-8.776774E-2,2.99875E1,9.188207E-2,2.6489567E1,4E0,-7.331055E-2,3.10031E1,5.4395666E0,1.66E1,3.6010666E0,-4.8354E-1,1.11086E1,3.6045868E1,3.1503124E1,2.13E1,2.3135E0,8.96625E-2,6.0834374E-2,-7.77998E-2,-7.34654E-2,9.156182E-2,8.8208914E-2,-3.3047162E-2,-8.3262675E-2,7.894906E-2,-8.812078E-2,-4.158414E-2,1.5981718E-3,-4.6195034E-2,8.0426924E-2,-9.311218E-2,6.54601E-2,-5.468244E-2,2.9183036E-2,-8.538277E-2,-6.334051E-2,6.041501E-2,3.6870208E-2,-8.213984E-2,1.0285073E-2,6.420519E-2,-8.493405E-2,1.6593141E-2,1.0212286E-2,8.6991124E-2,7.680722E-2,-6.1992712E-2,-8.861642E-2,3.8204964E-2,-9.4350185E-3,7.66482E-2,8.29262E-3,8.743094E-2,-7.6676056E-2,5.081994E-2,-6.589407E-2,8.846917E-2,1.2728303E-2,7.8227274E-2,7.029941E-2,-8.106878E-2,2.240464E-2,8.033587E-2,-6.70424E-2,5.6549307E-2],"split_indices":[3,2,21,21,21,14,14,24,25,0,20,0,25,1,25,17,0,21,0,0,20,0,0,0,24,0,1,0,25,0,11,0,25,22,0,25,1,0,16,0,21,20,0,3,0,25,1,0,5,14,0,14,15,22,21,20,0,14,16,0,0,0,0,0,0,0,0,0,0,0,0,0,0,0,0,0,0,0,0,0,0,0,0,0,0,0,0,0,0,0,0,0,0,0,0,0,0,0,0,0,0,0,0,0,0,0,0],"split_type":[0,0,0,0,0,0,0,0,0,0,0,0,0,0,0,0,0,0,0,0,0,0,0,0,0,0,0,0,0,0,0,0,0,0,0,0,0,0,0,0,0,0,0,0,0,0,0,0,0,0,0,0,0,0,0,0,0,0,0,0,0,0,0,0,0,0,0,0,0,0,0,0,0,0,0,0,0,0,0,0,0,0,0,0,0,0,0,0,0,0,0,0,0,0,0,0,0,0,0,0,0,0,0,0,0,0,0],"sum_hessian":[4.8405864E3,2.8105964E3,2.02999E3,1.8261063E3,9.844903E2,8.8999097E2,1.139999E3,3.9880304E2,1.4273032E3,9.4420294E2,4.028735E1,6.683237E2,2.2166728E2,3.3440015E2,8.055988E2,1.7550514E2,2.232979E2,1.2508239E3,1.7647932E2,7.079999E2,2.3620302E2,1.4761995E1,2.5525354E1,5.9021643E2,7.810728E1,8.4262314E1,1.3740497E2,3.8363827E1,2.9603635E2,6.473718E2,1.5822697E2,1.2162639E2,5.387875E1,2.0905356E2,1.4244334E1,9.2427344E2,3.2655048E2,4.2011673E1,1.3446765E2,1.401055E2,9.609751E1,3.5398088E0,1.1222186E1,1.2393799E1,1.3131555E1,4.5132965E2,1.3888678E2,2.9959946E0,7.511128E1,4.8274567E1,3.5987743E1,2.4651058E1,1.1275391E2,1.6655214E1,2.170861E1,2.6996118E2,2.6075157E1,1.5189757E2,6.329411E0,1.1616742E2,5.458967E0,3.3825348E1,2.0053402E1,2.0628691E2,2.7666533E0,5.2467957E0,8.997539E0,5.1786865E2,4.064048E2,2.1198322E2,1.1456724E2,2.0041996E1,2.1969677E1,1.2391791E2,1.0549748E1,5.253912E1,4.355839E1,1.9946123E0,1.5451963E0,7.6498837E0,4.743915E0,3.3905713E2,1.1227253E2,6.540999E1,7.347679E1,5.317663E0,6.979362E1,4.6525772E1,1.7487936E0,9.242123E0,2.6745623E1,1.3417683E1,1.1233376E1,1.2656578E0,1.1148825E2,1.0017521E1,6.6376944E0,1.7466767E0,1.9961933E1,9.13363E0,2.6082755E2,1.863247E1,7.4426885E0,4.561223E0,1.4733633E2,1.9944803E0,4.3349304E0],"tree_param":{"num_deleted":"0","num_feature":"28","num_nodes":"107","size_leaf_vector":"1"}},{"base_weights":[-1.5481994E-2,-7.391008E-1,1.176183E0,-5.7621915E-2,-1.1441187E0,7.002804E-1,1.504323E0,7.87682E-1,-5.926036E-1,-1.3257387E0,2.1074338E-1,4.027352E-1,1.2733772E0,-1.061187E0,1.5174078E0,-1.5901906E0,1.1548843E0,-1.256629E0,-8.59157E-2,-1.4277834E0,-5.6598085E-1,1.437267E0,-2.5419673E-1,-1.9894192E-2,6.2795055E-1,4.3634918E-1,1.3799121E0,2.577277E-2,-7.4410655E-2,1.2880117E0,1.6347958E0,-1.6831249E0,2.31744E-2,1.3801085E0,5.557536E-1,-1.3603523E0,1.0440636E0,-9.393175E-2,1.0218838E-1,-1.2010055E0,-1.7118347E0,-8.958142E-1,3.666342E-1,1.6483383E0,-7.8609005E-2,-1.251685E0,4.4855375E-2,-3.476809E-1,8.4462184E-1,1.3220476E0,4.6181664E-1,-8.08965E-2,8.4082633E-1,1.0984467E0,1.5449511E0,5.177959E-1,1.3924272E0,1.704748E0,1.5152732E0,-1.3084069E-2,-8.6562164E-2,3.1406682E-2,7.732238E-2,5.995766E-2,-2.2336274E-2,-2.7739784E-2,-7.8178875E-2,-6.7045346E-2,9.306562E-2,5.4421265E-2,-5.9267413E-3,-7.959612E-2,-5.005738E-2,-8.6051516E-2,-1.6772723E-3,-6.877178E-2,-2.883563E-3,7.280185E-2,-5.6370866E-2,2.8987264E-2,8.731737E-2,-7.686631E-2,5.5529516E-2,2.0728035E-2,-7.425993E-2,-5.3897705E-2,-5.5095586E-3,1.6886909E-2,8.250211E-2,1.714439E-2,8.6518705E-2,5.270948E-2,1.5918117E-2,-1.5219363E-2,6.693693E-2,3.516159E-2,7.386626E-2,2.0393174E-2,7.80537E-2,-1.7044125E-2,5.0361842E-2,4.7866754E-2,7.377436E-2,5.477406E-3,8.545687E-2,5.547854E-2,7.9385996E-2],"categories":[],"categories_nodes":[],"categories_segments":[],"categories_sizes":[],"default_left":[0,0,0,0,0,0,0,0,0,0,0,0,0,0,0,0,0,0,0,0,0,0,0,0,0,0,0,0,0,0,0,0,0,0,0,0,0,0,0,0,0,0,0,0,0,0,0,0,0,0,0,0,0,0,0,0,0,0,0,0,0,0,0,0,0,0,0,0,0,0,0,0,0,0,0,0,0,0,0,0,0,0,0,0,0,0,0,0,0,0,0,0,0,0,0,0,0,0,0,0,0,0,0,0,0,0,0],"id":3,"left_children":[1,3,5,7,9,11,13,15,17,19,21,23,25,27,29,31,33,35,37,39,41,43,45,47,49,51,53,-1,-1,55,57,59,-1,61,63,65,67,-1,69,71,73,75,77,79,-1,81,83,85,87,89,91,-1,93,95,97,99,101,103,105,-1,-1,-1,-1,-1,-1,-1,-1,-1,-1,-1,-1,-1,-1,-1,-1,-1,-1,-1,-1,-1,-1,-1,-1,-1,-1,-1,-1,-1,-1,-1,-1,-1,-1,-1,-1,-1,-1,-1,-1,-1,-1,-1,-1,-1,-1,-1,-1],"loss_changes":[4.107496E3,8.179446E2,2.7998682E2,5.005514E2,4.5768604E2,1.2504886E2,3.733911E1,3.7645618E2,2.2794026E2,1.2628247E2,1.26157906E2,4.6285828E1,2.17966E1,4.7994823E0,2.642041E1,1.181398E1,4.9460754E1,7.140735E1,1.3019603E2,9.099365E1,6.054537E1,4.1202194E1,4.8024067E1,4.84605E1,3.5964294E1,2.6140434E1,8.632202E0,0E0,0E0,2.8496887E1,3.244751E0,3.344757E0,0E0,3.2782898E1,6.720951E1,4.514514E1,2.825824E1,0E0,7.6287994E1,6.1422485E1,9.802734E0,5.8171005E1,8.604122E1,4.9875183E0,0E0,2.675766E1,7.114287E1,2.1378796E1,1.8639183E1,2.368312E1,2.1542912E1,0E0,1.4990679E1,1.1786194E1,1.8879395E0,1.9240555E1,1.0128052E1,2.8355713E0,6.0664062E0,0E0,0E0,0E0,0E0,0E0,0E0,0E0,0E0,0E0,0E0,0E0,0E0,0E0,0E0,0E0,0E0,0E0,0E0,0E0,0E0,0E0,0E0,0E0,0E0,0E0,0E0,0E0,0E0,0E0,0E0,0E0,0E0,0E0,0E0,0E0,0E0,0E0,0E0,0E0,0E0,0E0,0E0,0E0,0E0,0E0,0E0,0E0,0E0],"parents":[2147483647,0,0,1,1,2,2,3,3,4,4,5,5,6,6,7,7,8,8,9,9,10,10,11,11,12,12,13,13,14,14,15,15,16,16,17,17,18,18,19,19,20,20,21,21,22,22,23,23,24,24,25,25,26,26,29,29,30,30,31,31,33,33,34,34,35,35,36,36,38,38,39,39,40,40,41,41,42,42,43,43,45,45,46,46,47,47,48,48,49,49,50,50,52,52,53,53,54,54,55,55,56,56,57,57,58,58],"right_children":[2,4,6,8,10,12,14,16,18,20,22,24,26,28,30,32,34,36,38,40,42,44,46,48,50,52,54,-1,-1,56,58,60,-1,62,64,66,68,-1,70,72,74,76,78,80,-1,82,84,86,88,90,92,-1,94,96,98,100,102,104,106,-1,-1,-1,-1,-1,-1,-1,-1,-1,-1,-1,-1,-1,-1,-1,-1,-1,-1,-1,-1,-1,-1,-1,-1,-1,-1,-1,-1,-1,-1,-1,-1,-1,-1,-1,-1,-1,-1,-1,-1,-1,-1,-1,-1,-1,-1,-1,-1],"split_conditions":[3.3494766E1,9.544739E-1,3.477377E1,2.9104177E1,3.10922E1,-1.2776059E0,1.4770583E0,2.7353134E1,3.096015E1,4.3432122E-1,1.338305E1,6.77815E0,1E0,2.9868767E1,2.4131625E0,9.438214E-1,-3.8569834E0,5.675625E-1,3.95729E1,4E0,-1.1504984E0,6.3469E0,1E0,7.49875E-2,-2.7735734E0,3.3792732E1,4.067655E1,2.577277E-2,-7.4410655E-2,1E0,2.9355495E1,2E0,2.31744E-2,1.167175E0,4E0,2.883285E1,2.9845707E1,-9.393175E-2,1.4186983E1,1E0,3.0676575E1,2.9376646E1,2.9092714E1,3.1146833E1,-7.8609005E-2,1.4292194E0,5E0,3.0676575E1,1.4817398E0,1E0,1.338305E1,-8.08965E-2,-6.167925E-1,3.2442584E0,3.1504168E1,9.874833E-1,1.338305E1,-3.8770332E0,3.4234375E1,-1.3084069E-2,-8.6562164E-2,3.1406682E-2,7.732238E-2,5.995766E-2,-2.2336274E-2,-2.7739784E-2,-7.8178875E-2,-6.7045346E-2,9.306562E-2,5.4421265E-2,-5.9267413E-3,-7.959612E-2,-5.005738E-2,-8.6051516E-2,-1.6772723E-3,-6.877178E-2,-2.883563E-3,7.280185E-2,-5.6370866E-2,2.8987264E-2,8.731737E-2,-7.686631E-2,5.5529516E-2,2.0728035E-2,-7.425993E-2,-5.3897705E-2,-5.5095586E-3,1.6886909E-2,8.250211E-2,1.714439E-2,8.6518705E-2,5.270948E-2,1.5918117E-2,-1.5219363E-2,6.693693E-2,3.516159E-2,7.386626E-2,2.0393174E-2,7.80537E-2,-1.7044125E-2,5.0361842E-2,4.7866754E-2,7.377436E-2,5.477406E-3,8.545687E-2,5.547854E-2,7.9385996E-2],"split_indices":[21,17,18,18,21,16,22,21,21,19,24,22,1,5,14,19,15,14,26,1,16,22,1,14,15,21,26,0,0,1,27,1,0,22,1,20,18,0,24,1,5,27,27,21,0,19,1,5,19,1,24,0,16,14,4,13,24,10,20,0,0,0,0,0,0,0,0,0,0,0,0,0,0,0,0,0,0,0,0,0,0,0,0,0,0,0,0,0,0,0,0,0,0,0,0,0,0,0,0,0,0,0,0,0,0,0,0],"split_type":[0,0,0,0,0,0,0,0,0,0,0,0,0,0,0,0,0,0,0,0,0,0,0,0,0,0,0,0,0,0,0,0,0,0,0,0,0,0,0,0,0,0,0,0,0,0,0,0,0,0,0,0,0,0,0,0,0,0,0,0,0,0,0,0,0,0,0,0,0,0,0,0,0,0,0,0,0,0,0,0,0,0,0,0,0,0,0,0,0,0,0,0,0,0,0,0,0,0,0,0,0,0,0,0,0,0,0],"sum_hessian":[4.761349E3,2.9626863E3,1.7986626E3,1.1048385E3,1.8578479E3,7.3533624E2,1.0633263E3,4.2803873E2,6.7679974E2,1.6382598E3,2.1958809E2,4.851531E2,2.5018312E2,4.989261E0,1.058337E3,5.681224E1,3.7122647E2,2.9228018E2,3.8451956E2,1.4435009E3,1.94759E2,5.978431E1,1.5980377E2,1.689745E2,3.1617862E2,2.8822805E1,2.2136032E2,1.0191882E0,3.9700732E0,3.6230463E2,6.960325E2,5.4525265E1,2.2869751E0,2.6885535E2,1.0237112E2,2.800627E2,1.2217484E1,3.566152E1,3.4885806E2,8.0557916E2,6.3792163E2,1.4390448E2,5.085452E1,5.6288708E1,3.4956026E0,3.612462E1,1.2367916E2,1.22953674E2,4.602083E1,5.971892E1,2.564597E2,4.2479663E0,2.4574839E1,8.46499E1,1.3671042E2,4.396419E1,3.1834042E2,4.3069778E2,2.6533466E2,1.99615E0,5.2529118E1,4.9564304E1,2.1929105E2,6.2233162E1,4.013796E1,5.717173E1,2.2289098E2,2.9545345E0,9.26295E0,6.3078606E1,2.8577945E2,2.7016943E2,5.354098E2,6.3442004E2,3.5016003E0,9.1120415E1,5.278407E1,2.9424667E1,2.1429852E1,5.3099103E0,5.0978794E1,3.253926E1,3.585357E0,1.0019758E2,2.348158E1,2.930446E1,9.364921E1,2.911617E1,1.6904655E1,1.8116236E1,4.1602684E1,4.8760788E1,2.0769891E2,7.5646305E0,1.7010208E1,4.282962E1,4.182028E1,2.2789755E0,1.3443144E2,1.6071598E1,2.7892591E1,5.303799E1,2.6530243E2,1.2530926E0,4.294447E2,4.267423E1,2.2266043E2],"tree_param":{"num_deleted":"0","num_feature":"28","num_nodes":"107","size_leaf_vector":"1"}},{"base_weights":[7.128448E-3,-7.5085676E-1,1.0736679E0,-1.6864805E0,-4.358904E-1,6.2967426E-1,1.5062008E0,-8.4858224E-2,-1.1352143E0,5.373428E-1,-9.052086E-1,4.2411768E-1,1.268778E0,1.5774231E0,1.2558465E0,5.6123096E-2,-8.190718E-2,1.2603811E0,-3.3092755E-1,-1.0873237E0,4.53053E-1,3.192315E-1,1.4924482E0,9.280011E-1,1.4892845E0,1.9349442E-1,1.5817116E0,5.383587E-1,1.3999925E0,1.5000039E0,5.2963024E-1,-1.2272942E0,8.689652E-1,-1.3322654E0,-3.7242386E-1,-8.706692E-2,7.870394E-1,-2.884142E-1,6.1873317E-1,-6.188155E-1,1.666192E0,1.330161E0,4.092568E-1,1.5216901E0,-6.1051577E-2,-2.791304E-3,2.0472264E-2,-2.7373736E-3,1.5850039E0,1.1844978E0,-4.305157E-1,1.4358615E0,-7.405443E-1,6.011287E-2,8.5950546E-2,2.8663576E-3,5.827055E-2,7.5388188E-3,-7.618903E-2,7.441914E-3,8.061718E-2,-8.4260516E-2,-4.5716397E-2,-7.88283E-2,-6.392566E-3,5.349329E-2,-8.279936E-2,1.10498E-2,-8.5106246E-2,-6.0611665E-3,3.7156537E-2,-7.274137E-2,5.1844455E-2,2.7923573E-2,8.6004846E-2,7.176287E-2,-2.8937435E-2,4.658161E-2,-9.260089E-2,3.9042436E-2,8.289041E-2,6.0303807E-2,8.0041505E-2,7.092074E-2,-5.742101E-2,6.705448E-2,-4.6542235E-2,7.8698315E-2,5.7587575E-2,-6.557204E-2,2.044305E-2],"categories":[],"categories_nodes":[],"categories_segments":[],"categories_sizes":[],"default_left":[0,0,0,0,0,0,0,0,0,0,0,0,0,0,0,0,0,0,0,0,0,0,0,0,0,0,0,0,0,0,0,0,0,0,0,0,0,0,0,0,0,0,0,0,0,0,0,0,0,0,0,0,0,0,0,0,0,0,0,0,0,0,0,0,0,0,0,0,0,0,0,0,0,0,0,0,0,0,0,0,0,0,0,0,0,0,0,0,0,0,0],"id":4,"left_children":[1,3,5,7,9,11,13,-1,15,17,19,21,23,25,27,-1,-1,29,31,33,35,37,39,41,43,45,47,49,51,53,55,57,59,61,63,-1,65,67,69,71,73,75,77,79,-1,-1,-1,-1,81,83,85,87,89,-1,-1,-1,-1,-1,-1,-1,-1,-1,-1,-1,-1,-1,-1,-1,-1,-1,-1,-1,-1,-1,-1,-1,-1,-1,-1,-1,-1,-1,-1,-1,-1,-1,-1,-1,-1,-1,-1],"loss_changes":[3.834681E3,8.1638354E2,3.7749243E2,2.1843262E0,9.486264E2,1.2743701E2,1.5804932E1,0E0,2.033575E1,4.247863E2,3.4700476E2,8.228351E1,1.6394318E1,4.279541E0,2.2601715E1,0E0,0E0,6.382605E1,3.3225943E2,2.15854E2,1.2326892E2,1.2280769E2,2.5152023E1,1.939759E1,1.4327576E1,2.127155E-1,4.235718E0,2.51778E1,1.5453308E1,1.6019775E1,2.7762028E1,7.24147E1,7.0561035E1,1.3414355E2,9.306061E1,0E0,1.0198895E2,1.6107893E2,4.1665955E1,9.438679E0,2.6834564E0,1.1544075E1,5.2741722E1,1.2898224E1,0E0,0E0,0E0,0E0,2.6785889E0,1.4674435E1,1.5872113E1,5.433136E0,2.9959886E0,0E0,0E0,0E0,0E0,0E0,0E0,0E0,0E0,0E0,0E0,0E0,0E0,0E0,0E0,0E0,0E0,0E0,0E0,0E0,0E0,0E0,0E0,0E0,0E0,0E0,0E0,0E0,0E0,0E0,0E0,0E0,0E0,0E0,0E0,0E0,0E0,0E0,0E0],"parents":[2147483647,0,0,1,1,2,2,3,3,4,4,5,5,6,6,8,8,9,9,10,10,11,11,12,12,13,13,14,14,17,17,18,18,19,19,20,20,21,21,22,22,23,23,24,24,25,25,26,26,27,27,28,28,29,29,30,30,31,31,32,32,33,33,34,34,36,36,37,37,38,38,39,39,40,40,41,41,42,42,43,43,48,48,49,49,50,50,51,51,52,52],"right_children":[2,4,6,8,10,12,14,-1,16,18,20,22,24,26,28,-1,-1,30,32,34,36,38,40,42,44,46,48,50,52,54,56,58,60,62,64,-1,66,68,70,72,74,76,78,80,-1,-1,-1,-1,82,84,86,88,90,-1,-1,-1,-1,-1,-1,-1,-1,-1,-1,-1,-1,-1,-1,-1,-1,-1,-1,-1,-1,-1,-1,-1,-1,-1,-1,-1,-1,-1,-1,-1,-1,-1,-1,-1,-1,-1,-1],"split_conditions":[3.12664E1,5.5333333E0,3.6328125E1,5.4333334E0,9.75E0,2.4131625E0,2.64667E1,-8.4858224E-2,2.88719E1,2.893275E1,2.65844E1,2.21E1,2.618985E1,2.67094E1,1.0979167E0,5.6123096E-2,-8.190718E-2,2.64667E1,2.58375E1,3.096015E1,1.1666667E1,2E0,1.4186983E1,1.0133333E1,2.025E1,2.986875E1,-9.212466E0,3.7109375E1,2.3760333E0,1.475705E1,7.9166665E0,2.89219E1,1.4532267E1,1.475705E1,1.29E1,-8.706692E-2,1.9116667E1,1.9566668E1,3.95729E1,2.245E1,3.208125E1,5.4395666E0,2.5663567E1,1E0,-6.1051577E-2,-2.791304E-3,2.0472264E-2,-2.7373736E-3,1E0,2.2266666E1,3.28E1,2.035E1,5.162483E0,6.011287E-2,8.5950546E-2,2.8663576E-3,5.827055E-2,7.5388188E-3,-7.618903E-2,7.441914E-3,8.061718E-2,-8.4260516E-2,-4.5716397E-2,-7.88283E-2,-6.392566E-3,5.349329E-2,-8.279936E-2,1.10498E-2,-8.5106246E-2,-6.0611665E-3,3.7156537E-2,-7.274137E-2,5.1844455E-2,2.7923573E-2,8.6004846E-2,7.176287E-2,-2.8937435E-2,4.658161E-2,-9.260089E-2,3.9042436E-2,8.289041E-2,6.0303807E-2,8.0041505E-2,7.092074E-2,-5.742101E-2,6.705448E-2,-4.6542235E-2,7.8698315E-2,5.7587575E-2,-6.557204E-2,2.044305E-2],"split_indices":[3,0,21,0,0,14,25,0,3,18,25,0,25,20,14,0,0,25,25,21,0,1,24,0,0,6,23,21,13,24,0,3,24,24,0,0,0,0,26,0,21,14,25,1,0,0,0,0,1,0,20,0,14,0,0,0,0,0,0,0,0,0,0,0,0,0,0,0,0,0,0,0,0,0,0,0,0,0,0,0,0,0,0,0,0,0,0,0,0,0,0],"split_type":[0,0,0,0,0,0,0,0,0,0,0,0,0,0,0,0,0,0,0,0,0,0,0,0,0,0,0,0,0,0,0,0,0,0,0,0,0,0,0,0,0,0,0,0,0,0,0,0,0,0,0,0,0,0,0,0,0,0,0,0,0,0,0,0,0,0,0,0,0,0,0,0,0,0,0,0,0,0,0,0,0,0,0,0,0,0,0,0,0,0,0],"sum_hessian":[4.7414233E3,2.7718071E3,1.969616E3,6.969945E2,2.0748125E3,9.731433E2,9.964727E2,6.8170404E2,1.529043E1,6.749703E2,1.3998424E3,7.375779E2,2.3556543E2,7.716485E2,2.248242E2,2.561204E0,1.2729226E1,3.6803958E2,3.069307E2,1.2345183E3,1.6532411E2,6.7282074E2,6.475714E1,9.459076E1,1.4097467E2,2.5262692E0,7.6912225E2,3.840378E1,1.8642043E2,2.7636362E2,9.167595E1,1.7567316E2,1.3125754E2,9.1883856E2,3.156797E2,2.1281887E1,1.4404222E2,2.2214912E2,4.506716E2,4.729121E0,6.002802E1,5.240176E1,4.2189E1,1.3974242E2,1.2322576E0,1.5166951E0,1.0095742E0,1.5128295E0,7.6760944E2,2.2905579E1,1.5498203E1,1.8367183E2,2.7485883E0,1.19876915E2,1.5648671E2,5.3226036E1,3.844991E1,3.1190578E1,1.4448257E2,6.72811E1,6.3976444E1,4.965087E2,4.2232986E2,5.2373737E1,2.6330594E2,1.2960059E2,1.4441639E1,1.6392485E2,5.8224277E1,6.486422E1,3.8580737E2,3.2230413E0,1.5060799E0,3.3127506E0,5.6715267E1,4.9902473E1,2.4992871E0,3.474954E1,7.4394608E0,2.2735874E1,1.1700653E2,3.386998E1,7.3373944E2,2.1174458E1,1.7311214E0,3.0429752E0,1.2455229E1,1.2053851E2,6.313332E1,1.7422563E0,1.006332E0],"tree_param":{"num_deleted":"0","num_feature":"28","num_nodes":"91","size_leaf_vector":"1"}},{"base_weights":[2.0943314E-2,-7.1206766E-1,1.0390397E0,-3.2558998E-1,-1.4526634E0,5.532259E-1,1.422577E0,1.009147E0,-7.562907E-1,-1.5182226E0,1.9360064E-1,1.4644719E0,4.3462843E-1,1.1764733E0,1.5186808E0,1.1253532E0,-1.1331215E0,-9.7614175E-1,6.8940896E-1,-8.2027815E-2,-1.1540498E0,1.4066612E0,-1.0964755E0,1.5067325E0,-5.2135136E-2,-5.202904E-2,6.951879E-1,4.6638748E-1,1.2687162E0,1.544103E0,1.2365558E0,8.0244124E-1,1.5206403E0,4.8860887E-1,-8.0371074E-2,-1.2943804E0,-4.072327E-1,-5.032382E-1,1.106765E0,-8.268248E-2,-4.3421978E-1,-1.389538E-1,8.930537E-2,-8.378219E-2,2.1146573E-1,1.5315647E0,-3.3355446E-3,-7.3524225E-1,5.4907876E-1,-6.0783017E-1,8.5735375E-1,-5.868971E-1,1.3692638E0,1.3482573E0,4.62299E-1,1.2979206E0,1.5746725E0,1.3350171E0,-7.185219E-2,5.4246824E-2,-3.8771182E-3,7.8006245E-2,-6.183622E-2,7.01047E-2,-5.6681205E-2,-6.7069404E-2,6.680692E-2,-5.1167656E-2,1.6275215E-3,-4.4737358E-2,7.073502E-2,-7.0159114E-3,6.906615E-2,4.1523073E-2,-6.2089797E-2,-6.3140094E-2,6.75559E-2,6.1083127E-2,-6.072268E-2,9.01815E-2,7.0309095E-2,-4.8538875E-2,7.788457E-2,4.7141567E-2,-9.6542165E-3,-9.487496E-2,6.0071833E-2,5.5490088E-2,3.3528287E-2,-8.776209E-2,3.4717705E-2,-5.916789E-2,8.161369E-2,4.4778068E-2,7.248014E-2,7.275544E-2,-7.882538E-2,7.682831E-2,4.9527835E-2,2.8837018E-3,7.8877464E-2,-3.7046213E-2,7.0748754E-2],"categories":[],"categories_nodes":[],"categories_segments":[],"categories_sizes":[],"default_left":[0,0,0,0,0,0,0,0,0,0,0,0,0,0,0,0,0,0,0,0,0,0,0,0,0,0,0,0,0,0,0,0,0,0,0,0,0,0,0,0,0,0,0,0,0,0,0,0,0,0,0,0,0,0,0,0,0,0,0,0,0,0,0,0,0,0,0,0,0,0,0,0,0,0,0,0,0,0,0,0,0,0,0,0,0,0,0,0,0,0,0,0,0,0,0,0,0,0,0,0,0,0,0],"id":5,"left_children":[1,3,5,7,9,11,13,15,17,19,21,23,25,27,29,31,33,35,37,-1,39,41,43,45,-1,47,49,51,53,55,57,59,61,63,-1,65,67,69,71,-1,73,75,-1,-1,77,79,-1,81,83,85,87,89,91,93,95,97,99,101,-1,-1,-1,-1,-1,-1,-1,-1,-1,-1,-1,-1,-1,-1,-1,-1,-1,-1,-1,-1,-1,-1,-1,-1,-1,-1,-1,-1,-1,-1,-1,-1,-1,-1,-1,-1,-1,-1,-1,-1,-1,-1,-1,-1,-1],"loss_changes":[3.5093496E3,7.820764E2,3.65989E2,1.0342805E3,1.014469E2,9.3392975E1,2.4215088E1,1.10569275E2,4.3286743E2,3.8266846E1,5.910193E1,1.2142761E1,9.783853E1,1.9921753E1,3.7365723E0,5.199945E1,1.8544256E1,2.1323999E2,9.019197E1,0E0,8.201187E1,1.1622459E1,1.4282421E1,3.9519653E0,0E0,1.112414E2,1.066823E2,3.654867E1,1.7118347E1,3.3602295E0,2.0369766E1,5.7656937E1,2.2217499E1,1.0467894E1,0E0,9.536279E1,1.1519274E2,3.6834187E1,4.5975327E1,0E0,9.867506E1,9.661591E0,0E0,0E0,1.0891131E1,7.7407837E-1,0E0,6.996201E1,4.2304386E1,1.3339404E2,2.0343933E1,2.8236519E1,1.5720562E1,1.0228302E1,5.5638966E1,4.713516E0,2.6762695E0,1.2355515E1,0E0,0E0,0E0,0E0,0E0,0E0,0E0,0E0,0E0,0E0,0E0,0E0,0E0,0E0,0E0,0E0,0E0,0E0,0E0,0E0,0E0,0E0,0E0,0E0,0E0,0E0,0E0,0E0,0E0,0E0,0E0,0E0,0E0,0E0,0E0,0E0,0E0,0E0,0E0,0E0,0E0,0E0,0E0,0E0,0E0],"parents":[2147483647,0,0,1,1,2,2,3,3,4,4,5,5,6,6,7,7,8,8,9,9,10,10,11,11,12,12,13,13,14,14,15,15,16,16,17,17,18,18,20,20,21,21,22,22,23,23,25,25,26,26,27,27,28,28,29,29,30,30,31,31,32,32,33,33,35,35,36,36,37,37,38,38,40,40,41,41,44,44,45,45,47,47,48,48,49,49,50,50,51,51,52,52,53,53,54,54,55,55,56,56,57,57],"right_children":[2,4,6,8,10,12,14,16,18,20,22,24,26,28,30,32,34,36,38,-1,40,42,44,46,-1,48,50,52,54,56,58,60,62,64,-1,66,68,70,72,-1,74,76,-1,-1,78,80,-1,82,84,86,88,90,92,94,96,98,100,102,-1,-1,-1,-1,-1,-1,-1,-1,-1,-1,-1,-1,-1,-1,-1,-1,-1,-1,-1,-1,-1,-1,-1,-1,-1,-1,-1,-1,-1,-1,-1,-1,-1,-1,-1,-1,-1,-1,-1,-1,-1,-1,-1,-1,-1],"split_conditions":[3.12664E1,1E0,3.59258E1,2.9452066E1,3.035625E1,8.683333E0,2.04635E0,4.0062E0,2.65844E1,5.4333334E0,3.1778133E1,3.441449E1,2E0,1E0,2.65844E1,1.475705E1,8.54604E-1,5.442544E-1,3.9483264E-1,-8.2027815E-2,2.85E1,3.096015E1,3.91052E1,6.582275E0,-5.2135136E-2,3.3175198E1,2.8830917E1,9.166667E0,2.65844E1,9.166667E0,1.9115765E0,9.0247667E-1,3.8687E0,6E0,-8.0371074E-2,1.4514291E0,1.475705E1,1.5283334E1,1.1666667E1,-8.268248E-2,-1.14615E1,2.2183332E1,8.930537E-2,-8.378219E-2,2.2833334E1,9.297415E-1,-3.3355446E-3,2.2266666E1,1.9566668E1,8.481234E0,4E0,3.746015E1,3.6045868E1,3.6328125E1,2.13E1,3.79969E1,3.287956E1,3.67396E1,-7.185219E-2,5.4246824E-2,-3.8771182E-3,7.8006245E-2,-6.183622E-2,7.01047E-2,-5.6681205E-2,-6.7069404E-2,6.680692E-2,-5.1167656E-2,1.6275215E-3,-4.4737358E-2,7.073502E-2,-7.0159114E-3,6.906615E-2,4.1523073E-2,-6.2089797E-2,-6.3140094E-2,6.75559E-2,6.1083127E-2,-6.072268E-2,9.01815E-2,7.0309095E-2,-4.8538875E-2,7.788457E-2,4.7141567E-2,-9.6542165E-3,-9.487496E-2,6.0071833E-2,5.5490088E-2,3.3528287E-2,-8.776209E-2,3.4717705E-2,-5.916789E-2,8.161369E-2,4.4778068E-2,7.248014E-2,7.275544E-2,-7.882538E-2,7.682831E-2,4.9527835E-2,2.8837018E-3,7.8877464E-2,-3.7046213E-2,7.0748754E-2],"split_indices":[3,2,21,21,21,0,14,22,25,0,21,18,1,1,25,24,17,19,19,0,20,21,6,14,0,18,27,0,25,0,19,17,22,1,0,14,24,0,0,0,23,0,0,0,0,17,0,0,0,22,1,21,21,21,0,21,18,21,0,0,0,0,0,0,0,0,0,0,0,0,0,0,0,0,0,0,0,0,0,0,0,0,0,0,0,0,0,0,0,0,0,0,0,0,0,0,0,0,0,0,0,0,0],"split_type":[0,0,0,0,0,0,0,0,0,0,0,0,0,0,0,0,0,0,0,0,0,0,0,0,0,0,0,0,0,0,0,0,0,0,0,0,0,0,0,0,0,0,0,0,0,0,0,0,0,0,0,0,0,0,0,0,0,0,0,0,0,0,0,0,0,0,0,0,0,0,0,0,0,0,0,0,0,0,0,0,0,0,0,0,0,0,0,0,0,0,0,0,0,0,0,0,0,0,0,0,0,0,0],"sum_hessian":[4.7004917E3,2.7330476E3,1.9674442E3,1.7968213E3,9.3622626E2,8.690677E2,1.0983765E3,4.3802945E2,1.3587917E3,9.0044556E2,3.5780678E1,9.877552E1,7.702922E2,3.1218082E2,7.861956E2,4.1594162E2,2.2087831E1,1.1797145E3,1.7907727E2,6.714019E2,2.2904364E2,1.8394205E1,1.738647E1,9.753059E1,1.2449307E0,2.6888507E2,5.014071E2,3.658737E1,2.7559344E2,7.1710425E2,6.909139E1,2.3059634E2,1.8534528E2,4.991317E0,1.7096516E1,7.557082E2,4.2400632E2,4.6368298E1,1.3270898E2,1.3443877E2,9.460487E1,3.7505841E0,1.4643621E1,1.185558E1,5.53089E0,9.604147E1,1.4891165E0,1.2574332E2,1.4314177E2,5.519132E1,4.462158E2,1.7048624E1,1.953875E1,2.5023915E2,2.53543E1,8.401002E1,6.3309424E2,6.712021E1,1.9711864E0,1.7438255E2,5.6213787E1,1.8315672E2,2.1885493E0,3.2800245E0,1.7112923E0,7.429221E2,1.278604E1,1.7604568E2,2.4796065E2,3.895076E1,7.4175363E0,2.4033617E1,1.0867536E2,3.6857273E1,5.77476E1,2.2249763E0,1.5256081E0,3.3212125E0,2.2096772E0,2.6075592E1,6.996588E1,1.1455281E2,1.1190499E1,9.33466E1,4.9795166E1,3.2194145E1,2.2997175E1,1.8765482E2,2.5856097E2,8.723717E0,8.324907E0,1.4982567E0,1.8040493E1,4.757318E1,2.0266595E2,1.7243675E1,8.110624E0,4.504033E1,3.8969692E1,1.2381254E0,6.318561E2,2.182767E0,6.493744E1],"tree_param":{"num_deleted":"0","num_feature":"28","num_nodes":"103","size_leaf_vector":"1"}},{"base_weights":[4.9130647E-3,-6.944342E-1,9.7561365E-1,-1.5793029E0,-3.9695993E-1,5.5723035E-1,1.4024761E0,-7.948797E-2,-1.0326414E0,5.3122E-1,-8.388552E-1,3.6840504E-1,1.14042E0,1.2042301E0,1.4972713E0,5.387091E-1,-7.676246E-2,1.1512151E0,-2.4661295E-1,-1.3764243E0,-3.0954733E-1,2.5791878E-1,1.339632E0,7.700218E-1,1.3924757E0,9.346176E-1,1.4273812E0,1.4018034E0,7.7721514E-2,5.5535194E-2,-6.5743774E-3,1.411157E0,4.7945273E-1,-1.1564276E0,9.5611614E-1,-1.4391701E0,-7.3265237E-1,-5.614695E-1,9.928983E-1,-2.9440784E-1,5.414152E-1,-9.315823E-1,1.564092E0,1.1694269E0,1.5345028E-1,1.4368163E0,-6.8885565E-2,-2.1100213E-1,1.0140897E0,8.458946E-1,1.4829068E0,1.035963E0,1.4560219E0,7.624159E-2,3.630439E-2,-9.446462E-2,5.6459423E-2,-1.3545195E-2,-7.7219814E-2,5.5321425E-2,-8.210828E-2,-7.8628324E-2,-6.106902E-2,-5.002842E-2,2.7537644E-2,-7.417896E-2,-1.1069323E-2,-7.92496E-2,6.21196E-2,1.0017927E-2,-8.041437E-2,-7.329578E-3,3.3193592E-2,-7.895206E-2,4.9485546E-2,2.6452338E-2,8.040165E-2,6.487744E-2,-4.1005604E-2,3.3099364E-2,-9.138983E-2,3.1014739E-2,7.844165E-2,-6.6587865E-2,2.7124602E-2,5.334583E-2,-3.004231E-2,-6.911512E-2,6.596612E-2,4.100845E-2,7.5557075E-2,7.663397E-2,2.1785688E-2,7.898807E-2,6.226459E-2],"categories":[],"categories_nodes":[],"categories_segments":[],"categories_sizes":[],"default_left":[0,0,0,0,0,0,0,0,0,0,0,0,0,0,0,0,0,0,0,0,0,0,0,0,0,0,0,0,0,0,0,0,0,0,0,0,0,0,0,0,0,0,0,0,0,0,0,0,0,0,0,0,0,0,0,0,0,0,0,0,0,0,0,0,0,0,0,0,0,0,0,0,0,0,0,0,0,0,0,0,0,0,0,0,0,0,0,0,0,0,0,0,0,0,0],"id":6,"left_children":[1,3,5,7,9,11,13,-1,15,17,19,21,23,25,27,29,-1,31,33,35,37,39,41,43,45,47,49,51,-1,-1,-1,53,55,57,59,61,63,65,67,69,71,73,75,77,79,81,-1,83,85,87,89,91,93,-1,-1,-1,-1,-1,-1,-1,-1,-1,-1,-1,-1,-1,-1,-1,-1,-1,-1,-1,-1,-1,-1,-1,-1,-1,-1,-1,-1,-1,-1,-1,-1,-1,-1,-1,-1,-1,-1,-1,-1,-1,-1],"loss_changes":[3.1311567E3,7.050597E2,3.441654E2,2.2120361E0,8.23938E2,1.0717761E2,1.6151367E1,0E0,1.3074129E1,3.1286877E2,3.8670868E2,7.901686E1,2.1194916E1,1.7567566E1,1.3255615E0,1.8704517E0,0E0,6.2336456E1,3.1659952E2,2.6200562E1,2.2592017E2,1.0433042E2,3.9845978E1,2.4155537E1,1.926059E1,1.3430901E1,4.234375E0,3.464264E0,0E0,0E0,0E0,1.911444E1,1.5941447E2,5.6130646E1,5.05259E1,1.5910645E1,2.1855469E1,1.8035197E2,7.379814E1,1.4743056E2,3.7166046E1,1.0767326E1,2.2830505E0,1.6312187E1,4.1510067E1,1.4006165E1,0E0,9.374142E0,1.2237045E1,1.9910742E1,1.6394958E0,1.0013493E1,3.6617432E0,0E0,0E0,0E0,0E0,0E0,0E0,0E0,0E0,0E0,0E0,0E0,0E0,0E0,0E0,0E0,0E0,0E0,0E0,0E0,0E0,0E0,0E0,0E0,0E0,0E0,0E0,0E0,0E0,0E0,0E0,0E0,0E0,0E0,0E0,0E0,0E0,0E0,0E0,0E0,0E0,0E0,0E0],"parents":[2147483647,0,0,1,1,2,2,3,3,4,4,5,5,6,6,8,8,9,9,10,10,11,11,12,12,13,13,14,14,15,15,17,17,18,18,19,19,20,20,21,21,22,22,23,23,24,24,25,25,26,26,27,27,31,31,32,32,33,33,34,34,35,35,36,36,37,37,38,38,39,39,40,40,41,41,42,42,43,43,44,44,45,45,47,47,48,48,49,49,50,50,51,51,52,52],"right_children":[2,4,6,8,10,12,14,-1,16,18,20,22,24,26,28,30,-1,32,34,36,38,40,42,44,46,48,50,52,-1,-1,-1,54,56,58,60,62,64,66,68,70,72,74,76,78,80,82,-1,84,86,88,90,92,94,-1,-1,-1,-1,-1,-1,-1,-1,-1,-1,-1,-1,-1,-1,-1,-1,-1,-1,-1,-1,-1,-1,-1,-1,-1,-1,-1,-1,-1,-1,-1,-1,-1,-1,-1,-1,-1,-1,-1,-1,-1,-1],"split_conditions":[3.12664E1,5.5333333E0,3.6328125E1,5.4333334E0,9.65E0,2.4131625E0,2.6421833E0,-7.948797E-2,2.9191668E1,2.893275E1,4.2443046E-1,1E0,2.618985E1,1.4532267E1,1.0438269E0,2.88719E1,-7.676246E-2,3.0047655E1,2.58375E1,2.65844E1,2.65844E1,2E0,1.4186983E1,1.0133333E1,2.025E1,5.211386E-1,1E0,8.866667E0,7.7721514E-2,5.5535194E-2,-6.5743774E-3,2.64667E1,7.1666665E0,-6.8423576E0,3.0047655E1,1.48141E1,3.0125566E1,1.3183333E1,1.1666667E1,1.9566668E1,2.8830917E1,2.245E1,3.208125E1,5.4395666E0,2.5663567E1,1E0,-6.8885565E-2,3.8646665E-1,1.6575917E0,3.746015E1,3.21802E1,3.79969E1,2.9376646E1,7.624159E-2,3.630439E-2,-9.446462E-2,5.6459423E-2,-1.3545195E-2,-7.7219814E-2,5.5321425E-2,-8.210828E-2,-7.8628324E-2,-6.106902E-2,-5.002842E-2,2.7537644E-2,-7.417896E-2,-1.1069323E-2,-7.92496E-2,6.21196E-2,1.0017927E-2,-8.041437E-2,-7.329578E-3,3.3193592E-2,-7.895206E-2,4.9485546E-2,2.6452338E-2,8.040165E-2,6.487744E-2,-4.1005604E-2,3.3099364E-2,-9.138983E-2,3.1014739E-2,7.844165E-2,-6.6587865E-2,2.7124602E-2,5.334583E-2,-3.004231E-2,-6.911512E-2,6.596612E-2,4.100845E-2,7.5557075E-2,7.663397E-2,2.1785688E-2,7.898807E-2,6.226459E-2],"split_indices":[3,0,21,0,0,14,14,0,21,18,19,2,25,24,17,3,0,27,25,25,25,1,24,0,0,19,1,0,0,0,0,25,0,16,27,24,18,0,0,0,27,0,21,14,25,1,0,14,10,21,3,21,27,0,0,0,0,0,0,0,0,0,0,0,0,0,0,0,0,0,0,0,0,0,0,0,0,0,0,0,0,0,0,0,0,0,0,0,0,0,0,0,0,0,0],"split_type":[0,0,0,0,0,0,0,0,0,0,0,0,0,0,0,0,0,0,0,0,0,0,0,0,0,0,0,0,0,0,0,0,0,0,0,0,0,0,0,0,0,0,0,0,0,0,0,0,0,0,0,0,0,0,0,0,0,0,0,0,0,0,0,0,0,0,0,0,0,0,0,0,0,0,0,0,0,0,0,0,0,0,0,0,0,0,0,0,0,0,0,0,0,0,0],"sum_hessian":[4.610398E3,2.6799187E3,1.9304794E3,6.7317615E2,2.0067424E3,9.760868E2,9.543926E2,6.5866907E2,1.4507086E1,6.4717664E2,1.3595658E3,7.3858057E2,2.3750621E2,3.1316696E2,6.4122565E2,3.4982727E0,1.1008813E1,3.598597E2,2.8731696E2,6.737251E2,6.858407E2,6.642782E2,7.4302376E1,9.7817505E1,1.396887E2,1.441692E2,1.6899776E2,2.4969878E2,3.9152686E2,1.5327941E0,1.9654784E0,2.5866663E2,1.01193085E2,1.6359933E2,1.2371761E2,6.1276575E2,6.095934E1,5.7516064E2,1.10680046E2,2.2529842E2,4.389798E2,6.3993883E0,6.790299E1,5.8818897E1,3.8998604E1,1.3796176E2,1.7269406E0,9.244942E0,1.3492426E2,1.6145891E1,1.5285187E2,3.4824837E1,2.1487395E2,2.2080261E2,3.7864006E1,2.1371414E1,7.982167E1,5.0357815E1,1.13241516E2,1.1749464E2,6.2229786E0,3.7615186E2,2.3661392E2,5.061387E1,1.034547E1,1.5406436E2,4.2109628E2,9.2942705E0,1.0138577E2,1.6428229E2,6.1016125E1,6.629766E1,3.7268213E2,4.9196467E0,1.4797415E0,3.296347E0,6.460664E1,5.5587032E1,3.2318656E0,3.156303E1,7.435575E0,1.9994514E1,1.17967255E2,3.4081626E0,5.8367796E0,1.309791E2,3.9451747E0,2.4929597E0,1.3652932E1,7.473711E0,1.4537816E2,1.8205818E1,1.661902E1,1.3128659E2,8.358736E1],"tree_param":{"num_deleted":"0","num_feature":"28","num_nodes":"95","size_leaf_vector":"1"}},{"base_weights":[-5.577838E-3,-5.914173E-1,1.0876653E0,-2.6068667E-1,-1.321479E0,7.485478E-1,1.3712902E0,8.7510675E-1,-5.7902545E-1,-1.4137534E0,3.36077E-1,5.003608E-1,1.173638E0,1.4845304E0,1.1937608E0,1.1884878E0,4.921137E-1,-7.8711164E-1,7.6139486E-1,-7.751962E-2,-1.2148881E0,-1.3319479E0,8.180631E-1,3.5806954E-1,1.4016532E0,1.2588161E0,1.4882225E-1,9.1979754E-1,1.4931448E0,6.840305E-1,1.276584E0,1.2583424E0,-7.594335E-1,7.9762083E-1,-1.1823634E0,-1.1136351E0,-1.5409735E-1,-2.6919204E-1,1.1250113E0,-1.3966388E0,-1.9733226E-1,-4.38937E-1,-7.642331E-2,1.497184E0,2.700464E-1,-4.3897605E-1,5.242079E-1,-6.297218E-1,1.4960076E0,1.3282474E0,9.200391E-1,1.1424518E0,-7.6157354E-2,1.0352753E0,7.015894E-4,7.5792104E-1,7.489365E-2,9.3917064E-2,1.2901815E0,-2.5764282E-3,1.2834563E0,-1.9275203E-2,6.6857055E-2,-1.0165631E-1,6.716048E-2,-6.629137E-2,5.7771295E-2,7.7387735E-2,-8.5007355E-2,-7.2325304E-2,-3.6335442E-2,-8.81867E-2,-3.061526E-4,8.124327E-2,-2.4962833E-2,3.4648478E-2,7.15258E-2,3.3896443E-2,-7.1069345E-2,1.2410377E-2,-7.527361E-2,2.5180114E-2,-5.1543195E-2,3.347392E-2,8.476904E-2,-1.7007628E-2,6.359341E-2,-5.683055E-2,-2.4420985E-3,1.914627E-2,4.7105197E-2,-6.222364E-2,2.2244157E-2,4.323036E-2,7.756002E-2,5.9328534E-2,7.406371E-2,-3.5136405E-2,5.2044403E-2,7.0874855E-2,-4.833588E-2,2.299673E-2,6.787865E-2,-1.0106153E-2,5.84512E-2,-1.7931694E-2,5.8618642E-2,6.897913E-2,1.3135271E-2,5.9258945E-2,7.0288874E-2],"categories":[],"categories_nodes":[],"categories_segments":[],"categories_sizes":[],"default_left":[0,0,0,0,0,0,0,0,0,0,0,0,0,0,0,0,0,0,0,0,0,0,0,0,0,0,0,0,0,0,0,0,0,0,0,0,0,0,0,0,0,0,0,0,0,0,0,0,0,0,0,0,0,0,0,0,0,0,0,0,0,0,0,0,0,0,0,0,0,0,0,0,0,0,0,0,0,0,0,0,0,0,0,0,0,0,0,0,0,0,0,0,0,0,0,0,0,0,0,0,0,0,0,0,0,0,0,0,0,0,0],"id":7,"left_children":[1,3,5,7,9,11,13,15,17,19,21,23,25,27,29,31,33,35,37,-1,39,41,43,45,47,49,51,53,55,57,59,61,63,65,67,69,71,73,75,77,79,81,-1,83,85,87,89,91,93,95,97,99,-1,101,-1,103,-1,105,107,-1,109,-1,-1,-1,-1,-1,-1,-1,-1,-1,-1,-1,-1,-1,-1,-1,-1,-1,-1,-1,-1,-1,-1,-1,-1,-1,-1,-1,-1,-1,-1,-1,-1,-1,-1,-1,-1,-1,-1,-1,-1,-1,-1,-1,-1,-1,-1,-1,-1,-1,-1],"loss_changes":[2.919849E3,7.163644E2,1.5196472E2,7.395871E2,1.419851E2,7.6075806E1,1.5617065E1,5.3172577E1,4.4609766E2,2.1936401E1,4.0963882E1,5.855957E1,2.3129974E1,1.1757812E0,1.3564178E1,3.4378357E1,1.0492722E2,2.857008E2,8.092372E1,0E0,6.660516E1,1.347105E0,1.4146759E1,5.3076572E1,1.2911789E1,4.5757446E0,3.767797E1,1.0813656E0,6.534424E-1,1.7747072E1,2.7406006E0,3.127951E1,2.7174463E1,1.3259438E2,4.753681E1,1.16444824E2,1.1236696E2,2.5612892E1,2.0024612E1,1.670813E1,3.2993763E1,2.4589884E0,0E0,1.6932335E0,1.4405726E1,1.8828123E1,1.9164291E1,2.8497524E0,7.4884033E-1,2.628479E0,9.591362E0,9.573139E0,0E0,1.0962048E0,0E0,2.3328667E0,0E0,1.3300295E1,1.8939056E0,0E0,1.8387756E0,0E0,0E0,0E0,0E0,0E0,0E0,0E0,0E0,0E0,0E0,0E0,0E0,0E0,0E0,0E0,0E0,0E0,0E0,0E0,0E0,0E0,0E0,0E0,0E0,0E0,0E0,0E0,0E0,0E0,0E0,0E0,0E0,0E0,0E0,0E0,0E0,0E0,0E0,0E0,0E0,0E0,0E0,0E0,0E0,0E0,0E0,0E0,0E0,0E0,0E0],"parents":[2147483647,0,0,1,1,2,2,3,3,4,4,5,5,6,6,7,7,8,8,9,9,10,10,11,11,12,12,13,13,14,14,15,15,16,16,17,17,18,18,20,20,21,21,22,22,23,23,24,24,25,25,26,26,27,27,28,28,29,29,30,30,31,31,32,32,33,33,34,34,35,35,36,36,37,37,38,38,39,39,40,40,41,41,43,43,44,44,45,45,46,46,47,47,48,48,49,49,50,50,51,51,53,53,55,55,57,57,58,58,60,60],"right_children":[2,4,6,8,10,12,14,16,18,20,22,24,26,28,30,32,34,36,38,-1,40,42,44,46,48,50,52,54,56,58,60,62,64,66,68,70,72,74,76,78,80,82,-1,84,86,88,90,92,94,96,98,100,-1,102,-1,104,-1,106,108,-1,110,-1,-1,-1,-1,-1,-1,-1,-1,-1,-1,-1,-1,-1,-1,-1,-1,-1,-1,-1,-1,-1,-1,-1,-1,-1,-1,-1,-1,-1,-1,-1,-1,-1,-1,-1,-1,-1,-1,-1,-1,-1,-1,-1,-1,-1,-1,-1,-1,-1,-1],"split_conditions":[3.26281E1,1E0,-8.325667E-1,2.9104177E1,2.9901888E1,3.5196064E1,2.9355495E1,8.6735946E-1,2.65844E1,2.8751621E1,2.72156E1,1E0,2.65844E1,3.27328E1,3.421353E1,2.65844E1,3.0047655E1,3.0230307E1,4.074526E-1,-7.751962E-2,4.09469E1,2.9076551E1,2.8916634E1,1E0,4.0195835E1,2.64667E1,1E0,3.253647E1,-8.032138E-1,2.6489567E1,6.1225E-1,2.575315E1,-9.731695E0,2.525155E1,2.7424807E1,2.56865E1,3.95729E1,2.9568356E1,-1.5886667E-1,7.9351693E-1,3E0,-1.3912475E1,-7.642331E-2,2.825E1,3.20021E1,1.6802083E-1,9.959295E-1,3.1934366E1,3.3131233E1,2.58375E1,9.242829E-1,1.2776238E0,-7.6157354E-2,2.6687334E0,7.015894E-4,1.01461E1,7.489365E-2,3.8656166E0,1.848425E0,-2.5764282E-3,3.8656166E0,-1.9275203E-2,6.6857055E-2,-1.0165631E-1,6.716048E-2,-6.629137E-2,5.7771295E-2,7.7387735E-2,-8.5007355E-2,-7.2325304E-2,-3.6335442E-2,-8.81867E-2,-3.061526E-4,8.124327E-2,-2.4962833E-2,3.4648478E-2,7.15258E-2,3.3896443E-2,-7.1069345E-2,1.2410377E-2,-7.527361E-2,2.5180114E-2,-5.1543195E-2,3.347392E-2,8.476904E-2,-1.7007628E-2,6.359341E-2,-5.683055E-2,-2.4420985E-3,1.914627E-2,4.7105197E-2,-6.222364E-2,2.2244157E-2,4.323036E-2,7.756002E-2,5.9328534E-2,7.406371E-2,-3.5136405E-2,5.2044403E-2,7.0874855E-2,-4.833588E-2,2.299673E-2,6.787865E-2,-1.0106153E-2,5.84512E-2,-1.7931694E-2,5.8618642E-2,6.897913E-2,1.3135271E-2,5.9258945E-2,7.0288874E-2],"split_indices":[3,2,16,18,18,18,27,17,25,18,20,2,25,4,4,25,27,18,19,0,26,27,20,1,26,25,2,4,16,25,14,20,16,25,18,25,26,18,14,17,1,23,0,20,5,14,17,20,3,25,17,19,0,9,0,22,0,14,8,0,14,0,0,0,0,0,0,0,0,0,0,0,0,0,0,0,0,0,0,0,0,0,0,0,0,0,0,0,0,0,0,0,0,0,0,0,0,0,0,0,0,0,0,0,0,0,0,0,0,0,0],"split_type":[0,0,0,0,0,0,0,0,0,0,0,0,0,0,0,0,0,0,0,0,0,0,0,0,0,0,0,0,0,0,0,0,0,0,0,0,0,0,0,0,0,0,0,0,0,0,0,0,0,0,0,0,0,0,0,0,0,0,0,0,0,0,0,0,0,0,0,0,0,0,0,0,0,0,0,0,0,0,0,0,0,0,0,0,0,0,0,0,0,0,0,0,0,0,0,0,0,0,0,0,0,0,0,0,0,0,0,0,0,0,0],"sum_hessian":[4.5569478E3,2.967307E3,1.5896407E3,2.0431028E3,9.2420416E2,7.256514E2,8.639893E2,4.4689343E2,1.5962094E3,8.756071E2,4.859703E1,4.5953247E2,2.6611896E2,5.230138E2,3.409755E2,2.4462656E2,2.0226688E2,1.3820703E3,2.141391E2,5.149752E2,3.606319E2,1.0499076E1,3.8097954E1,3.9808258E2,6.1449883E1,2.4548682E2,2.063213E1,9.477403E0,5.135364E2,4.8953445E1,2.9202206E2,2.3649944E2,8.127126E0,1.7150041E2,3.076646E1,9.1126135E2,4.7080893E2,5.5916466E1,1.5822264E2,3.056633E2,5.4968597E1,2.4769547E0,8.022121E0,1.624035E1,2.1857603E1,6.8381485E1,3.297011E2,2.475715E0,5.8974167E1,2.0130855E2,4.417826E1,1.3139939E1,7.4921913E0,8.278924E0,1.1984792E0,4.3121433E0,5.0922424E2,2.5390081E1,2.3563366E1,1.4698491E0,2.9055222E2,1.0640122E1,2.2585931E2,5.0818295E0,3.0452964E0,2.4340809E1,1.471596E2,4.5877E0,2.617876E1,4.883755E2,4.228859E2,3.8718384E1,4.3209055E2,5.3996887E0,5.0516777E1,6.6892365E1,9.133028E1,3.2922063E0,3.023711E2,4.1607685E1,1.3360915E1,1.0130564E0,1.4638983E0,3.9832842E0,1.2257067E1,1.3994294E1,7.8633094E0,2.3839134E1,4.454235E1,2.478307E2,8.18704E1,1.4742588E0,1.0014561E0,6.0803866E0,5.289378E1,1.09076385E2,9.223217E1,2.7282484E0,4.1450012E1,1.1914208E1,1.225731E0,3.8439856E0,4.434938E0,1.445297E0,2.8668463E0,1.8355179E1,7.0349026E0,2.1361965E1,2.2014003E0,1.6703717E2,1.2351504E2],"tree_param":{"num_deleted":"0","num_feature":"28","num_nodes":"111","size_leaf_vector":"1"}},{"base_weights":[-4.4610705E-3,-6.0846555E-1,9.9720645E-1,-1.4959434E0,-3.39483E-1,6.237154E-1,1.2969403E0,-7.531914E-2,-9.495327E-1,4.7955808E-1,-7.1181744E-1,3.9631638E-1,1.1112611E0,1.4220307E0,1.1286957E0,5.3720742E-2,-1.2605191E0,1.1042265E0,-1.488989E-1,-8.94453E-1,5.5714005E-1,-9.856141E-1,4.632104E-1,1.178667E0,-8.7447695E-2,8.456921E-1,1.4410607E0,1.0603147E0,7.562653E-2,-5.063744E-3,-7.2433084E-2,1.3537112E0,3.6780456E-1,-1.0991242E0,9.1456014E-1,-1.2356055E0,-4.679808E-1,-8.0284375E-1,1.1200017E0,-1.30218E0,6.933694E-2,3.5275242E-1,1.396572E0,-1.1289374E0,1.2262211E0,1.2856275E0,-5.7983154E-1,1.0529081E0,1.4549472E0,1.2646179E0,7.564619E-1,7.379753E-2,3.772546E-2,-6.2490767E-3,4.9914457E-2,-1.4688811E-2,-7.5033136E-2,5.3422637E-2,-7.957469E-2,-7.60765E-2,-4.458267E-2,-7.856544E-2,-1.1619248E-2,-5.9952762E-2,1.763862E-2,-7.5789064E-2,6.457212E-2,-1.0225057E-2,-8.299645E-2,2.740609E-2,-1.5280145E-2,-8.921483E-3,7.2754316E-2,2.3736445E-2,-8.137002E-2,3.920756E-2,6.907225E-2,6.97043E-2,9.898095E-4,3.0540422E-2,-7.603406E-2,7.2161324E-2,-5.29309E-2,3.8928058E-2,7.322149E-2,4.2211756E-2,7.02235E-2,3.983811E-3,5.1607132E-2],"categories":[],"categories_nodes":[],"categories_segments":[],"categories_sizes":[],"default_left":[0,0,0,0,0,0,0,0,0,0,0,0,0,0,0,0,0,0,0,0,0,0,0,0,0,0,0,0,0,0,0,0,0,0,0,0,0,0,0,0,0,0,0,0,0,0,0,0,0,0,0,0,0,0,0,0,0,0,0,0,0,0,0,0,0,0,0,0,0,0,0,0,0,0,0,0,0,0,0,0,0,0,0,0,0,0,0,0,0],"id":8,"left_children":[1,3,5,7,9,11,13,-1,15,17,19,21,23,25,27,-1,29,31,33,35,37,39,41,43,-1,45,47,49,-1,-1,-1,51,53,55,57,59,61,63,65,67,-1,69,71,73,75,77,79,81,83,85,87,-1,-1,-1,-1,-1,-1,-1,-1,-1,-1,-1,-1,-1,-1,-1,-1,-1,-1,-1,-1,-1,-1,-1,-1,-1,-1,-1,-1,-1,-1,-1,-1,-1,-1,-1,-1,-1,-1],"loss_changes":[2.7091545E3,6.6632605E2,1.8775977E2,2.274292E0,6.544709E2,8.291766E1,1.8042603E1,0E0,1.0720288E1,2.6356775E2,3.4234607E2,4.7998238E1,4.8060394E1,4.6118164E0,8.972656E0,0E0,2.7668343E0,6.134668E1,3.3988153E2,1.8708142E2,1.4343231E2,1.9878551E1,5.0150467E1,2.7028961E1,0E0,1.2919646E1,1.2342529E0,2.0483215E1,0E0,0E0,0E0,1.7275482E1,2.7016357E1,5.6976913E1,6.294008E1,6.905652E1,1.4905923E2,2.5645878E1,6.165663E1,8.200577E0,0E0,5.6835213E1,5.019058E0,4.9606833E0,1.4661896E1,2.0516758E0,6.829257E0,1.9119501E1,2.020996E0,1.0868011E1,2.6289284E1,0E0,0E0,0E0,0E0,0E0,0E0,0E0,0E0,0E0,0E0,0E0,0E0,0E0,0E0,0E0,0E0,0E0,0E0,0E0,0E0,0E0,0E0,0E0,0E0,0E0,0E0,0E0,0E0,0E0,0E0,0E0,0E0,0E0,0E0,0E0,0E0,0E0,0E0],"parents":[2147483647,0,0,1,1,2,2,3,3,4,4,5,5,6,6,8,8,9,9,10,10,11,11,12,12,13,13,14,14,16,16,17,17,18,18,19,19,20,20,21,21,22,22,23,23,25,25,26,26,27,27,31,31,32,32,33,33,34,34,35,35,36,36,37,37,38,38,39,39,41,41,42,42,43,43,44,44,45,45,46,46,47,47,48,48,49,49,50,50],"right_children":[2,4,6,8,10,12,14,-1,16,18,20,22,24,26,28,-1,30,32,34,36,38,40,42,44,-1,46,48,50,-1,-1,-1,52,54,56,58,60,62,64,66,68,-1,70,72,74,76,78,80,82,84,86,88,-1,-1,-1,-1,-1,-1,-1,-1,-1,-1,-1,-1,-1,-1,-1,-1,-1,-1,-1,-1,-1,-1,-1,-1,-1,-1,-1,-1,-1,-1,-1,-1,-1,-1,-1,-1,-1,-1],"split_conditions":[3.3556232E1,5.5333333E0,3.51177E1,5.4333334E0,9.85E0,-1.4535146E0,2.9355495E1,-7.531914E-2,-1.2219E1,2.8870897E1,2.65844E1,2.3637834E0,2.035E1,3.553125E1,2.2833334E1,5.3720742E-2,1.0397873E-1,2.64667E1,2.58375E1,3.067815E1,3.9771324E-1,-5.279835E0,2.21E1,2.9076551E1,-8.7447695E-2,1.9733334E1,8.2E0,2.035E1,7.562653E-2,-5.063744E-3,-7.2433084E-2,3.0047655E1,7.9166665E0,2.9435432E1,3.0047655E1,1.475705E1,1.3466666E1,3.0100323E1,1.1666667E1,2.9076551E1,6.933694E-2,2.0433332E1,3.1672934E1,-2.7084E-1,4.067655E1,1.091675E0,9.087483E0,7.9166665E0,3.0894766E1,2.9376646E1,3.746015E1,7.379753E-2,3.772546E-2,-6.2490767E-3,4.9914457E-2,-1.4688811E-2,-7.5033136E-2,5.3422637E-2,-7.957469E-2,-7.60765E-2,-4.458267E-2,-7.856544E-2,-1.1619248E-2,-5.9952762E-2,1.763862E-2,-7.5789064E-2,6.457212E-2,-1.0225057E-2,-8.299645E-2,2.740609E-2,-1.5280145E-2,-8.921483E-3,7.2754316E-2,2.3736445E-2,-8.137002E-2,3.920756E-2,6.907225E-2,6.97043E-2,9.898095E-4,3.0540422E-2,-7.603406E-2,7.2161324E-2,-5.29309E-2,3.8928058E-2,7.322149E-2,4.2211756E-2,7.02235E-2,3.983811E-3,5.1607132E-2],"split_indices":[21,0,3,0,0,16,27,0,23,18,25,22,0,21,0,0,19,25,25,21,19,16,0,27,0,0,0,0,0,0,0,27,0,21,27,24,0,18,0,27,0,0,3,15,26,8,22,0,20,27,21,0,0,0,0,0,0,0,0,0,0,0,0,0,0,0,0,0,0,0,0,0,0,0,0,0,0,0,0,0,0,0,0,0,0,0,0,0,0],"split_type":[0,0,0,0,0,0,0,0,0,0,0,0,0,0,0,0,0,0,0,0,0,0,0,0,0,0,0,0,0,0,0,0,0,0,0,0,0,0,0,0,0,0,0,0,0,0,0,0,0,0,0,0,0,0,0,0,0,0,0,0,0,0,0,0,0,0,0,0,0,0,0,0,0,0,0,0,0,0,0,0,0,0,0,0,0,0,0,0,0],"sum_hessian":[4.475852E3,2.7924187E3,1.6834331E3,6.4843115E2,2.1439875E3,7.5087146E2,9.3256165E2,6.3455084E2,1.3880308E1,6.699594E2,1.4740282E3,5.132817E2,2.3758978E2,5.3060394E2,4.019577E2,1.521739E0,1.2358569E1,3.356128E2,3.343466E2,1.2888279E3,1.8520032E2,2.3064743E1,4.9021695E2,2.3269386E2,4.89592E0,1.8412306E1,5.1219165E2,3.443698E2,5.7587894E1,1.9404894E0,1.0418079E1,2.5005948E2,8.555329E1,1.765561E2,1.577905E2,7.1498505E2,5.738429E2,5.408764E1,1.3111267E2,2.0747328E1,2.3174138E0,4.3957385E2,5.0643105E1,4.239273E0,2.2845459E2,1.4145083E1,4.2672224E0,2.0344776E1,4.918469E2,2.0402579E2,1.4034402E2,2.0647472E2,4.3584774E1,4.847054E1,3.7082756E1,5.9317425E1,1.1723868E2,1.492019E2,8.58859E0,3.8855713E2,3.264279E2,9.997528E1,4.738676E2,4.0250034E1,1.3837608E1,7.5283265E0,1.2358435E2,5.486075E0,1.5261253E1,3.3910934E2,1.00464516E2,1.740679E0,4.8902424E1,1.0165191E0,3.222754E0,6.094319E1,1.675114E2,1.2935433E1,1.2096503E0,2.038413E0,2.2288096E0,1.7437864E1,2.9069116E0,7.9490485E0,4.8389783E2,5.2687744E1,1.5133804E2,4.0994095E1,9.934992E1],"tree_param":{"num_deleted":"0","num_feature":"28","num_nodes":"89","size_leaf_vector":"1"}},{"base_weights":[4.014338E-3,-6.262297E-1,8.746398E-1,-2.884385E-1,-1.2788093E0,4.5271018E-1,1.2315836E0,9.0507084E-1,-6.4347005E-1,-1.3445361E0,1.4977646E-1,2.8985217E-1,9.856794E-1,9.7119087E-1,1.3362939E0,-4.8780304E-1,9.764669E-1,-1.2065747E0,-2.088461E-1,-7.37189E-2,-1.1190289E0,1.2326927E0,-1.0419245E0,1.8089218E-1,1.369382E0,5.846985E-1,1.2447796E0,7.567554E-1,1.2899404E0,1.1955909E0,1.3822728E0,2.7929828E-1,-7.3178984E-2,1.1542474E0,4.4220576E-1,-1.3913462E0,-3.5695007E-1,-7.460461E-1,2.7752584E-1,-1.2896997E0,-2.4142765E-2,-5.0588198E-2,1.4487674E0,-1.4091752E0,7.2463655E-1,-3.2172757E-1,4.4192427E-1,-5.3480305E-2,1.4491317E0,1.2942845E-2,8.5031736E-1,5.122418E-1,1.4132594E0,1.800454E-1,9.3869287E-1,1.3560305E0,-1.9392982E-1,1.2578743E0,6.832963E-1,1.4093447E0,1.2313216E0,3.7512697E-2,-6.1119962E-2,6.9379486E-2,3.266732E-2,-7.887216E-2,2.8328264E-2,-2.0321822E-2,-7.280685E-2,1.0655773E-2,-5.4909486E-2,-4.5740526E-2,4.539102E-2,4.098274E-2,-2.7590116E-2,-3.5782315E-2,-6.981226E-2,2.4786144E-2,-7.112612E-2,-1.1574372E-2,8.2632326E-2,-7.823713E-2,-2.1872632E-2,3.0090923E-3,5.4346044E-2,4.1309867E-2,-2.35214E-2,-2.5140408E-2,2.9334227E-2,1.7921431E-2,7.4321106E-2,7.13242E-2,-5.1345527E-2,4.709931E-2,-6.226901E-2,6.7177996E-2,-2.354074E-3,1.6658533E-3,7.151458E-2,-4.2277515E-2,3.8925152E-2,4.984991E-2,-3.0600889E-2,4.774264E-2,7.15554E-2,-6.262644E-2,5.473091E-2,6.823153E-2,4.7963414E-2,5.46825E-2,-2.1691708E-2,7.1528815E-2,6.0647316E-2,9.938567E-3,6.460656E-2],"categories":[],"categories_nodes":[],"categories_segments":[],"categories_sizes":[],"default_left":[0,0,0,0,0,0,0,0,0,0,0,0,0,0,0,0,0,0,0,0,0,0,0,0,0,0,0,0,0,0,0,0,0,0,0,0,0,0,0,0,0,0,0,0,0,0,0,0,0,0,0,0,0,0,0,0,0,0,0,0,0,0,0,0,0,0,0,0,0,0,0,0,0,0,0,0,0,0,0,0,0,0,0,0,0,0,0,0,0,0,0,0,0,0,0,0,0,0,0,0,0,0,0,0,0,0,0,0,0,0,0,0,0,0,0],"id":9,"left_children":[1,3,5,7,9,11,13,15,17,19,21,23,25,27,29,31,33,35,37,-1,39,41,43,45,47,49,51,53,55,57,59,61,-1,63,65,67,69,71,73,75,77,-1,79,81,83,85,87,-1,89,91,93,95,97,99,101,103,105,107,109,111,113,-1,-1,-1,-1,-1,-1,-1,-1,-1,-1,-1,-1,-1,-1,-1,-1,-1,-1,-1,-1,-1,-1,-1,-1,-1,-1,-1,-1,-1,-1,-1,-1,-1,-1,-1,-1,-1,-1,-1,-1,-1,-1,-1,-1,-1,-1,-1,-1,-1,-1,-1,-1,-1,-1],"loss_changes":[2.4371873E3,5.675937E2,2.8034375E2,7.2052264E2,8.26897E1,7.404378E1,2.6235352E1,3.925537E1,3.203775E2,2.2944458E1,5.2311825E1,7.707181E1,2.005217E1,1.9069092E1,2.9892578E0,1.51399765E1,3.4753387E1,8.906152E1,1.9371176E2,0E0,5.8096222E1,1.1734482E1,1.3585657E1,7.86291E1,1.3242271E1,1.2198608E1,1.4162155E1,1.8480576E1,1.1690689E1,5.0155945E0,4.4854736E-1,9.303581E0,0E0,3.1580902E1,2.4583126E1,2.9287659E1,4.3862427E1,9.9130356E1,1.7553662E2,1.5459473E1,3.1942225E1,0E0,7.139942E0,1.7905884E0,8.959327E-1,3.5392475E1,5.4200165E1,0E0,1.852005E0,4.0442024E1,1.1715824E1,1.1279485E1,2.2437744E0,2.7580318E1,1.2805206E1,1.997345E0,9.342009E0,3.8865051E0,1.0627822E1,1.2548828E-1,5.3428802E0,0E0,0E0,0E0,0E0,0E0,0E0,0E0,0E0,0E0,0E0,0E0,0E0,0E0,0E0,0E0,0E0,0E0,0E0,0E0,0E0,0E0,0E0,0E0,0E0,0E0,0E0,0E0,0E0,0E0,0E0,0E0,0E0,0E0,0E0,0E0,0E0,0E0,0E0,0E0,0E0,0E0,0E0,0E0,0E0,0E0,0E0,0E0,0E0,0E0,0E0,0E0,0E0,0E0,0E0],"parents":[2147483647,0,0,1,1,2,2,3,3,4,4,5,5,6,6,7,7,8,8,9,9,10,10,11,11,12,12,13,13,14,14,15,15,16,16,17,17,18,18,20,20,21,21,22,22,23,23,24,24,25,25,26,26,27,27,28,28,29,29,30,30,31,31,33,33,34,34,35,35,36,36,37,37,38,38,39,39,40,40,42,42,43,43,44,44,45,45,46,46,48,48,49,49,50,50,51,51,52,52,53,53,54,54,55,55,56,56,57,57,58,58,59,59,60,60],"right_children":[2,4,6,8,10,12,14,16,18,20,22,24,26,28,30,32,34,36,38,-1,40,42,44,46,48,50,52,54,56,58,60,62,-1,64,66,68,70,72,74,76,78,-1,80,82,84,86,88,-1,90,92,94,96,98,100,102,104,106,108,110,112,114,-1,-1,-1,-1,-1,-1,-1,-1,-1,-1,-1,-1,-1,-1,-1,-1,-1,-1,-1,-1,-1,-1,-1,-1,-1,-1,-1,-1,-1,-1,-1,-1,-1,-1,-1,-1,-1,-1,-1,-1,-1,-1,-1,-1,-1,-1,-1,-1,-1,-1,-1,-1,-1,-1],"split_conditions":[3.12664E1,1E0,3.59258E1,2.8904966E1,3.035625E1,2.3135E0,2.04635E0,2.575315E1,2.56865E1,2.9153133E1,3.1778133E1,1E0,2.597735E1,3.746015E1,1.0175298E0,-1.18354E1,2.64667E1,3.1065634E1,2E0,-7.37189E-2,4.09469E1,6.6976666E-1,3.650749E1,2E0,4.0195835E1,3.23573E1,1E0,2.58375E1,2.65844E1,2.6489567E1,1.6417E0,2.7064741E1,-7.3178984E-2,-1.200465E1,1E0,2.9104177E1,5E0,7.9948336E-1,4E0,-1.3908334E-1,3.27395E0,-5.0588198E-2,2.825E1,3.494193E1,3.95344E1,-5.2288375E0,3.95729E1,-5.3480305E-2,3.208125E1,2.7451574E1,5.162483E0,-5.1976666E-2,-4.8354E-1,-4.9219E0,-3.2146E0,4.0195835E1,-2.2418E-1,3.8663532E1,4.313E-1,2.65844E1,3.6328125E1,3.7512697E-2,-6.1119962E-2,6.9379486E-2,3.266732E-2,-7.887216E-2,2.8328264E-2,-2.0321822E-2,-7.280685E-2,1.0655773E-2,-5.4909486E-2,-4.5740526E-2,4.539102E-2,4.098274E-2,-2.7590116E-2,-3.5782315E-2,-6.981226E-2,2.4786144E-2,-7.112612E-2,-1.1574372E-2,8.2632326E-2,-7.823713E-2,-2.1872632E-2,3.0090923E-3,5.4346044E-2,4.1309867E-2,-2.35214E-2,-2.5140408E-2,2.9334227E-2,1.7921431E-2,7.4321106E-2,7.13242E-2,-5.1345527E-2,4.709931E-2,-6.226901E-2,6.7177996E-2,-2.354074E-3,1.6658533E-3,7.151458E-2,-4.2277515E-2,3.8925152E-2,4.984991E-2,-3.0600889E-2,4.774264E-2,7.15554E-2,-6.262644E-2,5.473091E-2,6.823153E-2,4.7963414E-2,5.46825E-2,-2.1691708E-2,7.1528815E-2,6.0647316E-2,9.938567E-3,6.460656E-2],"split_indices":[3,2,21,18,21,14,14,20,25,21,21,2,25,21,17,23,25,21,1,0,26,13,18,1,26,7,1,25,25,25,13,18,0,23,1,18,1,14,1,14,22,0,20,18,7,16,26,0,21,7,14,15,15,23,23,26,15,21,8,25,21,0,0,0,0,0,0,0,0,0,0,0,0,0,0,0,0,0,0,0,0,0,0,0,0,0,0,0,0,0,0,0,0,0,0,0,0,0,0,0,0,0,0,0,0,0,0,0,0,0,0,0,0,0,0],"split_type":[0,0,0,0,0,0,0,0,0,0,0,0,0,0,0,0,0,0,0,0,0,0,0,0,0,0,0,0,0,0,0,0,0,0,0,0,0,0,0,0,0,0,0,0,0,0,0,0,0,0,0,0,0,0,0,0,0,0,0,0,0,0,0,0,0,0,0,0,0,0,0,0,0,0,0,0,0,0,0,0,0,0,0,0,0,0,0,0,0,0,0,0,0,0,0,0,0,0,0,0,0,0,0,0,0,0,0,0,0,0,0,0,0,0,0],"sum_hessian":[4.4396973E3,2.5755457E3,1.8641516E3,1.6980403E3,8.775053E2,8.553469E2,1.00880475E3,3.8895187E2,1.3090885E3,8.3896484E2,3.8540466E1,6.5633594E2,1.9901102E2,2.9226877E2,7.1653595E2,1.868045E1,3.7027142E2,5.694828E2,7.3960565E2,5.2889905E2,3.1006577E2,2.017382E1,1.8366648E1,5.97224E2,5.9111927E1,7.9395676E1,1.1961534E2,1.7674171E2,1.1552706E2,1.8313025E2,5.334057E2,1.0858148E1,7.8223033E0,2.7695242E2,9.331899E1,4.6723383E2,1.0224897E2,3.5118564E2,3.8842E2,2.680969E2,4.1968853E1,1.4482085E0,1.8725613E1,1.5373047E1,2.9936001E0,2.040641E2,3.9315988E2,1.4786371E0,5.763329E1,2.5517315E1,5.3878357E1,2.312219E1,9.649315E1,4.286302E1,1.338787E2,1.1068348E2,4.8435802E0,1.6198158E2,2.1148666E1,4.452224E2,8.818328E1,8.64678E0,2.211368E0,1.877294E2,8.922304E1,4.735066E0,8.858392E1,2.9288033E1,4.379458E2,5.8200882E1,4.404809E1,3.190735E2,3.211214E1,2.3488692E2,1.535331E2,4.317768E1,2.2491922E2,3.1065393E1,1.090346E1,2.0116155E0,1.6713997E1,1.2725489E1,2.647558E0,1.4677544E0,1.5258458E0,2.2880102E1,1.81184E2,5.191028E1,3.412496E2,2.2561147E0,5.5377174E1,1.0657739E1,1.4859577E1,5.214785E1,1.7305083E0,8.735928E0,1.4386262E1,1.2125012E0,9.528065E1,1.564272E1,2.7220303E1,1.293715E2,4.5071793E0,1.9610865E1,9.107262E1,2.6743982E0,2.1691823E0,1.1669229E2,4.5289288E1,1.5482518E1,5.6661477E0,3.9611627E2,4.9106136E1,5.1419196E0,8.304137E1],"tree_param":{"num_deleted":"0","num_feature":"28","num_nodes":"115","size_leaf_vector":"1"}},{"base_weights":[1.1999299E-3,-6.6589826E-1,7.596234E-1,-7.179565E-2,-3.8863206E-1,3.0931583E-1,1.1282059E0,4.680138E-1,-8.482132E-1,-9.2235744E-1,3.976681E-1,7.878153E-1,1.2489263E0,8.863695E-1,-6.3989276E-1,-1.1964539E0,-3.622302E-1,-8.648239E-2,1.2730321E0,-6.2457114E-2,7.017426E-1,1.0078956E0,2.4802859E-1,1.3227508E0,9.97595E-1,4.8977298E-1,1.3997848E0,-1.4003626E0,2.7792817E-1,-1.4261205E0,-9.690239E-1,-5.985387E-1,9.4980407E-1,-6.5548636E-2,7.9848394E-2,1.2867874E0,-2.932506E-1,9.053949E-1,3.0456764E-1,6.6388744E-1,1.3238895E0,1.0437621E0,-7.059053E-1,1.1934398E0,1.3823658E0,1.0393262E0,-7.90359E-2,-1.517084E-2,4.5899957E-2,7.372904E-2,-4.644142E-2,-3.3803966E-2,-7.3879406E-2,4.0463336E-2,-5.235804E-2,-7.207791E-2,-1.2511285E-2,-3.6260847E-2,-7.069438E-2,-7.578472E-2,-1.1114275E-2,-7.342455E-2,5.9289932E-2,6.9328964E-2,-5.9852887E-2,-2.6953233E-2,3.7026074E-2,6.582797E-2,1.0788609E-2,-2.5207995E-2,3.0648742E-2,5.4351788E-2,-2.9079651E-2,-5.7701677E-2,6.8164386E-2,6.705545E-2,-3.4635104E-2,3.4846704E-2,-5.893598E-2,2.7216146E-2,6.44659E-2,4.7657307E-2,6.998085E-2,3.6259498E-3,5.6136515E-2],"categories":[],"categories_nodes":[],"categories_segments":[],"categories_sizes":[],"default_left":[0,0,0,0,0,0,0,0,0,0,0,0,0,0,0,0,0,0,0,0,0,0,0,0,0,0,0,0,0,0,0,0,0,0,0,0,0,0,0,0,0,0,0,0,0,0,0,0,0,0,0,0,0,0,0,0,0,0,0,0,0,0,0,0,0,0,0,0,0,0,0,0,0,0,0,0,0,0,0,0,0,0,0,0,0],"id":10,"left_children":[1,3,5,-1,7,9,11,13,15,17,19,21,23,25,27,29,31,-1,33,35,37,39,41,43,45,47,49,51,53,55,57,59,61,-1,-1,63,65,67,69,71,73,75,77,79,81,83,-1,-1,-1,-1,-1,-1,-1,-1,-1,-1,-1,-1,-1,-1,-1,-1,-1,-1,-1,-1,-1,-1,-1,-1,-1,-1,-1,-1,-1,-1,-1,-1,-1,-1,-1,-1,-1,-1,-1],"loss_changes":[2.215936E3,4.969381E2,3.398363E2,0E0,6.7545416E2,1.00907455E2,4.5314697E1,2.783623E2,1.8849048E2,1.1233449E2,1.20755615E2,3.511371E1,1.4080933E1,8.7986206E1,1.15459885E2,3.2563293E1,1.4549309E2,0E0,1.6560266E1,1.0756413E2,4.1748764E1,2.20728E1,6.718974E1,3.2723389E0,2.2357178E1,8.425364E1,3.4331543E1,4.0532227E0,5.40313E1,5.470642E0,3.472885E1,1.3655917E2,4.2675705E1,0E0,0E0,1.4168243E1,7.5299416E1,9.695688E1,4.460847E1,5.4965256E1,1.2218842E1,2.5781818E1,2.7625378E1,1.2292725E1,1.8551636E0,1.5243881E1,0E0,0E0,0E0,0E0,0E0,0E0,0E0,0E0,0E0,0E0,0E0,0E0,0E0,0E0,0E0,0E0,0E0,0E0,0E0,0E0,0E0,0E0,0E0,0E0,0E0,0E0,0E0,0E0,0E0,0E0,0E0,0E0,0E0,0E0,0E0,0E0,0E0,0E0,0E0],"parents":[2147483647,0,0,1,1,2,2,4,4,5,5,6,6,7,7,8,8,9,9,10,10,11,11,12,12,13,13,14,14,15,15,16,16,18,18,19,19,20,20,21,21,22,22,23,23,24,24,25,25,26,26,27,27,28,28,29,29,30,30,31,31,32,32,35,35,36,36,37,37,38,38,39,39,40,40,41,41,42,42,43,43,44,44,45,45],"right_children":[2,4,6,-1,8,10,12,14,16,18,20,22,24,26,28,30,32,-1,34,36,38,40,42,44,46,48,50,52,54,56,58,60,62,-1,-1,64,66,68,70,72,74,76,78,80,82,84,-1,-1,-1,-1,-1,-1,-1,-1,-1,-1,-1,-1,-1,-1,-1,-1,-1,-1,-1,-1,-1,-1,-1,-1,-1,-1,-1,-1,-1,-1,-1,-1,-1,-1,-1,-1,-1,-1,-1],"split_conditions":[3.1778133E1,5.5333333E0,3.42146E1,-7.179565E-2,9.75E0,3.95729E1,3.6328125E1,3.71405E0,4.2902738E-1,3.26083E1,2E0,2.035E1,2.64667E1,1.475705E1,7.25E0,2.56865E1,2.65844E1,-8.648239E-2,1.8066668E1,8.583333E0,1.8766666E1,4.067655E1,-1.31798E0,4.0573425E1,2.3760333E0,7.1666665E0,2.95703E1,3.8294084E0,6E0,3.096015E1,4.067655E1,1.3183333E1,1.1666667E1,-6.5548636E-2,7.9848394E-2,3.3366665E1,3.53375E1,4E0,4E0,1.475705E1,-2.40665E0,2.9376646E1,1.4186983E1,9.266666E0,8.2E0,4.073E-1,-7.90359E-2,-1.517084E-2,4.5899957E-2,7.372904E-2,-4.644142E-2,-3.3803966E-2,-7.3879406E-2,4.0463336E-2,-5.235804E-2,-7.207791E-2,-1.2511285E-2,-3.6260847E-2,-7.069438E-2,-7.578472E-2,-1.1114275E-2,-7.342455E-2,5.9289932E-2,6.9328964E-2,-5.9852887E-2,-2.6953233E-2,3.7026074E-2,6.582797E-2,1.0788609E-2,-2.5207995E-2,3.0648742E-2,5.4351788E-2,-2.9079651E-2,-5.7701677E-2,6.8164386E-2,6.705545E-2,-3.4635104E-2,3.4846704E-2,-5.893598E-2,2.7216146E-2,6.44659E-2,4.7657307E-2,6.998085E-2,3.6259498E-3,5.6136515E-2],"split_indices":[21,0,3,0,0,26,21,22,19,20,1,0,25,24,0,25,25,0,0,0,0,26,15,26,13,0,21,22,1,21,26,0,0,0,0,20,21,1,1,24,15,27,24,0,0,14,0,0,0,0,0,0,0,0,0,0,0,0,0,0,0,0,0,0,0,0,0,0,0,0,0,0,0,0,0,0,0,0,0,0,0,0,0,0,0],"split_type":[0,0,0,0,0,0,0,0,0,0,0,0,0,0,0,0,0,0,0,0,0,0,0,0,0,0,0,0,0,0,0,0,0,0,0,0,0,0,0,0,0,0,0,0,0,0,0,0,0,0,0,0,0,0,0,0,0,0,0,0,0,0,0,0,0,0,0,0,0,0,0,0,0,0,0,0,0,0,0,0,0,0,0,0,0],"sum_hessian":[4.3778145E3,2.3292034E3,2.048611E3,6.155471E2,1.7136562E3,9.2290784E2,1.1257034E3,5.983434E2,1.115313E3,6.114047E1,8.617674E2,2.9668307E2,8.2902026E2,4.3447977E2,1.638636E2,6.4888184E2,4.664311E2,4.4857555E1,1.628291E1,3.4321277E2,5.185546E2,2.1013869E2,8.654439E1,6.375012E2,1.9151903E2,2.4622948E2,1.8825029E2,8.932594E1,7.453766E1,3.2023108E2,3.286508E2,3.9570508E2,7.072603E1,1.4744387E0,1.4808471E1,4.9464172E1,2.937486E2,3.4194296E2,1.7661165E2,1.0209426E2,1.0804443E2,4.7133415E1,3.9410973E1,2.0779393E2,4.297073E2,1.8905597E2,2.4630637E0,8.642979E1,1.5979968E2,1.8274713E2,5.503154E0,9.546421E0,7.9779526E1,5.3481674E1,2.1055984E1,3.1585843E2,4.372628E0,2.1399904E2,1.1465174E2,1.1422982E2,2.8147525E2,5.823955E0,6.490208E1,4.797834E1,1.4858326E0,2.3770483E2,5.6043762E1,2.1365138E2,1.2829158E2,4.858192E1,1.2802972E2,7.629909E1,2.5795174E1,1.2482041E0,1.0679623E2,4.0436813E1,6.696599E0,9.815219E0,2.9595755E1,2.760164E1,1.8019228E2,1.8777025E1,4.109303E2,1.5162617E1,1.7389334E2],"tree_param":{"num_deleted":"0","num_feature":"28","num_nodes":"85","size_leaf_vector":"1"}},{"base_weights":[-6.881169E-3,-6.412321E-1,7.568962E-1,-7.038568E-2,-3.8178533E-1,2.590549E-1,1.1097168E0,3.909825E-1,-7.8802294E-1,-1.0850363E0,3.519949E-1,8.5816026E-1,1.2605876E0,7.612574E-1,-9.5462483E-1,-1.0553185E0,-1.836551E-1,-8.342093E-2,9.4514686E-1,-7.467007E-2,6.363849E-1,5.6591815E-1,1.0521483E0,1.3315885E0,1.1421709E0,9.944941E-1,3.3770683E-3,-1.2042879E0,8.103064E-1,-7.983415E-1,-1.3126255E0,-9.238802E-1,1.546789E-1,1.516798E0,-7.798307E-1,1.1551551E0,-3.3127412E-1,1.0248384E0,2.96181E-1,8.223176E-1,1.076636E-1,3.6043808E-1,1.1413809E0,5.25699E-1,1.3419795E0,1.2185454E0,9.1481256E-1,6.204933E-2,1.4123129E-2,2.4413025E-2,-7.41081E-2,1.4715269E-2,-6.8243854E-2,6.3856415E-2,-6.1662E-2,-6.949242E-2,-2.9075569E-2,3.1546608E-2,-6.630748E-2,8.157272E-4,-7.479043E-2,4.90478E-2,-1.51080135E-2,2.0927584E-2,7.984755E-2,2.0949498E-2,-6.8832345E-2,3.200726E-2,7.955405E-2,-2.5744392E-2,6.9086805E-2,6.183626E-2,-7.4581164E-3,-4.969709E-2,3.445616E-2,9.075868E-3,7.288381E-2,4.160149E-2,-4.549086E-2,-3.7698474E-2,7.1006395E-2,3.9383795E-2,6.395665E-2,-4.0678E-2,6.1522275E-2,5.4614246E-2,6.864887E-2,6.824853E-2,5.6361426E-2,2.7191324E-2,5.7300963E-2],"categories":[],"categories_nodes":[],"categories_segments":[],"categories_sizes":[],"default_left":[0,0,0,0,0,0,0,0,0,0,0,0,0,0,0,0,0,0,0,0,0,0,0,0,0,0,0,0,0,0,0,0,0,0,0,0,0,0,0,0,0,0,0,0,0,0,0,0,0,0,0,0,0,0,0,0,0,0,0,0,0,0,0,0,0,0,0,0,0,0,0,0,0,0,0,0,0,0,0,0,0,0,0,0,0,0,0,0,0,0,0],"id":11,"left_children":[1,3,5,-1,7,9,11,13,15,17,19,21,23,25,27,29,31,-1,33,35,37,39,41,43,45,47,49,51,53,55,57,59,61,63,65,67,69,71,73,75,77,79,81,83,85,87,89,-1,-1,-1,-1,-1,-1,-1,-1,-1,-1,-1,-1,-1,-1,-1,-1,-1,-1,-1,-1,-1,-1,-1,-1,-1,-1,-1,-1,-1,-1,-1,-1,-1,-1,-1,-1,-1,-1,-1,-1,-1,-1,-1,-1],"loss_changes":[2.082328E3,4.663598E2,3.4222876E2,0E0,5.5140125E2,1.0157823E2,4.2218872E1,3.024316E2,1.8573523E2,6.3919357E1,9.207755E1,2.3830933E1,4.4573975E0,8.403482E1,5.874962E1,5.170398E1,8.883679E1,0E0,1.3398235E1,9.639472E1,5.985408E1,2.0363228E1,1.5500916E1,2.9664307E0,3.6354675E0,6.3454315E1,8.2034836E1,2.8141739E1,1.7645966E1,5.0713257E1,1.1274109E1,5.983879E1,9.236702E1,1.8052292E-1,3.2554471E0,1.0822937E1,8.0129974E1,5.295227E1,1.2442131E2,4.5116264E1,4.763204E1,3.758335E1,1.0095734E1,7.8210754E0,1.8461304E0,1.1591187E0,5.621086E0,0E0,0E0,0E0,0E0,0E0,0E0,0E0,0E0,0E0,0E0,0E0,0E0,0E0,0E0,0E0,0E0,0E0,0E0,0E0,0E0,0E0,0E0,0E0,0E0,0E0,0E0,0E0,0E0,0E0,0E0,0E0,0E0,0E0,0E0,0E0,0E0,0E0,0E0,0E0,0E0,0E0,0E0,0E0,0E0],"parents":[2147483647,0,0,1,1,2,2,4,4,5,5,6,6,7,7,8,8,9,9,10,10,11,11,12,12,13,13,14,14,15,15,16,16,18,18,19,19,20,20,21,21,22,22,23,23,24,24,25,25,26,26,27,27,28,28,29,29,30,30,31,31,32,32,33,33,34,34,35,35,36,36,37,37,38,38,39,39,40,40,41,41,42,42,43,43,44,44,45,45,46,46],"right_children":[2,4,6,-1,8,10,12,14,16,18,20,22,24,26,28,30,32,-1,34,36,38,40,42,44,46,48,50,52,54,56,58,60,62,64,66,68,70,72,74,76,78,80,82,84,86,88,90,-1,-1,-1,-1,-1,-1,-1,-1,-1,-1,-1,-1,-1,-1,-1,-1,-1,-1,-1,-1,-1,-1,-1,-1,-1,-1,-1,-1,-1,-1,-1,-1,-1,-1,-1,-1,-1,-1,-1,-1,-1,-1,-1,-1],"split_conditions":[3.0676575E1,5.4333334E0,3.53375E1,-7.038568E-2,9.75E0,3.95729E1,2.3135E0,3.8687E0,5.9379905E-1,8.370833E0,2E0,3.6328125E1,2.936309E1,2.94672E1,3.025625E1,4E0,1.375E1,-8.342093E-2,9.836363E-1,8.583333E0,4E0,2.025E1,1E0,-2.91469E0,9.677E-1,3.0047655E1,4E0,8.54604E-1,-1.0071617E1,3.03219E1,-1.4296583E0,3.9748966E1,1.6316668E1,-7.276083E-1,3.773E-1,7.633333E0,2.2183332E1,1.885E1,1.6883333E1,4.067655E1,9.632475E-1,9.166667E0,4.0195835E1,2.9092714E1,9.166667E0,6.045695E-1,1.3734E0,6.204933E-2,1.4123129E-2,2.4413025E-2,-7.41081E-2,1.4715269E-2,-6.8243854E-2,6.3856415E-2,-6.1662E-2,-6.949242E-2,-2.9075569E-2,3.1546608E-2,-6.630748E-2,8.157272E-4,-7.479043E-2,4.90478E-2,-1.51080135E-2,2.0927584E-2,7.984755E-2,2.0949498E-2,-6.8832345E-2,3.200726E-2,7.955405E-2,-2.5744392E-2,6.9086805E-2,6.183626E-2,-7.4581164E-3,-4.969709E-2,3.445616E-2,9.075868E-3,7.288381E-2,4.160149E-2,-4.549086E-2,-3.7698474E-2,7.1006395E-2,3.9383795E-2,6.395665E-2,-4.0678E-2,6.1522275E-2,5.4614246E-2,6.864887E-2,6.824853E-2,5.6361426E-2,2.7191324E-2,5.7300963E-2],"split_indices":[3,0,21,0,0,26,14,22,19,22,1,21,27,21,3,1,0,0,17,0,1,0,1,16,9,27,1,17,23,21,10,26,0,9,10,0,0,0,0,26,17,0,26,27,0,19,13,0,0,0,0,0,0,0,0,0,0,0,0,0,0,0,0,0,0,0,0,0,0,0,0,0,0,0,0,0,0,0,0,0,0,0,0,0,0,0,0,0,0,0,0],"split_type":[0,0,0,0,0,0,0,0,0,0,0,0,0,0,0,0,0,0,0,0,0,0,0,0,0,0,0,0,0,0,0,0,0,0,0,0,0,0,0,0,0,0,0,0,0,0,0,0,0,0,0,0,0,0,0,0,0,0,0,0,0,0,0,0,0,0,0,0,0,0,0,0,0,0,0,0,0,0,0,0,0,0,0,0,0,0,0,0,0,0,0],"sum_hessian":[4.295864E3,2.3468562E3,1.9490074E3,5.9237665E2,1.7544796E3,8.0908984E2,1.1399176E3,6.0453564E2,1.1499438E3,5.1637524E1,7.5745233E2,4.2986465E2,7.10053E2,4.744218E2,1.3011385E2,7.967963E2,3.5314758E2,4.0249763E1,1.1387758E1,3.032418E2,4.5421054E2,1.7306314E2,2.568015E2,4.3749332E2,2.7255966E2,3.625388E2,1.1188303E2,1.1426749E2,1.5846355E1,4.0070648E2,3.960898E2,1.1023622E2,2.4291135E2,8.64389E0,2.7438679E0,5.174449E1,2.5149731E2,2.1112743E2,2.430831E2,1.1046311E2,6.2600025E1,2.9918627E1,2.2688289E2,6.2258506E0,4.3126746E2,2.0076031E2,7.1799355E1,2.6875705E2,9.378174E1,8.485687E1,2.702616E1,1.0979146E1,1.0328834E2,1.3204906E1,2.6414487E0,1.0603523E2,2.9467126E2,2.4216204E0,3.936682E2,4.2061947E1,6.817428E1,8.607739E1,1.5683397E2,1.0111498E0,7.632741E0,1.0110123E0,1.7328556E0,2.485219E1,2.6892302E1,2.2778136E2,2.371595E1,1.7880315E2,3.232429E1,5.639509E1,1.8668802E2,5.5636143E1,5.482697E1,3.6673588E1,2.592644E1,1.4723437E1,1.5195189E1,6.547673E1,1.6140617E2,2.093357E0,4.1324935E0,5.1628265E1,3.796392E2,7.1755005E1,1.2900531E2,2.8853756E1,4.29456E1],"tree_param":{"num_deleted":"0","num_feature":"28","num_nodes":"91","size_leaf_vector":"1"}},{"base_weights":[-1.4609445E-2,-5.380515E-1,8.5731137E-1,-6.866636E-2,-3.0123192E-1,4.906652E-1,1.1769949E0,4.3043455E-1,-6.304119E-1,1.9966131E-1,7.5173825E-1,1.2542752E0,9.117988E-1,7.6771027E-1,-4.2477155E-1,-1.1059623E0,-2.4315423E-1,-3.7540976E-2,1.1268678E0,8.377168E-1,-5.64267E-1,1.0204026E0,1.3041794E0,1.1373211E0,4.984769E-1,9.799299E-1,4.832013E-2,-1.0728118E0,9.81466E-1,-1.1531715E0,8.216082E-1,-4.4232717E-1,9.065225E-1,2.7670756E-1,-6.0068065E-1,1.2658674E0,-6.527738E-2,-3.2302982E-1,9.1450536E-1,9.116985E-1,-1.202784E0,3.3005944E-1,1.2477814E0,4.6009067E-1,1.3121884E0,5.385136E-1,1.3342116E0,-1.1252683E-1,6.690326E-1,6.067094E-2,1.9723034E-2,-8.557918E-2,4.047908E-2,6.0858827E-2,-6.416206E-2,-7.1615525E-2,5.577753E-2,-6.8870455E-2,-4.6313476E-2,-4.0935617E-2,6.311189E-2,-6.611188E-2,-7.9388125E-3,-7.339005E-2,5.4338552E-2,-3.35785E-2,2.3999711E-2,-8.2365885E-2,1.7234895E-2,6.650742E-2,-3.292074E-2,-9.3795285E-2,4.1715987E-2,2.6935814E-2,5.6524128E-2,-5.3370036E-2,7.1232416E-2,-7.975196E-2,4.3846697E-2,-8.8733494E-2,4.876739E-2,6.592165E-2,-4.7630765E-2,4.6871137E-2,-3.3942338E-2,1.7148076E-2,6.5915994E-2,-4.474711E-2,6.9474176E-2,9.792372E-3,7.13854E-2,-4.559024E-3,5.6595773E-2],"categories":[],"categories_nodes":[],"categories_segments":[],"categories_sizes":[],"default_left":[0,0,0,0,0,0,0,0,0,0,0,0,0,0,0,0,0,0,0,0,0,0,0,0,0,0,0,0,0,0,0,0,0,0,0,0,0,0,0,0,0,0,0,0,0,0,0,0,0,0,0,0,0,0,0,0,0,0,0,0,0,0,0,0,0,0,0,0,0,0,0,0,0,0,0,0,0,0,0,0,0,0,0,0,0,0,0,0,0,0,0,0,0],"id":12,"left_children":[1,3,5,-1,7,9,11,13,15,17,19,21,23,25,27,29,31,33,35,37,39,41,43,45,47,49,51,53,55,57,59,61,63,65,67,69,-1,71,73,75,77,79,81,83,85,87,89,-1,91,-1,-1,-1,-1,-1,-1,-1,-1,-1,-1,-1,-1,-1,-1,-1,-1,-1,-1,-1,-1,-1,-1,-1,-1,-1,-1,-1,-1,-1,-1,-1,-1,-1,-1,-1,-1,-1,-1,-1,-1,-1,-1,-1,-1],"loss_changes":[1.9318251E3,5.227731E2,1.8553394E2,0E0,4.968891E2,5.6169525E1,1.6226074E1,1.8504678E2,2.6170416E2,7.744216E1,4.4644333E1,6.2977295E0,1.760109E1,7.012491E1,1.667041E2,5.9022705E1,1.8022928E2,4.9928738E1,2.5902267E1,3.299341E1,2.4222435E1,1.835218E1,3.0136108E0,1.4056931E1,3.460061E1,4.8033752E1,1.4307298E2,6.1753723E1,2.0325756E1,3.044043E1,1.2482669E1,1.669643E2,5.13639E1,3.524651E1,1.0053426E2,9.330696E0,0E0,4.3803E1,2.7338867E1,9.6206E0,1.5723633E1,4.380289E1,1.5179413E1,4.207741E0,2.694641E0,4.1115955E1,9.686249E0,0E0,2.3761911E1,0E0,0E0,0E0,0E0,0E0,0E0,0E0,0E0,0E0,0E0,0E0,0E0,0E0,0E0,0E0,0E0,0E0,0E0,0E0,0E0,0E0,0E0,0E0,0E0,0E0,0E0,0E0,0E0,0E0,0E0,0E0,0E0,0E0,0E0,0E0,0E0,0E0,0E0,0E0,0E0,0E0,0E0,0E0,0E0],"parents":[2147483647,0,0,1,1,2,2,4,4,5,5,6,6,7,7,8,8,9,9,10,10,11,11,12,12,13,13,14,14,15,15,16,16,17,17,18,18,19,19,20,20,21,21,22,22,23,23,24,24,25,25,26,26,27,27,28,28,29,29,30,30,31,31,32,32,33,33,34,34,35,35,37,37,38,38,39,39,40,40,41,41,42,42,43,43,44,44,45,45,46,46,48,48],"right_children":[2,4,6,-1,8,10,12,14,16,18,20,22,24,26,28,30,32,34,36,38,40,42,44,46,48,50,52,54,56,58,60,62,64,66,68,70,-1,72,74,76,78,80,82,84,86,88,90,-1,92,-1,-1,-1,-1,-1,-1,-1,-1,-1,-1,-1,-1,-1,-1,-1,-1,-1,-1,-1,-1,-1,-1,-1,-1,-1,-1,-1,-1,-1,-1,-1,-1,-1,-1,-1,-1,-1,-1,-1,-1,-1,-1,-1,-1],"split_conditions":[3.2103134E1,5.5333333E0,3.6328125E1,-6.866636E-2,9.75E0,1.0979167E0,2.64667E1,3.7999334E0,4.2902738E-1,2.175E1,2.06E1,9.266666E0,2.035E1,3.0047655E1,2.58375E1,3.18492E1,2.65844E1,1.9733334E1,2.6489567E1,2.9076551E1,-1.1200033E0,2.5663567E1,3.1663275E1,1E0,2.0866667E1,2.9156452E1,7.1666665E0,2.8815203E1,6.883333E0,2.56865E1,2.56865E1,1.3466666E1,1.1666667E1,3.3217175E1,4E0,3.5749226E1,-6.527738E-2,1.9283333E1,2E0,5.3921574E-1,3.57427E1,-7.7136666E-1,3.9632267E1,3.607345E1,6.54535E0,9.166667E0,3.67396E1,-1.1252683E-1,2.7442834E0,6.067094E-2,1.9723034E-2,-8.557918E-2,4.047908E-2,6.0858827E-2,-6.416206E-2,-7.1615525E-2,5.577753E-2,-6.8870455E-2,-4.6313476E-2,-4.0935617E-2,6.311189E-2,-6.611188E-2,-7.9388125E-3,-7.339005E-2,5.4338552E-2,-3.35785E-2,2.3999711E-2,-8.2365885E-2,1.7234895E-2,6.650742E-2,-3.292074E-2,-9.3795285E-2,4.1715987E-2,2.6935814E-2,5.6524128E-2,-5.3370036E-2,7.1232416E-2,-7.975196E-2,4.3846697E-2,-8.8733494E-2,4.876739E-2,6.592165E-2,-4.7630765E-2,4.6871137E-2,-3.3942338E-2,1.7148076E-2,6.5915994E-2,-4.474711E-2,6.9474176E-2,9.792372E-3,7.13854E-2,-4.559024E-3,5.6595773E-2],"split_indices":[3,0,21,0,0,14,25,22,19,0,0,0,0,27,25,21,25,0,25,27,15,25,7,1,0,18,0,18,0,25,25,0,0,21,1,6,0,0,1,19,7,10,21,3,22,0,21,0,14,0,0,0,0,0,0,0,0,0,0,0,0,0,0,0,0,0,0,0,0,0,0,0,0,0,0,0,0,0,0,0,0,0,0,0,0,0,0,0,0,0,0,0,0],"split_type":[0,0,0,0,0,0,0,0,0,0,0,0,0,0,0,0,0,0,0,0,0,0,0,0,0,0,0,0,0,0,0,0,0,0,0,0,0,0,0,0,0,0,0,0,0,0,0,0,0,0,0,0,0,0,0,0,0,0,0,0,0,0,0,0,0,0,0,0,0,0,0,0,0,0,0,0,0,0,0,0,0,0,0,0,0,0,0,0,0,0,0,0,0],"sum_hessian":[4.2307354E3,2.6439001E3,1.5868352E3,5.82962E2,2.060938E3,7.403081E2,8.4652704E2,6.3941235E2,1.4215258E3,3.5092072E2,3.893874E2,6.5261896E2,1.9390808E2,4.5863748E2,1.8077487E2,6.371963E2,7.843294E2,2.8019852E2,7.072219E1,3.6584885E2,2.3538567E1,1.1853934E2,5.3407965E2,1.2432211E2,6.958597E1,3.538807E2,1.04756775E2,1.2391013E2,5.686474E1,6.223556E2,1.4840726E1,6.690387E2,1.15290726E2,1.8016808E2,1.0003046E2,6.735291E1,3.3692763E0,2.2501791E1,3.4334705E2,6.9788203E0,1.6559748E1,2.9977245E1,8.856209E1,5.5692363E0,5.285104E2,3.1686954E1,9.2635155E1,3.3526528E0,6.6233315E1,2.5222089E2,1.0165981E2,3.125419E1,7.350259E1,1.0025359E1,1.1388477E2,2.4830482E0,5.4381687E1,3.104654E2,3.1189017E2,2.960753E0,1.1879972E1,1.6216084E2,5.0687787E2,7.630798E0,1.0765993E2,3.1398582E1,1.4876949E2,4.7120472E1,5.290999E1,6.547448E1,1.8784314E0,9.343828E0,1.3157962E1,1.26586845E2,2.167602E2,1.2139943E0,5.764826E0,1.4128099E1,2.4316478E0,6.6234436E0,2.3353802E1,8.6195305E1,2.3667865E0,4.049155E0,1.5200809E0,3.6803117E0,5.248301E2,1.1784437E1,1.9902517E1,7.265751E0,8.536941E1,2.537002E1,4.0863293E1],"tree_param":{"num_deleted":"0","num_feature":"28","num_nodes":"93","size_leaf_vector":"1"}},{"base_weights":[-2.8304427E-3,-5.0094104E-1,8.419123E-1,-2.3652953E-1,-1.1112466E0,5.0457066E-1,1.1668313E0,7.6604915E-1,-5.2156126E-1,-1.2322896E0,1.0617766E0,2.5552967E-1,8.832286E-1,9.835539E-1,1.2652212E0,8.696443E-1,-1.100698E-1,-6.986789E-1,6.821422E-1,-6.796708E-2,-1.0159583E0,1.2793666E0,-1.0562357E-1,-7.7098414E-2,2.942789E-1,9.559873E-1,3.628723E-2,7.364216E-1,1.1696306E0,1.2703685E0,-2.0362136E-3,9.643818E-1,3.2533547E-1,3.3662271E-1,-7.401522E-2,-9.7238296E-1,-2.7233034E-1,-7.747884E-2,1.0171546E0,-4.012963E-1,-1.2531182E0,1.9476004E-1,7.930456E-2,-6.861351E-2,5.680746E-2,5.1667684E-1,4.4297407E-4,2.8854072E-1,1.0561541E0,7.699747E-1,-7.376784E-2,8.9107364E-1,-3.0104827E-2,1.1994213E0,6.2172663E-1,5.887357E-3,1.2739311E0,5.6060024E-2,2.314325E-2,-2.2575804E-3,5.7719853E-2,-5.2567422E-2,4.9839284E-2,-6.578747E-2,-2.8608117E-2,-7.901772E-2,-7.7160792E-3,7.4451394E-2,-1.4657705E-2,2.2335034E-2,5.6771256E-2,9.864173E-3,-4.3453638E-2,-4.8321724E-2,-6.7139015E-2,-5.9066277E-2,4.6532676E-2,2.0332348E-2,5.4449238E-2,-1.8379685E-2,2.3541152E-2,-9.788682E-4,5.5109214E-2,-5.4865953E-2,5.3999342E-2,5.397765E-2,-4.1526575E-2,4.6412323E-2,-5.9126038E-2,3.3822846E-2,-6.322686E-2,4.7696337E-2,6.54722E-2,5.7615E-2,-4.9976516E-3,5.5827875E-2,6.543572E-2],"categories":[],"categories_nodes":[],"categories_segments":[],"categories_sizes":[],"default_left":[0,0,0,0,0,0,0,0,0,0,0,0,0,0,0,0,0,0,0,0,0,0,0,0,0,0,0,0,0,0,0,0,0,0,0,0,0,0,0,0,0,0,0,0,0,0,0,0,0,0,0,0,0,0,0,0,0,0,0,0,0,0,0,0,0,0,0,0,0,0,0,0,0,0,0,0,0,0,0,0,0,0,0,0,0,0,0,0,0,0,0,0,0,0,0,0,0],"id":13,"left_children":[1,3,5,7,9,11,13,15,17,19,21,23,25,27,29,31,33,35,37,-1,39,41,43,-1,45,47,49,51,53,55,-1,57,59,61,-1,63,65,67,69,71,73,75,-1,-1,-1,77,79,81,83,85,-1,87,89,91,93,-1,95,-1,-1,-1,-1,-1,-1,-1,-1,-1,-1,-1,-1,-1,-1,-1,-1,-1,-1,-1,-1,-1,-1,-1,-1,-1,-1,-1,-1,-1,-1,-1,-1,-1,-1,-1,-1,-1,-1,-1,-1],"loss_changes":[1.7443499E3,4.2056677E2,1.679602E2,5.207228E2,2.0858319E2,7.108554E1,1.2866699E1,3.6714905E1,3.0286072E2,1.9148071E1,1.0833298E1,3.2325417E1,1.8428558E1,1.1915253E1,3.4509277E0,1.8297394E1,2.7154205E1,1.4407275E2,4.6505325E1,0E0,4.0359863E1,1.1526314E1,1.3419396E1,0E0,2.932623E1,1.8139297E1,2.8577517E1,1.449408E1,1.8136139E0,1.9185791E0,0E0,2.361792E1,1.6950098E1,3.188842E1,0E0,1.02713806E2,7.461778E1,1.961442E1,8.0390625E0,2.243592E1,3.8895264E0,1.019589E1,0E0,0E0,0E0,1.5642181E1,3.3815754E1,9.3915205E0,1.347702E1,9.475796E0,0E0,8.9279175E0,1.9569427E1,2.7385254E0,4.0062494E0,0E0,1.2871094E0,0E0,0E0,0E0,0E0,0E0,0E0,0E0,0E0,0E0,0E0,0E0,0E0,0E0,0E0,0E0,0E0,0E0,0E0,0E0,0E0,0E0,0E0,0E0,0E0,0E0,0E0,0E0,0E0,0E0,0E0,0E0,0E0,0E0,0E0,0E0,0E0,0E0,0E0,0E0,0E0],"parents":[2147483647,0,0,1,1,2,2,3,3,4,4,5,5,6,6,7,7,8,8,9,9,10,10,11,11,12,12,13,13,14,14,15,15,16,16,17,17,18,18,20,20,21,21,22,22,24,24,25,25,26,26,27,27,28,28,29,29,31,31,32,32,33,33,35,35,36,36,37,37,38,38,39,39,40,40,41,41,45,45,46,46,47,47,48,48,49,49,51,51,52,52,53,53,54,54,56,56],"right_children":[2,4,6,8,10,12,14,16,18,20,22,24,26,28,30,32,34,36,38,-1,40,42,44,-1,46,48,50,52,54,56,-1,58,60,62,-1,64,66,68,70,72,74,76,-1,-1,-1,78,80,82,84,86,-1,88,90,92,94,-1,96,-1,-1,-1,-1,-1,-1,-1,-1,-1,-1,-1,-1,-1,-1,-1,-1,-1,-1,-1,-1,-1,-1,-1,-1,-1,-1,-1,-1,-1,-1,-1,-1,-1,-1,-1,-1,-1,-1,-1,-1],"split_conditions":[3.3556232E1,1E0,2.3135E0,2.9065397E1,3.023125E1,3.477377E1,3.405E1,9.778432E-1,2.65844E1,2.9153133E1,2.9376646E1,-7.32658E0,2.65844E1,1.0344409E0,2.1305199E0,5.08871E-1,3.0047655E1,3.100785E1,4.1185665E-1,-6.796708E-2,-1.14615E1,3.096015E1,-6.3362017E0,-7.7098414E-2,1.1249334E0,1E0,1E0,3.3551067E1,3.392345E1,-2.7208333E0,-2.0362136E-3,2.64667E1,3.0081266E1,-8.959E-1,-7.401522E-2,2.56865E1,2.8830917E1,2.9568356E1,2.9855967E1,2.9092714E1,-1.1098425E1,3.8466666E-2,7.930456E-2,-6.861351E-2,5.680746E-2,-1.2776059E0,1.7030667E0,1E0,2.6408625E1,1.5309833E0,-7.376784E-2,-3.75E-1,1.0922E0,3.2616634E1,2.9306925E1,5.887357E-3,3.2442584E0,5.6060024E-2,2.314325E-2,-2.2575804E-3,5.7719853E-2,-5.2567422E-2,4.9839284E-2,-6.578747E-2,-2.8608117E-2,-7.901772E-2,-7.7160792E-3,7.4451394E-2,-1.4657705E-2,2.2335034E-2,5.6771256E-2,9.864173E-3,-4.3453638E-2,-4.8321724E-2,-6.7139015E-2,-5.9066277E-2,4.6532676E-2,2.0332348E-2,5.4449238E-2,-1.8379685E-2,2.3541152E-2,-9.788682E-4,5.5109214E-2,-5.4865953E-2,5.3999342E-2,5.397765E-2,-4.1526575E-2,4.6412323E-2,-5.9126038E-2,3.3822846E-2,-6.322686E-2,4.7696337E-2,6.54722E-2,5.7615E-2,-4.9976516E-3,5.5827875E-2,6.543572E-2],"split_indices":[21,2,14,18,21,18,20,17,25,21,27,15,25,17,19,19,27,21,19,0,23,21,16,0,13,1,2,20,20,9,0,25,21,16,0,25,27,18,18,27,23,12,0,0,0,16,13,2,20,13,0,23,13,7,27,0,14,0,0,0,0,0,0,0,0,0,0,0,0,0,0,0,0,0,0,0,0,0,0,0,0,0,0,0,0,0,0,0,0,0,0,0,0,0,0,0,0],"split_type":[0,0,0,0,0,0,0,0,0,0,0,0,0,0,0,0,0,0,0,0,0,0,0,0,0,0,0,0,0,0,0,0,0,0,0,0,0,0,0,0,0,0,0,0,0,0,0,0,0,0,0,0,0,0,0,0,0,0,0,0,0,0,0,0,0,0,0,0,0,0,0,0,0,0,0,0,0,0,0,0,0,0,0,0,0,0,0,0,0,0,0,0,0,0,0,0,0],"sum_hessian":[4.143559E3,2.6068262E3,1.5367327E3,1.8197969E3,7.870293E2,7.552058E2,7.815269E2,4.0246558E2,1.4173313E3,7.4591296E2,4.1116364E1,4.5658652E2,2.986193E2,2.7683856E2,5.0468835E2,3.599154E2,4.2550163E1,1.2358962E3,1.8143501E2,4.665959E2,2.7931708E2,3.4575905E1,6.54046E0,8.816434E0,4.4777008E2,2.7487656E2,2.3742731E1,1.21040245E2,1.5579832E2,5.0273413E2,1.9541996E0,3.059012E2,5.4014202E1,3.2658062E1,9.892101E0,7.5191E2,4.839863E2,5.5763428E1,1.25671585E2,7.851553E1,2.0080153E2,7.982832E0,2.6593073E1,3.1857781E0,3.3546817E0,2.5443524E2,1.9333482E2,3.637537E1,2.3850119E2,1.6314842E1,7.4278893E0,1.0058419E2,2.0456049E1,1.4663632E2,9.162009E0,1.6540471E0,5.010801E2,2.320928E2,7.380841E1,3.7985126E1,1.6029074E1,1.03354845E1,2.2322577E1,4.0346902E2,3.4844095E2,3.9025944E1,4.4496036E2,6.033861E0,4.9729565E1,2.2401146E1,1.0327044E2,3.469592E1,4.3819614E1,5.064593E1,1.5015561E2,2.5706136E0,5.4122186E0,2.1484117E2,3.959408E1,1.0858996E2,8.474487E1,2.7091898E1,9.283472E0,2.1175842E0,2.363836E2,1.394334E1,2.3715014E0,9.935542E1,1.22877E0,1.3297094E1,7.1589537E0,4.8372536E1,9.826379E1,4.936235E0,4.225774E0,9.669464E1,4.0438547E2],"tree_param":{"num_deleted":"0","num_feature":"28","num_nodes":"97","size_leaf_vector":"1"}},{"base_weights":[-2.3142966E-2,-4.7717905E-1,8.4362435E-1,-1.3205533E0,-2.5623482E-1,4.83569E-1,1.079213E0,-6.662068E-2,-7.511893E-1,4.0924793E-1,-5.469848E-1,2.5757605E-1,8.501038E-1,1.218709E0,8.847717E-1,5.010885E-1,-6.314213E-2,8.997179E-1,-8.501966E-3,-1.088425E0,-2.4673505E-1,1.0167629E-1,1.1716884E0,-1.0999314E-1,9.780873E-1,1.2764255E0,9.595414E-1,7.7723384E-1,1.268172E0,-4.250083E-2,5.892265E-2,1.298011E0,4.4486916E-1,-9.645078E-1,8.464734E-1,-1.3363227E0,-8.5624313E-1,-4.17861E-1,7.7766114E-1,3.8238814E-1,-7.0530957E-1,-6.516539E-2,1.3001715E0,5.5629283E-1,-8.536633E-2,-3.0471495E-1,1.0499374E0,9.808859E-1,1.3105135E0,-1.0901115E0,1.0226021E0,8.9631593E-1,9.370648E-2,-4.953675E-2,1.3311027E0,6.937243E-2,4.9898326E-2,4.2638652E-2,-2.9609124E-3,-1.6098345E-2,-6.855542E-2,1.6181478E-2,6.917531E-2,-6.756874E-2,-1.5801609E-2,-5.6959897E-2,-9.1103185E-3,-6.831068E-2,-9.174938E-3,-7.326854E-2,4.8702043E-2,7.992694E-3,3.817528E-2,2.9701868E-2,-6.297066E-2,1.2725971E-2,6.820941E-2,-7.579323E-2,5.621755E-2,-6.527761E-2,4.39553E-2,5.590945E-2,-1.951742E-2,6.2088605E-2,6.728931E-3,4.623145E-2,6.606572E-2,-9.635081E-3,-7.251363E-2,3.6794163E-2,6.015339E-2,9.788216E-3,5.413592E-2,5.5433E-2,-2.2172313E-2,-4.1179624E-3,6.789973E-2],"categories":[],"categories_nodes":[],"categories_segments":[],"categories_sizes":[],"default_left":[0,0,0,0,0,0,0,0,0,0,0,0,0,0,0,0,0,0,0,0,0,0,0,0,0,0,0,0,0,0,0,0,0,0,0,0,0,0,0,0,0,0,0,0,0,0,0,0,0,0,0,0,0,0,0,0,0,0,0,0,0,0,0,0,0,0,0,0,0,0,0,0,0,0,0,0,0,0,0,0,0,0,0,0,0,0,0,0,0,0,0,0,0,0,0,0,0],"id":14,"left_children":[1,3,5,7,9,11,13,-1,15,17,19,21,23,25,27,29,-1,31,33,35,37,39,41,43,45,47,49,51,53,-1,-1,55,57,59,61,63,65,67,69,71,73,-1,75,77,-1,79,81,83,85,87,89,91,93,-1,95,-1,-1,-1,-1,-1,-1,-1,-1,-1,-1,-1,-1,-1,-1,-1,-1,-1,-1,-1,-1,-1,-1,-1,-1,-1,-1,-1,-1,-1,-1,-1,-1,-1,-1,-1,-1,-1,-1,-1,-1,-1,-1],"loss_changes":[1.5935123E3,4.9479773E2,1.17548584E2,2.722412E0,4.0786932E2,4.5534317E1,2.1721558E1,0E0,9.310577E0,1.3137836E2,2.3816055E2,4.8778015E1,2.5940323E1,6.056885E0,1.3642242E1,5.2522354E0,0E0,5.2851746E1,2.846385E2,2.8952087E1,1.6594128E2,6.691899E1,1.7561325E1,2.8224325E1,1.7427124E1,2.6949463E0,1.3095428E1,2.2678848E1,1.2141228E1,0E0,0E0,2.8208923E0,2.8674267E1,4.250992E1,5.1171463E1,3.4292603E0,5.1819244E1,1.7981708E2,6.114882E1,1.8446182E1,5.566978E1,0E0,2.8614807E0,2.3878927E1,0E0,1.3729839E1,1.7736298E1,9.732006E0,2.4230957E-1,7.712002E-1,3.7943878E0,3.0873276E1,2.3721384E1,0E0,2.9434204E0,0E0,0E0,0E0,0E0,0E0,0E0,0E0,0E0,0E0,0E0,0E0,0E0,0E0,0E0,0E0,0E0,0E0,0E0,0E0,0E0,0E0,0E0,0E0,0E0,0E0,0E0,0E0,0E0,0E0,0E0,0E0,0E0,0E0,0E0,0E0,0E0,0E0,0E0,0E0,0E0,0E0,0E0],"parents":[2147483647,0,0,1,1,2,2,3,3,4,4,5,5,6,6,8,8,9,9,10,10,11,11,12,12,13,13,14,14,15,15,17,17,18,18,19,19,20,20,21,21,22,22,23,23,24,24,25,25,26,26,27,27,28,28,31,31,32,32,33,33,34,34,35,35,36,36,37,37,38,38,39,39,40,40,42,42,43,43,45,45,46,46,47,47,48,48,49,49,50,50,51,51,52,52,54,54],"right_children":[2,4,6,8,10,12,14,-1,16,18,20,22,24,26,28,30,-1,32,34,36,38,40,42,44,46,48,50,52,54,-1,-1,56,58,60,62,64,66,68,70,72,74,-1,76,78,-1,80,82,84,86,88,90,92,94,-1,96,-1,-1,-1,-1,-1,-1,-1,-1,-1,-1,-1,-1,-1,-1,-1,-1,-1,-1,-1,-1,-1,-1,-1,-1,-1,-1,-1,-1,-1,-1,-1,-1,-1,-1,-1,-1,-1,-1,-1,-1,-1,-1],"split_conditions":[3.26271E1,5.5333333E0,3.477377E1,5.4333334E0,9.85E0,9.971396E-1,2.9355495E1,-6.662068E-2,-1.177815E1,2.8870897E1,3.8559988E-1,2.1833334E1,1E0,1.4395666E0,2.255E1,2.90833E1,-6.314213E-2,2.936309E1,2.58375E1,2.56865E1,2.65844E1,2E1,1.42177E1,1.8233334E1,2.9076551E1,3.5196064E1,8.116667E0,2.1566668E1,1.338305E1,-4.250083E-2,5.892265E-2,2.7972933E1,2.7270834E1,2.883285E1,1.4532267E1,3.07875E1,3.9895334E0,1.3183333E1,1.1666667E1,4.067655E1,2.9076551E1,-6.516539E-2,3.10021E1,7.40835E0,-8.536633E-2,1.0253925E1,2.0516666E1,2.035E1,3.4881233E1,-9.630333E-1,1.7448167E0,1E0,2E0,-4.953675E-2,-6.1197667E0,6.937243E-2,4.9898326E-2,4.2638652E-2,-2.9609124E-3,-1.6098345E-2,-6.855542E-2,1.6181478E-2,6.917531E-2,-6.756874E-2,-1.5801609E-2,-5.6959897E-2,-9.1103185E-3,-6.831068E-2,-9.174938E-3,-7.326854E-2,4.8702043E-2,7.992694E-3,3.817528E-2,2.9701868E-2,-6.297066E-2,1.2725971E-2,6.820941E-2,-7.579323E-2,5.621755E-2,-6.527761E-2,4.39553E-2,5.590945E-2,-1.951742E-2,6.2088605E-2,6.728931E-3,4.623145E-2,6.606572E-2,-9.635081E-3,-7.251363E-2,3.6794163E-2,6.015339E-2,9.788216E-3,5.413592E-2,5.5433E-2,-2.2172313E-2,-4.1179624E-3,6.789973E-2],"split_indices":[4,0,18,0,0,17,27,0,23,18,19,0,1,13,0,6,0,27,25,25,25,0,24,0,27,18,0,0,24,0,0,20,20,20,24,6,22,0,0,26,27,0,6,22,0,22,0,0,4,9,13,1,1,0,10,0,0,0,0,0,0,0,0,0,0,0,0,0,0,0,0,0,0,0,0,0,0,0,0,0,0,0,0,0,0,0,0,0,0,0,0,0,0,0,0,0,0],"split_type":[0,0,0,0,0,0,0,0,0,0,0,0,0,0,0,0,0,0,0,0,0,0,0,0,0,0,0,0,0,0,0,0,0,0,0,0,0,0,0,0,0,0,0,0,0,0,0,0,0,0,0,0,0,0,0,0,0,0,0,0,0,0,0,0,0,0,0,0,0,0,0,0,0,0,0,0,0,0,0,0,0,0,0,0,0,0,0,0,0,0,0,0,0,0,0,0,0],"sum_hessian":[4.0471147E3,2.6561836E3,1.390931E3,5.503699E2,2.1058137E3,5.513473E2,8.3958374E2,5.3782635E2,1.2543543E1,6.40165E2,1.4656487E3,3.4211407E2,2.0923322E2,4.857964E2,3.5378738E2,3.644422E0,8.89912E0,2.9392322E2,3.462418E2,5.218934E2,9.437553E2,2.932177E2,4.8896374E1,2.4627213E1,1.84606E2,3.941044E2,9.169196E1,2.786559E2,7.5131485E1,1.131863E0,2.512559E0,1.5571555E2,1.3820767E2,1.6340239E2,1.8283939E2,2.501045E2,2.7178885E2,8.091744E2,1.3458093E2,2.1793475E2,7.528294E1,1.9618096E0,4.6934563E1,1.7838205E1,6.7890058E0,9.619507E0,1.749865E2,4.3835045E1,3.5026938E2,2.250713E0,8.944125E1,2.3704697E2,4.1608932E1,1.6367528E0,7.349473E1,1.1716633E2,3.8549225E1,7.600957E1,6.2198105E1,6.402194E1,9.9380455E1,9.34556E1,8.938379E1,2.4614864E2,3.9558754E0,1.9094267E2,8.084619E1,1.593859E2,6.4978845E2,1.03139515E1,1.2426699E2,1.3848999E2,7.944477E1,2.2484882E1,5.2798065E1,2.994706E0,4.3939857E1,3.4790082E0,1.4359198E1,5.1568904E0,4.462617E0,1.6728299E2,7.703504E0,3.314909E1,1.0685956E1,1.18952265E1,3.3837415E2,1.084219E0,1.1664941E0,3.6511116E1,5.2930134E1,5.024872E1,1.8679826E2,1.4031799E1,2.7577131E1,1.3336589E0,7.216107E1],"tree_param":{"num_deleted":"0","num_feature":"28","num_nodes":"97","size_leaf_vector":"1"}},{"base_weights":[3.4011772E-3,-4.6736312E-1,7.856162E-1,-6.5539494E-2,-2.4618863E-1,4.9264655E-1,1.1097721E0,4.0774724E-1,-5.566715E-1,2.839224E-1,8.189475E-1,6.3654053E-1,1.1756126E0,8.309674E-1,-1.11011244E-1,-7.104174E-1,4.592645E-1,5.315327E-1,-1.4096387E-1,8.7521833E-1,-4.112873E-1,1.0774689E0,1.3856913E-1,1.2524945E0,1.0459123E0,1.1491827E0,4.4803312E-1,-9.155357E-1,7.555427E-1,-1.3954101E0,-5.04655E-1,-7.50244E-2,7.4363315E-1,4.068211E-3,9.170199E-1,-6.453818E-1,5.387183E-1,7.164929E-1,1.3084881E0,5.2679636E-2,-1.4287475E0,-3.71824E-2,1.1677408E0,-1.1598365E0,5.413416E-1,9.7181326E-1,1.2723614E0,9.7520024E-1,6.611027E-2,6.1623316E-2,5.5098687E-3,4.3784767E-2,-7.130883E-3,-7.3546716E-3,-6.8652965E-2,-6.2903695E-2,4.6122637E-2,-4.0523965E-2,-7.025676E-2,-7.07586E-2,-1.829896E-2,7.476563E-2,1.3855815E-2,-1.561823E-2,5.6125637E-2,2.11197E-3,5.926482E-2,-6.1543345E-2,2.169544E-2,-1.6303979E-2,4.901269E-2,5.104495E-2,-1.869639E-2,-2.5311327E-2,6.763322E-2,-5.4887026E-3,-8.285506E-2,6.2168367E-2,2.7691994E-2,-9.5178E-2,3.7112337E-2,-1.4407732E-2,5.278942E-2,6.3297085E-2,-4.274765E-2,4.4300158E-2,6.449547E-2,5.3488035E-2,-8.454111E-3],"categories":[],"categories_nodes":[],"categories_segments":[],"categories_sizes":[],"default_left":[0,0,0,0,0,0,0,0,0,0,0,0,0,0,0,0,0,0,0,0,0,0,0,0,0,0,0,0,0,0,0,0,0,0,0,0,0,0,0,0,0,0,0,0,0,0,0,0,0,0,0,0,0,0,0,0,0,0,0,0,0,0,0,0,0,0,0,0,0,0,0,0,0,0,0,0,0,0,0,0,0,0,0,0,0,0,0,0,0],"id":15,"left_children":[1,3,5,-1,7,9,11,13,15,17,19,21,23,25,27,29,31,33,35,37,39,41,43,45,47,49,51,53,55,57,59,-1,61,63,65,67,69,71,73,-1,75,-1,77,79,81,83,85,87,-1,-1,-1,-1,-1,-1,-1,-1,-1,-1,-1,-1,-1,-1,-1,-1,-1,-1,-1,-1,-1,-1,-1,-1,-1,-1,-1,-1,-1,-1,-1,-1,-1,-1,-1,-1,-1,-1,-1,-1,-1],"loss_changes":[1.4808607E3,4.680052E2,1.4294287E2,0E0,4.0430902E2,5.3942383E1,2.1575867E1,1.4088861E2,2.1117554E2,5.127384E1,2.1805374E1,1.9543957E1,4.9501953E0,4.2535202E1,2.02179E2,1.6460553E2,1.0033715E2,6.2556908E1,6.205062E1,1.945694E1,2.2714748E1,8.664379E0,2.3255465E1,9.3322754E-1,3.3937683E0,1.6504913E1,4.1040375E1,5.264798E1,4.810894E1,3.9916992E-1,1.1356386E2,0E0,5.4342743E1,4.6684757E1,4.1667038E1,6.610173E1,2.9802418E1,7.3158875E1,6.962036E0,0E0,2.475195E0,0E0,1.4271278E0,1.635476E1,1.468753E1,1.7176428E1,1.2988281E0,2.1244812E1,0E0,0E0,0E0,0E0,0E0,0E0,0E0,0E0,0E0,0E0,0E0,0E0,0E0,0E0,0E0,0E0,0E0,0E0,0E0,0E0,0E0,0E0,0E0,0E0,0E0,0E0,0E0,0E0,0E0,0E0,0E0,0E0,0E0,0E0,0E0,0E0,0E0,0E0,0E0,0E0,0E0],"parents":[2147483647,0,0,1,1,2,2,4,4,5,5,6,6,7,7,8,8,9,9,10,10,11,11,12,12,13,13,14,14,15,15,16,16,17,17,18,18,19,19,20,20,21,21,22,22,23,23,24,24,25,25,26,26,27,27,28,28,29,29,30,30,32,32,33,33,34,34,35,35,36,36,37,37,38,38,40,40,42,42,43,43,44,44,45,45,46,46,47,47],"right_children":[2,4,6,-1,8,10,12,14,16,18,20,22,24,26,28,30,32,34,36,38,40,42,44,46,48,50,52,54,56,58,60,-1,62,64,66,68,70,72,74,-1,76,-1,78,80,82,84,86,88,-1,-1,-1,-1,-1,-1,-1,-1,-1,-1,-1,-1,-1,-1,-1,-1,-1,-1,-1,-1,-1,-1,-1,-1,-1,-1,-1,-1,-1,-1,-1,-1,-1,-1,-1,-1,-1,-1,-1,-1,-1],"split_conditions":[3.3494766E1,5.4333334E0,2.4131625E0,-6.5539494E-2,9.85E0,8.875E0,3.53375E1,2.85734E1,2.65844E1,1.9566668E1,2.65844E1,1.0033334E1,2.936309E1,2.936309E1,2.58375E1,1.3083333E1,1.1666667E1,2.618985E1,4E0,2.21E1,1.6983334E1,3.3556232E1,4.067655E1,8.2E0,2.245E1,2.9193733E1,2.8197933E1,2.9435432E1,5.633333E0,9.933333E0,3.95729E1,-7.50244E-2,1.3566667E1,4.067655E1,1E0,2.1833334E1,3.13875E1,2.06E1,3.1934366E1,5.2679636E-2,-1.570375E0,-3.71824E-2,8.5E0,2.597735E1,1.66E1,7.9166665E0,3.24406E1,2.1666666E1,6.611027E-2,6.1623316E-2,5.5098687E-3,4.3784767E-2,-7.130883E-3,-7.3546716E-3,-6.8652965E-2,-6.2903695E-2,4.6122637E-2,-4.0523965E-2,-7.025676E-2,-7.07586E-2,-1.829896E-2,7.476563E-2,1.3855815E-2,-1.561823E-2,5.6125637E-2,2.11197E-3,5.926482E-2,-6.1543345E-2,2.169544E-2,-1.6303979E-2,4.901269E-2,5.104495E-2,-1.869639E-2,-2.5311327E-2,6.763322E-2,-5.4887026E-3,-8.285506E-2,6.2168367E-2,2.7691994E-2,-9.5178E-2,3.7112337E-2,-1.4407732E-2,5.278942E-2,6.3297085E-2,-4.274765E-2,4.4300158E-2,6.449547E-2,5.3488035E-2,-8.454111E-3],"split_indices":[21,0,14,0,0,22,21,20,25,0,25,0,27,27,25,0,0,25,1,0,0,21,26,0,0,7,21,21,0,0,26,0,0,26,1,0,20,0,20,0,10,0,0,25,0,0,7,0,0,0,0,0,0,0,0,0,0,0,0,0,0,0,0,0,0,0,0,0,0,0,0,0,0,0,0,0,0,0,0,0,0,0,0,0,0,0,0,0,0],"split_type":[0,0,0,0,0,0,0,0,0,0,0,0,0,0,0,0,0,0,0,0,0,0,0,0,0,0,0,0,0,0,0,0,0,0,0,0,0,0,0,0,0,0,0,0,0,0,0,0,0,0,0,0,0,0,0,0,0,0,0,0,0,0,0,0,0,0,0,0,0,0,0,0,0,0,0,0,0,0,0,0,0,0,0,0,0,0,0,0,0],"sum_hessian":[4.0194705E3,2.5095427E3,1.5099279E3,5.203424E2,1.9892003E3,7.9443933E2,7.1548846E2,6.40298E2,1.3489023E3,4.8565295E2,3.0878638E2,8.8690254E1,6.267982E2,3.52288E2,2.8800995E2,1.1718605E3,1.7704185E2,3.0667908E2,1.7897389E2,2.955562E2,1.323015E1,4.6422115E1,4.226814E1,3.8809302E2,2.387052E2,1.9131E2,1.6097801E2,1.4932104E2,1.386889E2,2.6936154E2,9.024989E2,2.189233E1,1.5514952E2,1.299197E2,1.7675937E2,1.027613E2,7.62126E1,2.1825404E2,7.7302185E1,5.4082108E0,7.82194E0,1.8506114E0,4.4571503E1,9.562419E0,3.270572E1,2.8953444E1,3.5913956E2,1.9366884E2,4.503635E1,1.7694046E2,1.4369539E1,9.309195E1,6.7886055E1,5.6218956E1,9.310209E1,1.0115629E1,1.2857327E2,5.784445E0,2.635771E2,1.1807006E2,7.8442883E2,5.8571087E1,9.6578445E1,1.0183034E2,2.8089355E1,4.175724E1,1.3500214E2,6.653012E1,3.623118E1,2.5847939E1,5.036466E1,1.7067227E2,4.7581768E1,1.5885105E0,7.571368E1,1.3728809E0,6.449059E0,3.877006E1,