{"learner":{"attributes":{"scikit_learn":"{\"_estimator_type\": \"classifier\"}"},"feature_names":[],"feature_types":[],"gradient_booster":{"model":{"cats":{"enc":[],"feature_segments":[],"sorted_idx":[]},"gbtree_model_param":{"num_parallel_tree":"1","num_trees":"300"},"iteration_indptr":[0,1,2,3,4,5,6,7,8,9,10,11,12,13,14,15,16,17,18,19,20,21,22,23,24,25,26,27,28,29,30,31,32,33,34,35,36,37,38,39,40,41,42,43,44,45,46,47,48,49,50,51,52,53,54,55,56,57,58,59,60,61,62,63,64,65,66,67,68,69,70,71,72,73,74,75,76,77,78,79,80,81,82,83,84,85,86,87,88,89,90,91,92,93,94,95,96,97,98,99,100,101,102,103,104,105,106,107,108,109,110,111,112,113,114,115,116,117,118,119,120,121,122,123,124,125,126,127,128,129,130,131,132,133,134,135,136,137,138,139,140,141,142,143,144,145,146,147,148,149,150,151,152,153,154,155,156,157,158,159,160,161,162,163,164,165,166,167,168,169,170,171,172,173,174,175,176,177,178,179,180,181,182,183,184,185,186,187,188,189,190,191,192,193,194,195,196,197,198,199,200,201,202,203,204,205,206,207,208,209,210,211,212,213,214,215,216,217,218,219,220,221,222,223,224,225,226,227,228,229,230,231,232,233,234,235,236,237,238,239,240,241,242,243,244,245,246,247,248,249,250,251,252,253,254,255,256,257,258,259,260,261,262,263,264,265,266,267,268,269,270,271,272,273,274,275,276,277,278,279,280,281,282,283,284,285,286,287,288,289,290,291,292,293,294,295,296,297,298,299,300],"tree_info":[0,0,0,0,0,0,0,0,0,0,0,0,0,0,0,0,0,0,0,0,0,0,0,0,0,0,0,0,0,0,0,0,0,0,0,0,0,0,0,0,0,0,0,0,0,0,0,0,0,0,0,0,0,0,0,0,0,0,0,0,0,0,0,0,0,0,0,0,0,0,0,0,0,0,0,0,0,0,0,0,0,0,0,0,0,0,0,0,0,0,0,0,0,0,0,0,0,0,0,0,0,0,0,0,0,0,0,0,0,0,0,0,0,0,0,0,0,0,0,0,0,0,0,0,0,0,0,0,0,0,0,0,0,0,0,0,0,0,0,0,0,0,0,0,0,0,0,0,0,0,0,0,0,0,0,0,0,0,0,0,0,0,0,0,0,0,0,0,0,0,0,0,0,0,0,0,0,0,0,0,0,0,0,0,0,0,0,0,0,0,0,0,0,0,0,0,0,0,0,0,0,0,0,0,0,0,0,0,0,0,0,0,0,0,0,0,0,0,0,0,0,0,0,0,0,0,0,0,0,0,0,0,0,0,0,0,0,0,0,0,0,0,0,0,0,0,0,0,0,0,0,0,0,0,0,0,0,0,0,0,0,0,0,0,0,0,0,0,0,0,0,0,0,0,0,0,0,0,0,0,0,0,0,0,0,0,0,0,0,0,0,0,0,0,0,0,0,0,0,0],"trees":[{"base_weights":[3.704485E-2,-1.4208364E0,6.472195E-1,-1.9705037E0,-2.0196426E-1,-2.8444025E-1,1.1114184E0,-9.887167E-1,-9.978667E-2,-1.6755596E0,1.6668871E-1,-1.2194746E0,1.0851341E0,-2.4136859E-1,1.2512125E0,-9.090909E-2,7.532603E-2,7.532603E-2,-9.754601E-2,-9.698719E-1,9.6689576E-1,5.064485E-1,-9.956332E-2,-1.1628884E-1,1.4436154E0,-9.905941E-1,1.527197E0,1.716394E0,1.0081301E0,-1.3882976E0,7.7082224E-2,-8.62069E-2,1.1574305E0,-1.5271193E0,1.3248451E0,-9.603961E-2,1.4768567E0,1.5400668E0,-8.260869E-2,-1.5226719E0,5.156904E-1,2.547589E-1,8.864619E-2,-8.461539E-2,1.7765032E0,6.870811E-1,1.5004082E0,-4.6500107E-3,-8.587415E-2,6.778469E-2,-8.518519E-2,-9.62963E-2,7.532603E-2,-8.857143E-2,8.567273E-2,9.606653E-2,-7.647059E-2,-6.666667E-2,7.911568E-2,-8.64143E-2,7.532603E-2,-8.4E-2,6.992263E-2,-6.923077E-2,7.532603E-2,9.718785E-2,7.697118E-2,-6.4544664E-3,5.6794573E-2,5.313149E-2,9.183292E-2],"categories":[],"categories_nodes":[],"categories_segments":[],"categories_sizes":[],"default_left":[0,0,0,0,0,0,0,0,0,0,0,0,0,0,0,0,0,0,0,0,0,0,0,0,0,0,0,0,0,0,0,0,0,0,0,0,0,0,0,0,0,0,0,0,0,0,0,0,0,0,0,0,0,0,0,0,0,0,0,0,0,0,0,0,0,0,0,0,0,0,0],"id":0,"left_children":[1,3,5,7,9,11,13,15,-1,17,19,21,23,25,27,-1,-1,-1,-1,29,31,33,-1,35,37,39,41,43,45,47,-1,-1,49,51,53,-1,55,57,-1,59,61,63,-1,-1,65,67,69,-1,-1,-1,-1,-1,-1,-1,-1,-1,-1,-1,-1,-1,-1,-1,-1,-1,-1,-1,-1,-1,-1,-1,-1],"loss_changes":[2.108183E3,4.680775E2,7.228241E2,9.961182E0,1.18946526E2,7.138135E2,2.1121082E2,3.1824493E1,0E0,4.132003E1,1.6067812E2,4.4206454E2,9.7616455E1,1.4103154E2,1.1258716E2,0E0,0E0,0E0,0E0,7.892525E1,5.510028E1,1.7362544E2,0E0,1.5498122E2,5.4601135E1,6.0547836E1,9.468071E0,7.380768E1,1.04293396E2,2.6770645E1,0E0,0E0,5.7515976E1,3.926046E1,9.214375E1,0E0,4.125136E1,2.2696625E1,0E0,3.7081726E1,4.1524635E1,1.5020076E1,0E0,0E0,1.0491577E1,1.4857518E2,3.6647034E1,0E0,0E0,0E0,0E0,0E0,0E0,0E0,0E0,0E0,0E0,0E0,0E0,0E0,0E0,0E0,0E0,0E0,0E0,0E0,0E0,0E0,0E0,0E0,0E0],"parents":[2147483647,0,0,1,1,2,2,3,3,4,4,5,5,6,6,7,7,9,9,10,10,11,11,12,12,13,13,14,14,19,19,20,20,21,21,23,23,24,24,25,25,26,26,27,27,28,28,29,29,32,32,33,33,34,34,36,36,37,37,39,39,40,40,41,41,44,44,45,45,46,46],"right_children":[2,4,6,8,10,12,14,16,-1,18,20,22,24,26,28,-1,-1,-1,-1,30,32,34,-1,36,38,40,42,44,46,48,-1,-1,50,52,54,-1,56,58,-1,60,62,64,-1,-1,66,68,70,-1,-1,-1,-1,-1,-1,-1,-1,-1,-1,-1,-1,-1,-1,-1,-1,-1,-1,-1,-1,-1,-1,-1,-1],"split_conditions":[1.9442858E1,2.0333334E1,4E0,1.6666667E-1,3E0,1.9916666E1,6.578061E-1,8.5714287E-1,-9.978667E-2,2.1666666E1,8.1134045E-1,1.1083333E1,1.222063E1,7.285714E-2,8.916667E0,-9.090909E-2,7.532603E-2,7.532603E-2,-9.754601E-2,1.2852929E1,1.7714285E1,2.1444445E1,-9.956332E-2,1.0380953E1,1.2E1,9.875E0,5.194434E-1,1.0833333E1,9.875E0,8.916667E0,7.7082224E-2,-8.62069E-2,6E0,2.3428572E1,2E0,-9.603961E-2,2.0916666E1,1.76E1,-8.260869E-2,3.275E1,2.2714285E1,2.15E1,8.864619E-2,-8.461539E-2,1.45E1,2.4777779E1,1.75E1,-4.6500107E-3,-8.587415E-2,6.778469E-2,-8.518519E-2,-9.62963E-2,7.532603E-2,-8.857143E-2,8.567273E-2,9.606653E-2,-7.647059E-2,-6.666667E-2,7.911568E-2,-8.64143E-2,7.532603E-2,-8.4E-2,6.992263E-2,-6.923077E-2,7.532603E-2,9.718785E-2,7.697118E-2,-6.4544664E-3,5.6794573E-2,5.313149E-2,9.183292E-2],"split_indices":[18,0,1,0,1,0,19,9,0,0,19,0,27,16,24,0,0,0,0,27,26,5,0,24,24,24,19,0,24,24,0,0,1,3,1,0,0,20,0,7,3,0,0,0,0,3,0,0,0,0,0,0,0,0,0,0,0,0,0,0,0,0,0,0,0,0,0,0,0,0,0],"split_type":[0,0,0,0,0,0,0,0,0,0,0,0,0,0,0,0,0,0,0,0,0,0,0,0,0,0,0,0,0,0,0,0,0,0,0,0,0,0,0,0,0,0,0,0,0,0,0,0,0,0,0,0,0,0,0,0,0,0,0,0,0,0,0,0,0,0,0,0,0,0,0],"sum_hessian":[2.3678774E3,6.982442E2,1.6696332E3,4.8080286E2,2.1744133E2,5.553726E2,1.1142605E3,1.3052855E1,4.6775E2,4.2802853E1,1.7463847E2,3.3010992E2,2.2526268E2,1.0429281E2,1.0099677E3,1E1,3.052854E0,3.052854E0,3.975E1,7.206712E1,1.0257135E2,1.0210993E2,2.28E2,5.1922832E1,1.7333984E2,7.356712E1,3.0725687E1,3.4454968E2,6.654181E2,6.215856E1,9.908562E0,6.25E0,9.632135E1,2.9052855E1,7.305708E1,2.425E1,2.7672832E1,1.6858984E2,4.75E0,5.435571E1,1.9211416E1,5.302854E0,2.5422832E1,5.5E0,3.3904968E2,4.04204E2,2.6121405E2,1.2855708E1,4.9302853E1,9.057135E1,5.75E0,2.6E1,3.052854E0,7.75E0,6.530708E1,2.4422832E1,3.25E0,2E0,1.6658984E2,5.1302853E1,3.052854E0,5.25E0,1.3961416E1,2.25E0,3.052854E0,1.945798E2,1.4446986E2,1.436628E2,2.6054123E2,1.1528277E2,1.4593129E2],"tree_param":{"num_deleted":"0","num_feature":"28","num_nodes":"71","size_leaf_vector":"1"}},{"base_weights":[-7.561538E-3,-1.3063948E0,5.9332055E-1,-1.8773104E0,-1.7891672E-1,-7.403665E-1,9.329637E-1,-8.677329E-1,-9.507142E-2,3.383155E-1,-1.1053166E0,-1.3826174E0,1.2758449E0,6.6862845E-1,1.545222E0,-8.607174E-2,7.256783E-2,5.7437974E-1,-9.1245025E-2,-2.4537727E-2,-9.473587E-2,-1.7213567E0,-2.1929233E-1,1.7564933E0,3.0175558E-1,1.9145404E-1,1.0807271E0,1.657736E0,8.629175E-1,-1.2685559E0,8.855389E-1,-8.955728E-2,7.8329176E-1,-1.7868379E-1,-9.5464E-2,-9.21995E-2,4.8238778E-1,3.789973E-2,1.8255872E0,-9.078585E-2,1.3869387E0,7.550939E-1,-8.5521704E-1,1.1899182E0,-9.006178E-2,1.3800997E0,1.7747735E0,-9.2748575E-2,1.5429453E0,-8.987323E-2,1.6941126E-2,-8.252579E-2,5.1212657E-2,-7.84177E-2,6.637527E-2,-8.886246E-2,7.2385244E-2,-8.451169E-2,4.795793E-2,9.42549E-2,4.51671E-2,-5.7232685E-2,8.2018554E-2,-9.223183E-2,4.7490414E-2,1.20844375E-2,-9.698246E-2,6.4985596E-2,-6.510764E-2,-6.1109673E-2,7.161566E-2,3.9173137E-2,8.947947E-2,-8.003604E-2,9.244888E-2],"categories":[],"categories_nodes":[],"categories_segments":[],"categories_sizes":[],"default_left":[0,0,0,0,0,0,0,0,0,0,0,0,0,0,0,0,0,0,0,0,0,0,0,0,0,0,0,0,0,0,0,0,0,0,0,0,0,0,0,0,0,0,0,0,0,0,0,0,0,0,0,0,0,0,0,0,0,0,0,0,0,0,0,0,0,0,0,0,0,0,0,0,0,0,0],"id":1,"left_children":[1,3,5,7,9,11,13,15,-1,17,19,21,23,25,27,-1,-1,29,-1,31,-1,33,35,37,39,41,43,45,47,49,51,-1,53,55,-1,-1,57,-1,59,-1,61,63,65,67,-1,69,71,-1,73,-1,-1,-1,-1,-1,-1,-1,-1,-1,-1,-1,-1,-1,-1,-1,-1,-1,-1,-1,-1,-1,-1,-1,-1,-1,-1],"loss_changes":[1.7830762E3,4.6482898E2,7.082639E2,1.002832E1,1.17301315E2,4.130459E2,2.005299E2,2.8295269E1,0E0,8.140497E1,7.474601E1,9.473459E1,3.563868E1,1.7119476E2,2.7342163E1,0E0,0E0,8.291822E1,0E0,5.56566E1,0E0,5.3808533E1,6.424823E1,2.170578E0,6.3943092E1,2.3965758E2,1.4925745E2,7.9700317E0,1.0477694E2,1.8475113E1,4.4827454E1,0E0,3.6358673E1,5.81741E1,0E0,0E0,4.2647316E1,0E0,9.0275574E-1,0E0,1.35807E1,1.353222E2,1.6970949E2,1.25101135E2,0E0,1.5281616E1,1.859375E0,0E0,4.591768E1,0E0,0E0,0E0,0E0,0E0,0E0,0E0,0E0,0E0,0E0,0E0,0E0,0E0,0E0,0E0,0E0,0E0,0E0,0E0,0E0,0E0,0E0,0E0,0E0,0E0,0E0],"parents":[2147483647,0,0,1,1,2,2,3,3,4,4,5,5,6,6,7,7,9,9,10,10,11,11,12,12,13,13,14,14,17,17,19,19,21,21,22,22,23,23,24,24,25,25,26,26,27,27,28,28,29,29,30,30,32,32,33,33,36,36,38,38,40,40,41,41,42,42,43,43,45,45,46,46,48,48],"right_children":[2,4,6,8,10,12,14,16,-1,18,20,22,24,26,28,-1,-1,30,-1,32,-1,34,36,38,40,42,44,46,48,50,52,-1,54,56,-1,-1,58,-1,60,-1,62,64,66,68,-1,70,72,-1,74,-1,-1,-1,-1,-1,-1,-1,-1,-1,-1,-1,-1,-1,-1,-1,-1,-1,-1,-1,-1,-1,-1,-1,-1,-1,-1],"split_conditions":[2.0681818E1,2.1E1,-2.1626985E0,1.6666667E-1,1E0,7.857143E0,2.65E1,8.021978E-1,-9.507142E-2,1.1E1,1.8222221E1,1.8083334E1,1.2666667E1,1.0380953E1,9.333333E0,-8.607174E-2,7.256783E-2,1.6714285E1,-9.1245025E-2,7.0454544E-1,-9.473587E-2,1.1E1,2.225E1,1.875E1,2.057143E0,1.8571428E1,2.1E1,3.2142857E-1,1.4E1,-3.9583334E-1,1.7714285E1,-8.955728E-2,1.7714285E1,8.8095236E-1,-9.5464E-2,-9.21995E-2,1.1333333E0,3.789973E-2,1.2083333E1,-9.078585E-2,-2.3333333E0,1.0916667E1,1.4E1,2.6375E1,-9.006178E-2,1.9E1,2.6666666E1,-9.2748575E-2,9.75E0,-8.987323E-2,1.6941126E-2,-8.252579E-2,5.1212657E-2,-7.84177E-2,6.637527E-2,-8.886246E-2,7.2385244E-2,-8.451169E-2,4.795793E-2,9.42549E-2,4.51671E-2,-5.7232685E-2,8.2018554E-2,-9.223183E-2,4.7490414E-2,1.20844375E-2,-9.698246E-2,6.4985596E-2,-6.510764E-2,-6.1109673E-2,7.161566E-2,3.9173137E-2,8.947947E-2,-8.003604E-2,9.244888E-2],"split_indices":[21,0,16,0,13,23,20,9,0,24,26,0,0,24,25,0,0,21,0,12,0,0,21,22,12,26,26,14,0,16,26,0,26,12,0,0,12,0,0,0,15,0,0,21,0,22,20,0,24,0,0,0,0,0,0,0,0,0,0,0,0,0,0,0,0,0,0,0,0,0,0,0,0,0,0],"split_type":[0,0,0,0,0,0,0,0,0,0,0,0,0,0,0,0,0,0,0,0,0,0,0,0,0,0,0,0,0,0,0,0,0,0,0,0,0,0,0,0,0,0,0,0,0,0,0,0,0,0,0,0,0,0,0,0,0,0,0,0,0,0,0,0,0,0,0,0,0,0,0,0,0,0,0],"sum_hessian":[2.2826968E3,7.216482E2,1.5610486E3,4.7862442E2,2.4302377E2,3.166134E2,1.2444352E3,1.2029958E1,4.6659445E2,1.5635928E2,8.666449E1,2.4036194E2,7.6251465E1,8.7063904E2,3.737961E2,8.98143E0,3.0485277E0,1.4163736E2,1.4721917E1,3.7016205E1,4.9648285E1,1.8578499E2,5.457694E1,5.051999E1,2.5731476E1,4.0414218E2,4.6649686E2,3.1965457E2,5.4141552E1,2.001507E1,1.2162229E2,1.12333145E1,2.578289E1,2.038598E1,1.65399E2,1.5970426E1,3.8606514E1,4.04434E0,4.647565E1,8.490713E0,1.7240763E1,2.628657E2,1.4127647E2,4.5003323E2,1.6463636E1,9.858446E1,2.2107011E2,1.0489609E1,4.3651943E1,1.4970696E1,5.0443745E0,5.742156E0,1.1588014E2,4.491675E0,2.1291216E1,1.0234152E1,1.015183E1,6.489412E0,3.2117104E1,4.26777E1,3.7979484E0,1.2488744E0,1.5991889E1,1.7725815E1,2.4513988E2,7.062064E1,7.065583E1,4.3150098E2,1.8532248E1,1.498383E0,9.708607E1,4.048804E0,2.1702132E2,3.497179E0,4.0154762E1],"tree_param":{"num_deleted":"0","num_feature":"28","num_nodes":"75","size_leaf_vector":"1"}},{"base_weights":[1.9358218E-2,-1.2430545E0,5.941693E-1,-1.7967219E0,-1.5637465E-1,-2.957167E-1,1.0384233E0,-9.2024934E-1,-9.0972036E-2,-1.0817063E0,3.658337E-1,-1.1135288E0,1.0588397E0,7.132205E-1,1.4615713E0,-8.3825976E-2,7.005353E-2,-9.2093274E-2,6.740086E-1,-8.9680746E-2,6.364629E-1,4.8999763E-1,-9.239776E-2,2.2180988E-1,1.6079562E0,3.5816342E-1,1.3656644E0,1.5963688E0,6.8952453E-1,1.3481685E0,-8.142682E-2,8.896301E-1,-8.739603E-2,-9.366035E-2,1.6473206E0,7.895469E-1,-9.1027014E-2,1.7560353E0,4.6851417E-1,5.9528565E-1,-1.2168258E0,1.5743123E0,-3.942412E-1,1.619508E0,-7.243183E-2,-9.451046E-2,1.525286E0,8.338928E-2,-6.2158275E-2,-8.3769456E-2,5.3347826E-2,-7.0810966E-2,8.953525E-2,-8.543075E-2,5.87832E-2,4.2992692E-2,8.9028746E-2,-7.950476E-2,8.4290266E-2,-2.9580245E-2,4.7577124E-2,-9.4270125E-2,4.4595342E-2,-5.7523053E-2,7.991665E-2,7.3553115E-2,-9.346226E-2,-5.4581612E-2,8.155059E-2,-7.951806E-2,9.121841E-2],"categories":[],"categories_nodes":[],"categories_segments":[],"categories_sizes":[],"default_left":[0,0,0,0,0,0,0,0,0,0,0,0,0,0,0,0,0,0,0,0,0,0,0,0,0,0,0,0,0,0,0,0,0,0,0,0,0,0,0,0,0,0,0,0,0,0,0,0,0,0,0,0,0,0,0,0,0,0,0,0,0,0,0,0,0,0,0,0,0,0,0],"id":2,"left_children":[1,3,5,7,9,11,13,15,-1,17,19,21,23,25,27,-1,-1,-1,29,-1,31,33,-1,35,37,39,41,43,45,47,-1,49,-1,-1,51,53,-1,55,57,59,61,63,65,67,-1,-1,69,-1,-1,-1,-1,-1,-1,-1,-1,-1,-1,-1,-1,-1,-1,-1,-1,-1,-1,-1,-1,-1,-1,-1,-1],"loss_changes":[1.6887611E3,4.3780396E2,6.3248663E2,7.928955E0,1.1968282E2,5.9191003E2,1.4576392E2,2.7292238E1,0E0,1.20435486E2,9.380072E1,3.9306534E2,9.214981E1,1.3970514E2,4.7047363E1,0E0,0E0,0E0,4.52193E1,0E0,8.7051056E1,2.913405E2,0E0,9.5230865E1,1.9656464E1,1.4759534E2,7.880521E1,3.00448E1,1.5495059E2,2.0283195E1,0E0,6.03264E1,0E0,0E0,3.38468E1,6.373497E1,0E0,8.2321167E-1,4.1079556E1,1.453751E2,7.469622E1,1.4310608E1,6.704084E1,1.3963501E1,0E0,0E0,5.3057945E1,0E0,0E0,0E0,0E0,0E0,0E0,0E0,0E0,0E0,0E0,0E0,0E0,0E0,0E0,0E0,0E0,0E0,0E0,0E0,0E0,0E0,0E0,0E0,0E0],"parents":[2147483647,0,0,1,1,2,2,3,3,4,4,5,5,6,6,7,7,9,9,10,10,11,11,12,12,13,13,14,14,18,18,20,20,21,21,23,23,24,24,25,25,26,26,27,27,28,28,29,29,31,31,34,34,35,35,37,37,38,38,39,39,40,40,41,41,42,42,43,43,46,46],"right_children":[2,4,6,8,10,12,14,16,-1,18,20,22,24,26,28,-1,-1,-1,30,-1,32,34,-1,36,38,40,42,44,46,48,-1,50,-1,-1,52,54,-1,56,58,60,62,64,66,68,-1,-1,70,-1,-1,-1,-1,-1,-1,-1,-1,-1,-1,-1,-1,-1,-1,-1,-1,-1,-1,-1,-1,-1,-1,-1,-1],"split_conditions":[2.0681818E1,2.1E1,4E0,1.6666667E-1,4E0,1.9916666E1,2.65E1,8.5714287E-1,-9.0972036E-2,1.9333334E1,2.2E1,1.1083333E1,2.188889E1,9.875E0,6E0,-8.3825976E-2,7.005353E-2,-9.2093274E-2,1.8666666E1,-8.9680746E-2,6E0,2.34E1,-9.239776E-2,1.9444445E1,2.1338095E1,9.75E0,2.3833334E1,9.333333E0,9.75E0,2.1833334E1,-8.142682E-2,1.5777778E1,-8.739603E-2,-9.366035E-2,1E0,1.0380953E1,-9.1027014E-2,6.46314E-1,9.333333E0,-1.8035715E0,1.8968254E0,2.1285715E1,1.125E1,7.633333E0,-7.243183E-2,-9.451046E-2,1.4E1,8.338928E-2,-6.2158275E-2,-8.3769456E-2,5.3347826E-2,-7.0810966E-2,8.953525E-2,-8.543075E-2,5.87832E-2,4.2992692E-2,8.9028746E-2,-7.950476E-2,8.4290266E-2,-2.9580245E-2,4.7577124E-2,-9.4270125E-2,4.4595342E-2,-5.7523053E-2,7.991665E-2,7.3553115E-2,-9.346226E-2,-5.4581612E-2,8.155059E-2,-7.951806E-2,9.121841E-2],"split_indices":[21,0,1,0,1,0,20,9,0,4,0,0,21,24,1,0,0,0,20,0,1,21,0,20,18,24,20,25,24,0,0,7,0,0,1,24,0,19,25,16,14,21,0,23,0,0,0,0,0,0,0,0,0,0,0,0,0,0,0,0,0,0,0,0,0,0,0,0,0,0,0],"split_type":[0,0,0,0,0,0,0,0,0,0,0,0,0,0,0,0,0,0,0,0,0,0,0,0,0,0,0,0,0,0,0,0,0,0,0,0,0,0,0,0,0,0,0,0,0,0,0,0,0,0,0,0,0,0,0,0,0,0,0,0,0,0,0,0,0,0,0,0,0,0,0],"sum_hessian":[2.3252249E3,7.27128E2,1.5980969E3,4.8126718E2,2.4586084E2,5.322601E2,1.0658369E3,1.3208302E1,4.6805887E2,8.830919E1,1.5755165E2,3.3199582E2,2.0026422E2,6.041861E2,4.616508E2,1.017208E1,3.0362213E0,6.1592754E1,2.6716433E1,1.691925E1,1.406324E2,1.04395134E2,2.276007E2,7.989006E1,1.2037416E2,3.9226578E2,2.1192032E2,3.9211993E2,6.9530846E1,2.098635E1,5.730084E0,1.2770042E2,1.2931978E1,3.411506E1,7.0280075E1,6.299264E1,1.689742E1,1.060509E2,1.4323259E1,3.414768E2,5.078894E1,1.8955305E2,2.236727E1,3.896273E2,2.4926627E0,1.6705265E1,5.282558E1,1.8999352E1,1.9869965E0,7.711134E0,1.1998929E2,2.7453814E0,6.753469E1,7.974276E0,5.5018364E1,3.7870672E0,1.0226384E2,5.208575E0,9.114684E0,7.868212E1,2.627947E2,3.8643024E1,1.2145919E1,1.2466311E0,1.8830643E2,9.878058E0,1.2489211E1,1.2495481E0,3.8837775E2,4.2486267E0,4.8576954E1],"tree_param":{"num_deleted":"0","num_feature":"28","num_nodes":"71","size_leaf_vector":"1"}},{"base_weights":[8.417541E-3,-1.2957836E0,5.721192E-1,-8.738865E-2,-8.961367E-1,-6.1917776E-1,8.7208396E-1,-3.696524E-1,-1.6920878E0,-1.3208225E0,1.2994481E0,1.125986E-2,1.0470848E0,-1.1143696E0,2.2807913E-1,2.4986173E-1,-8.825653E-2,-1.656903E-1,-1.5080831E0,1.4213209E0,-7.2034925E-2,3.7361822E-1,-9.082516E-2,2.4087195E-1,1.1793442E0,-8.764889E-2,3.0959058E-1,6.1306185E-1,-8.633674E-2,-6.185652E-2,6.873699E-2,-8.595445E-2,9.623723E-1,7.4537955E-2,-1.6019901E0,1.4836956E0,-6.0840495E-2,-8.162408E-1,1.0366381E0,-7.7310556E-1,1.1298959E0,1.5268642E0,9.884298E-1,4.6428233E-2,-8.036401E-2,-8.121291E-2,3.9007895E-2,-7.168702E-2,7.85297E-2,-7.493484E-2,6.0926225E-2,-3.7364762E-2,-8.528324E-2,8.759306E-2,5.5535138E-2,3.9557178E-2,-7.704842E-2,6.368849E-2,-8.373665E-2,5.212384E-2,-5.608309E-2,-1.4353715E-2,7.1457E-2,-6.908179E-2,7.745637E-2,-1.1105228E-2,5.7083823E-2],"categories":[],"categories_nodes":[],"categories_segments":[],"categories_sizes":[],"default_left":[0,0,0,0,0,0,0,0,0,0,0,0,0,0,0,0,0,0,0,0,0,0,0,0,0,0,0,0,0,0,0,0,0,0,0,0,0,0,0,0,0,0,0,0,0,0,0,0,0,0,0,0,0,0,0,0,0,0,0,0,0,0,0,0,0,0,0],"id":3,"left_children":[1,3,5,-1,7,9,11,13,15,17,19,21,23,25,27,29,-1,31,33,35,-1,37,-1,39,41,-1,43,45,-1,-1,-1,-1,47,49,51,53,-1,55,57,59,61,63,65,-1,-1,-1,-1,-1,-1,-1,-1,-1,-1,-1,-1,-1,-1,-1,-1,-1,-1,-1,-1,-1,-1,-1,-1],"loss_changes":[1.6998524E3,1.2447656E2,5.774328E2,0E0,1.5542294E2,4.396519E2,1.9432947E2,1.0059306E2,2.1430145E1,5.138324E1,3.1306747E1,1.4570013E2,1.14032715E2,9.1963974E1,9.578818E1,1.2138161E1,0E0,6.1971966E1,3.0627594E1,1.5691574E1,0E0,1.4566148E2,0E0,1.3820764E2,5.9579346E1,0E0,3.943316E1,4.0858273E1,0E0,0E0,0E0,0E0,3.2246983E1,2.423985E1,1.5900116E1,6.345108E0,0E0,7.838939E1,7.820777E1,4.658518E1,3.5002625E1,2.3161438E1,1.1102399E2,0E0,0E0,0E0,0E0,0E0,0E0,0E0,0E0,0E0,0E0,0E0,0E0,0E0,0E0,0E0,0E0,0E0,0E0,0E0,0E0,0E0,0E0,0E0,0E0],"parents":[2147483647,0,0,1,1,2,2,4,4,5,5,6,6,7,7,8,8,9,9,10,10,11,11,12,12,13,13,14,14,15,15,17,17,18,18,19,19,21,21,23,23,24,24,26,26,27,27,32,32,33,33,34,34,35,35,37,37,38,38,39,39,40,40,41,41,42,42],"right_children":[2,4,6,-1,8,10,12,14,16,18,20,22,24,26,28,30,-1,32,34,36,-1,38,-1,40,42,-1,44,46,-1,-1,-1,-1,48,50,52,54,-1,56,58,60,62,64,66,-1,-1,-1,-1,-1,-1,-1,-1,-1,-1,-1,-1,-1,-1,-1,-1,-1,-1,-1,-1,-1,-1,-1,-1],"split_conditions":[2.0681818E1,1.45E1,-2.1626985E0,-8.738865E-2,1.0178572E0,1.84E1,3E0,4E0,4.142857E0,1.0939394E1,6E0,2.04E1,7.2243E-1,1.9225E1,-1.5E-1,-2.2857144E0,-8.825653E-2,2.22E1,-2.8809524E0,8.333333E-1,-7.2034925E-2,1.222063E1,-9.082516E-2,1.2487512E1,9E0,-8.764889E-2,1.8666666E1,1.1946108E1,-8.633674E-2,-6.185652E-2,6.873699E-2,-8.595445E-2,-1.3055556E0,1.1E1,1.7333334E1,8.916667E0,-6.0840495E-2,1.0857143E0,4.2E0,8.916667E0,-5.5E-1,2.0875E1,9.625E0,4.6428233E-2,-8.036401E-2,-8.121291E-2,3.9007895E-2,-7.168702E-2,7.85297E-2,-7.493484E-2,6.0926225E-2,-3.7364762E-2,-8.528324E-2,8.759306E-2,5.5535138E-2,3.9557178E-2,-7.704842E-2,6.368849E-2,-8.373665E-2,5.212384E-2,-5.608309E-2,-1.4353715E-2,7.1457E-2,-6.908179E-2,7.745637E-2,-1.1105228E-2,5.7083823E-2],"split_indices":[21,6,16,0,13,22,1,1,22,22,1,26,19,18,23,10,0,21,10,8,0,27,0,27,24,0,20,27,0,0,0,0,14,24,26,24,0,23,23,24,16,21,24,0,0,0,0,0,0,0,0,0,0,0,0,0,0,0,0,0,0,0,0,0,0,0,0],"split_type":[0,0,0,0,0,0,0,0,0,0,0,0,0,0,0,0,0,0,0,0,0,0,0,0,0,0,0,0,0,0,0,0,0,0,0,0,0,0,0,0,0,0,0,0,0,0,0,0,0,0,0,0,0,0,0,0,0,0,0,0,0,0,0,0,0,0,0],"sum_hessian":[2.3101484E3,6.96772E2,1.6133765E3,3.2539093E2,3.7138107E2,3.243139E2,1.2890625E3,2.2440929E2,1.4697179E2,2.3769867E2,8.661523E1,2.1796466E2,1.0710979E3,9.953443E1,1.2487486E2,5.2399254E0,1.4173186E2,3.342133E1,2.0427734E2,8.338771E1,3.2275167E0,1.825661E2,3.539857E1,1.5134795E2,9.197499E2,6.855727E1,3.0977169E1,1.04901794E2,1.9973064E1,2.213749E0,3.0261765E0,1.383959E1,1.958174E1,1.14536915E1,1.9282365E2,8.188916E1,1.4985521E0,6.524535E1,1.1732075E2,7.076604E1,8.058192E1,3.2363745E2,5.961124E2,2.3805689E1,7.171479E0,6.684164E0,9.8217636E1,3.689509E0,1.5892231E1,4.6916156E0,6.762076E0,2.1747276E1,1.7107639E2,4.548829E1,3.6400867E1,2.024718E1,4.4998173E1,1.0837286E2,8.947884E0,1.1076933E1,5.9689102E1,1.4057588E1,6.652433E1,1.9946437E0,3.2164282E2,6.693402E1,5.291784E2],"tree_param":{"num_deleted":"0","num_feature":"28","num_nodes":"67","size_leaf_vector":"1"}},{"base_weights":[2.2044225E-2,-1.5017991E0,4.2863727E-1,-1.6708475E0,8.340299E-2,-4.737974E-1,8.646541E-1,-7.01275E-1,-8.4660806E-2,-1.4013734E0,4.2422968E-1,5.599694E-1,1.3793969E0,-7.6264106E-2,6.651929E-2,-8.639718E-2,-6.920614E-2,-8.4681086E-2,8.737272E-1,2.4008712E-1,1.2032737E0,1.4912016E0,6.7823637E-1,1.3440373E0,-8.322271E-2,2.9542843E-1,1.4811645E0,4.9867952E-1,-1.6285211E0,1.4177135E0,-4.2920986E-1,1.5137125E0,-7.118486E-2,-8.908545E-2,1.445782E0,-6.637551E-2,8.581826E-2,3.0395074E-2,-8.466095E-2,7.7578045E-2,-6.751093E-2,-3.43956E-2,4.0929027E-2,-9.035098E-2,2.1489957E-2,4.6245422E-2,7.78715E-2,5.3106558E-2,-9.387476E-2,-5.3334195E-2,7.624205E-2,-7.555783E-2,8.522924E-2],"categories":[],"categories_nodes":[],"categories_segments":[],"categories_sizes":[],"default_left":[0,0,0,0,0,0,0,0,0,0,0,0,0,0,0,0,0,0,0,0,0,0,0,0,0,0,0,0,0,0,0,0,0,0,0,0,0,0,0,0,0,0,0,0,0,0,0,0,0,0,0,0,0],"id":4,"left_children":[1,3,5,7,-1,9,11,13,-1,15,17,19,21,-1,-1,-1,23,-1,25,27,29,31,33,35,-1,37,39,41,43,45,47,49,-1,-1,51,-1,-1,-1,-1,-1,-1,-1,-1,-1,-1,-1,-1,-1,-1,-1,-1,-1,-1],"loss_changes":[1.4157637E3,2.606858E2,7.10125E2,8.73291E0,0E0,4.905786E2,1.9001318E2,2.2154821E1,0E0,1.2586279E2,2.8672803E2,1.5730765E2,3.43938E1,0E0,0E0,0E0,1.3311984E2,0E0,8.662309E1,2.4857689E2,8.955899E1,2.765979E1,1.2331448E2,3.3448795E1,0E0,8.0701E1,2.6137787E1,1.7182849E2,2.3764084E1,1.4039368E1,6.737297E1,1.2716553E1,0E0,0E0,4.0296562E1,0E0,0E0,0E0,0E0,0E0,0E0,0E0,0E0,0E0,0E0,0E0,0E0,0E0,0E0,0E0,0E0,0E0,0E0],"parents":[2147483647,0,0,1,1,2,2,3,3,5,5,6,6,7,7,9,9,10,10,11,11,12,12,16,16,18,18,19,19,20,20,21,21,22,22,23,23,25,25,26,26,27,27,28,28,29,29,30,30,31,31,34,34],"right_children":[2,4,6,8,-1,10,12,14,-1,16,18,20,22,-1,-1,-1,24,-1,26,28,30,32,34,36,-1,38,40,42,44,46,48,50,-1,-1,52,-1,-1,-1,-1,-1,-1,-1,-1,-1,-1,-1,-1,-1,-1,-1,-1,-1,-1],"split_conditions":[9.666667E0,2.0285715E1,4E0,1.6666667E-1,8.340299E-2,1.9916666E1,2.65E1,8.5714287E-1,-8.4660806E-2,2.0714285E1,2.009091E1,9.875E0,6E0,-7.6264106E-2,6.651929E-2,-8.639718E-2,1.1166667E1,-8.4681086E-2,2.188889E1,9.75E0,2.575E1,9.333333E0,9.75E0,2.34E1,-8.322271E-2,1.9444445E1,2.04E1,5E0,2.7714285E1,2.1625E1,1.125E1,7.633333E0,-7.118486E-2,-8.908545E-2,1.4E1,-6.637551E-2,8.581826E-2,3.0395074E-2,-8.466095E-2,7.7578045E-2,-6.751093E-2,-3.43956E-2,4.0929027E-2,-9.035098E-2,2.1489957E-2,4.6245422E-2,7.78715E-2,5.3106558E-2,-9.387476E-2,-5.3334195E-2,7.624205E-2,-7.555783E-2,8.522924E-2],"split_indices":[0,20,1,0,0,0,20,9,0,26,21,24,1,0,0,0,0,0,21,24,21,25,24,21,0,20,26,1,4,21,0,23,0,0,0,0,0,0,0,0,0,0,0,0,0,0,0,0,0,0,0,0,0],"split_type":[0,0,0,0,0,0,0,0,0,0,0,0,0,0,0,0,0,0,0,0,0,0,0,0,0,0,0,0,0,0,0,0,0,0,0,0,0,0,0,0,0,0,0,0,0,0,0,0,0,0,0,0,0],"sum_hessian":[2.2829836E3,4.8028006E2,1.8027036E3,4.5641248E2,2.386757E1,5.8722437E2,1.2154792E3,1.10217285E1,4.4539075E2,2.885841E2,2.986403E2,7.648436E2,4.5063565E2,8.018718E0,3.0030115E0,2.3152945E2,5.7054672E1,5.180205E1,2.4683823E2,5.1174982E2,2.5309378E2,3.876892E2,6.2946423E1,3.0336655E1,2.6718018E1,1.2721347E2,1.19624756E2,4.5018314E2,6.1566685E1,2.2382422E2,2.9269556E1,3.8519516E2,2.494044E0,1.4655373E1,4.829105E1,3.3969858E0,2.6939669E1,1.1053897E2,1.66745E1,1.17163734E2,2.4610188E0,9.5351295E1,3.5483185E2,5.6766006E1,4.800679E0,5.1123253E1,1.7270097E2,1.4551789E1,1.4717768E1,1.2467902E0,3.839484E2,3.4970183E0,4.4794033E1],"tree_param":{"num_deleted":"0","num_feature":"28","num_nodes":"53","size_leaf_vector":"1"}},{"base_weights":[2.2404158E-2,-1.1449567E0,5.290144E-1,-8.16644E-2,-1.7517422E-1,-2.1637927E-1,9.069461E-1,-1.1691676E0,3.700941E-1,-9.5626634E-1,1.0054113E0,1.3756481E0,6.587693E-1,1.2148182E0,-1.5251583E0,6.2550795E-1,-8.3531335E-2,4.6080193E-1,-8.3117746E-2,3.412716E-1,1.4289675E0,-8.466216E-2,1.4474219E0,2.962496E-1,1.1901697E0,7.8625575E-2,-4.711476E-2,-8.335581E-2,5.6271136E-2,-8.128978E-2,8.904278E-1,-8.4948145E-2,1.481366E0,9.7648877E-1,-8.746227E-2,1.5128517E0,-1.3598062E-1,-7.6814525E-2,1.4793775E0,-4.264335E-1,8.2130444E-1,1.230936E0,-8.871223E-2,-8.11929E-2,5.4989457E-2,-6.7014255E-2,8.164083E-2,-7.757556E-2,6.791773E-2,8.1042744E-2,3.8797624E-2,-7.080586E-2,6.2926136E-2,1.0687702E-2,7.47963E-2,1.7247481E-2,-8.422884E-2,5.005833E-2,-4.3480944E-2,4.3972116E-2,7.5316094E-2],"categories":[],"categories_nodes":[],"categories_segments":[],"categories_sizes":[],"default_left":[0,0,0,0,0,0,0,0,0,0,0,0,0,0,0,0,0,0,0,0,0,0,0,0,0,0,0,0,0,0,0,0,0,0,0,0,0,0,0,0,0,0,0,0,0,0,0,0,0,0,0,0,0,0,0,0,0,0,0,0,0],"id":5,"left_children":[1,3,5,-1,7,9,11,13,15,17,19,21,23,25,27,29,-1,31,-1,33,35,-1,37,39,41,-1,-1,-1,-1,-1,43,-1,45,47,-1,49,51,-1,53,55,57,59,-1,-1,-1,-1,-1,-1,-1,-1,-1,-1,-1,-1,-1,-1,-1,-1,-1,-1,-1],"loss_changes":[1.3368019E3,3.2368524E2,4.4425027E2,0E0,1.2521495E2,4.811009E2,1.2078375E2,7.127166E1,7.893311E1,3.322759E2,5.6002014E1,8.2022156E1,1.3178247E2,1.0111202E1,2.882193E1,8.109123E1,0E0,2.4711063E2,0E0,1.0729588E2,1.6261002E1,0E0,3.598108E1,1.5557327E2,3.57594E1,0E0,0E0,0E0,0E0,0E0,6.501842E1,0E0,3.4620544E1,6.1597237E1,0E0,7.987488E0,1.4527678E1,0E0,7.0169067E0,1.682848E2,7.303412E1,2.526059E1,0E0,0E0,0E0,0E0,0E0,0E0,0E0,0E0,0E0,0E0,0E0,0E0,0E0,0E0,0E0,0E0,0E0,0E0,0E0],"parents":[2147483647,0,0,1,1,2,2,4,4,5,5,6,6,7,7,8,8,9,9,10,10,11,11,12,12,13,13,14,14,15,15,17,17,19,19,20,20,22,22,23,23,24,24,30,30,32,32,33,33,35,35,36,36,38,38,39,39,40,40,41,41],"right_children":[2,4,6,-1,8,10,12,14,16,18,20,22,24,26,28,30,-1,32,-1,34,36,-1,38,40,42,-1,-1,-1,-1,-1,44,-1,46,48,-1,50,52,-1,54,56,58,60,-1,-1,-1,-1,-1,-1,-1,-1,-1,-1,-1,-1,-1,-1,-1,-1,-1,-1,-1],"split_conditions":[2.0681818E1,2.1E1,4E0,-8.16644E-2,4E0,1.9916666E1,8.916667E0,2.125E1,6E0,1.1166667E1,2.188889E1,1.0833333E1,9.875E0,6.818182E-1,2E0,1.1946108E1,-8.3531335E-2,2.34E1,-8.3117746E-2,2.1428572E1,2.25E1,-8.466216E-2,2.0875E1,2.6375E1,2.9428572E1,7.8625575E-2,-4.711476E-2,-8.335581E-2,5.6271136E-2,-8.128978E-2,2.2E1,-8.4948145E-2,1E0,1.0380953E1,-8.746227E-2,2.1338095E1,2.1666666E1,-7.6814525E-2,5.3864545E-1,2.2125E1,1.2401577E1,1.75E1,-8.871223E-2,-8.11929E-2,5.4989457E-2,-6.7014255E-2,8.164083E-2,-7.757556E-2,6.791773E-2,8.1042744E-2,3.8797624E-2,-7.080586E-2,6.2926136E-2,1.0687702E-2,7.47963E-2,1.7247481E-2,-8.422884E-2,5.005833E-2,-4.3480944E-2,4.3972116E-2,7.5316094E-2],"split_indices":[21,0,1,0,1,0,24,0,1,0,21,0,24,13,23,27,0,21,0,21,7,0,21,21,20,0,0,0,0,0,0,0,1,24,0,18,3,0,19,7,27,0,0,0,0,0,0,0,0,0,0,0,0,0,0,0,0,0,0,0,0],"split_type":[0,0,0,0,0,0,0,0,0,0,0,0,0,0,0,0,0,0,0,0,0,0,0,0,0,0,0,0,0,0,0,0,0,0,0,0,0,0,0,0,0,0,0,0,0,0,0,0,0,0,0,0,0,0,0,0,0,0,0,0,0],"sum_hessian":[2.2583894E3,6.8309717E2,1.5752924E3,4.538687E2,2.2922847E2,5.301353E2,1.045157E3,8.07966E1,1.4843187E2,3.303192E2,1.9981609E2,3.6025098E2,6.8490607E2,1.0184032E1,7.061257E1,1.3253717E2,1.5894687E1,1.0996828E2,2.2035095E2,7.851292E1,1.2130316E2,7.716554E0,3.5253442E2,4.080756E2,2.7683044E2,8.967972E0,1.2160608E0,6.7375175E1,3.237393E0,1.3413299E1,1.1912388E2,3.5075394E1,7.489289E1,6.062463E1,1.788829E1,1.1516347E2,6.1396966E0,3.236806E0,3.492976E2,1.7179945E2,2.3627615E2,2.7365195E2,3.1784794E0,8.637476E0,1.10486404E2,3.4151995E0,7.147769E1,7.553896E0,5.3070732E1,9.939601E1,1.5767459E1,3.1930332E0,2.9466636E0,4.687835E0,3.4460977E2,1.0695181E2,6.484764E1,2.1392867E2,2.2347492E1,1.22056404E2,1.5159555E2],"tree_param":{"num_deleted":"0","num_feature":"28","num_nodes":"61","size_leaf_vector":"1"}},{"base_weights":[2.2460027E-3,-1.3904289E0,3.8716245E-1,-1.5663358E0,7.53643E-2,-4.0105695E-1,7.8010917E-1,-6.798409E-1,-7.943303E-2,-1.2497032E0,4.342758E-1,-3.945091E-1,9.0865266E-1,-7.221016E-2,6.69934E-2,-1.09998226E-1,-8.040212E-2,-7.9008326E-2,8.7205964E-1,-8.595178E-2,2.7304468E-1,1.065145E0,1.2649497E-1,-7.987526E-2,1.269442E0,2.6360083E-1,1.4097369E0,5.7845736E-1,-7.985442E-2,6.55113E-1,1.2578224E0,6.166613E-1,-8.9836046E-2,-6.4259976E-2,7.7550046E-2,-3.409558E-2,4.0404715E-2,7.8244634E-2,2.2275468E-2,-7.135317E-2,3.6746062E-2,-6.4943135E-2,4.3615844E-2,6.347155E-2,-7.154347E-2,-8.545287E-3,4.9934592E-2],"categories":[],"categories_nodes":[],"categories_segments":[],"categories_sizes":[],"default_left":[0,0,0,0,0,0,0,0,0,0,0,0,0,0,0,0,0,0,0,0,0,0,0,0,0,0,0,0,0,0,0,0,0,0,0,0,0,0,0,0,0,0,0,0,0,0,0],"id":6,"left_children":[1,3,5,7,-1,9,11,13,-1,15,17,19,21,-1,-1,23,-1,-1,25,-1,27,29,31,-1,33,35,37,39,-1,41,43,45,-1,-1,-1,-1,-1,-1,-1,-1,-1,-1,-1,-1,-1,-1,-1],"loss_changes":[1.170679E3,2.4340424E2,5.302434E2,7.7526855E0,0E0,4.0451428E2,1.7280322E2,2.1558912E1,0E0,1.153732E2,2.5529393E2,1.0069571E2,1.25907715E2,0E0,0E0,1.4310268E2,0E0,0E0,7.7218094E1,0E0,4.4464264E1,6.695575E1,1.6401941E2,0E0,2.805233E1,5.8463444E1,1.8104675E1,2.1841759E1,0E0,1.184211E2,1.9999634E1,4.1829704E1,0E0,0E0,0E0,0E0,0E0,0E0,0E0,0E0,0E0,0E0,0E0,0E0,0E0,0E0,0E0],"parents":[2147483647,0,0,1,1,2,2,3,3,5,5,6,6,7,7,9,9,10,10,11,11,12,12,15,15,18,18,20,20,21,21,22,22,24,24,25,25,26,26,27,27,29,29,30,30,31,31],"right_children":[2,4,6,8,-1,10,12,14,-1,16,18,20,22,-1,-1,24,-1,-1,26,-1,28,30,32,-1,34,36,38,40,-1,42,44,46,-1,-1,-1,-1,-1,-1,-1,-1,-1,-1,-1,-1,-1,-1,-1],"split_conditions":[9.833333E0,2.3285715E1,4E0,1.6666667E-1,7.53643E-2,1.9916666E1,6.222142E-1,8.5714287E-1,-7.943303E-2,1.1083333E1,2.009091E1,6.363636E-2,6E0,-7.221016E-2,6.69934E-2,2.34E1,-8.040212E-2,-7.9008326E-2,2.188889E1,-8.595178E-2,6E0,5E0,1.7583334E1,-7.987526E-2,1E0,1.0833333E1,2.1338095E1,-1.1616162E0,-7.985442E-2,-3.2857144E-1,3.4583333E0,-5.5E-1,-8.9836046E-2,-6.4259976E-2,7.7550046E-2,-3.409558E-2,4.0404715E-2,7.8244634E-2,2.2275468E-2,-7.135317E-2,3.6746062E-2,-6.4943135E-2,4.3615844E-2,6.347155E-2,-7.154347E-2,-8.545287E-3,4.9934592E-2],"split_indices":[0,21,1,0,0,0,19,9,0,0,21,14,1,0,0,21,0,0,21,0,1,1,0,0,1,24,18,16,0,14,12,16,0,0,0,0,0,0,0,0,0,0,0,0,0,0,0],"split_type":[0,0,0,0,0,0,0,0,0,0,0,0,0,0,0,0,0,0,0,0,0,0,0,0,0,0,0,0,0,0,0,0,0,0,0,0,0,0,0,0,0,0,0,0,0,0,0],"sum_hessian":[2.1818396E3,4.71886E2,1.7099536E3,4.4531256E2,2.6573423E1,5.688553E2,1.1410984E3,1.1711495E1,4.3360107E2,2.819329E2,2.8692236E2,1.123535E2,1.0287449E3,8.702837E0,3.0086586E0,6.775232E1,2.1418059E2,5.0756977E1,2.3616539E2,3.712226E1,7.523124E1,8.5693036E2,1.7181447E2,3.2523167E1,3.522915E1,1.1148941E2,1.2467599E2,6.526367E1,9.967567E0,2.7535486E2,5.8157556E2,1.3745973E2,3.4354736E1,3.1434467E0,3.2085705E1,4.0649395E1,7.084002E1,1.0685825E2,1.7817728E1,4.135463E0,6.1128212E1,2.7048197E1,2.4830666E2,5.7960095E2,1.974591E0,4.5079556E1,9.2380165E1],"tree_param":{"num_deleted":"0","num_feature":"28","num_nodes":"47","size_leaf_vector":"1"}},{"base_weights":[-1.0190298E-2,-1.0670053E0,4.426808E-1,-7.679641E-2,-6.496938E-1,-3.0643603E-1,8.062062E-1,-1.3733472E0,-1.4872117E-2,-1.2260143E0,1.7358166E-1,4.9901563E-1,1.1875479E0,-1.5003011E0,5.9722334E-1,-1.0828294E0,4.76679E-1,3.6432236E-1,-1.4780403E0,4.5993507E-1,-1.1392785E0,1.500812E-1,1.0804604E0,1.341394E0,2.22347E-1,-7.805661E-2,3.3135157E-2,7.7307604E-2,-5.959648E-2,-7.815745E-2,9.864122E-1,7.376538E-1,-1.055555E0,-7.3139474E-2,1.1982822E0,3.225359E-2,-7.687916E-2,5.6072676E-1,-7.327639E-2,-1.428073E0,6.717544E-2,-7.5990635E-1,5.345204E-1,1.3134388E0,-6.7344445E-1,1.3646115E0,-7.207181E-2,-8.421631E-2,6.3825136E-1,-5.6257438E-2,7.539737E-2,-8.271111E-2,4.869123E-2,-7.8654625E-2,6.49349E-2,-5.3246446E-2,7.3793344E-2,-1.4606974E-2,4.172012E-2,3.195044E-2,-7.994779E-2,-6.292837E-2,6.868815E-2,5.428721E-3,4.88269E-2,-6.288258E-2,6.7851864E-2,3.6710754E-2,-9.3357086E-2,-6.4610004E-2,6.881229E-2,-7.9477094E-2,4.4363204E-2],"categories":[],"categories_nodes":[],"categories_segments":[],"categories_sizes":[],"default_left":[0,0,0,0,0,0,0,0,0,0,0,0,0,0,0,0,0,0,0,0,0,0,0,0,0,0,0,0,0,0,0,0,0,0,0,0,0,0,0,0,0,0,0,0,0,0,0,0,0,0,0,0,0,0,0,0,0,0,0,0,0,0,0,0,0,0,0,0,0,0,0,0,0],"id":7,"left_children":[1,3,5,-1,7,9,11,13,15,17,19,21,23,25,27,29,31,33,35,37,39,41,43,45,47,-1,-1,-1,-1,-1,49,51,53,-1,55,-1,-1,57,-1,59,-1,61,63,65,67,69,-1,-1,71,-1,-1,-1,-1,-1,-1,-1,-1,-1,-1,-1,-1,-1,-1,-1,-1,-1,-1,-1,-1,-1,-1,-1,-1],"loss_changes":[1.0420363E3,1.26809875E2,4.153066E2,0E0,1.5953189E2,2.2034457E2,1.1965021E2,4.1496338E1,9.81699E1,6.914111E1,1.2403429E2,1.155275E2,6.759656E1,2.1133331E1,1.973404E1,6.012155E1,5.1995956E1,3.865213E1,1.9694519E1,5.330247E1,4.4304855E1,1.2548011E2,8.8205795E1,2.7434387E1,5.1872715E1,0E0,0E0,0E0,0E0,0E0,1.4599907E1,6.3766754E1,2.5256197E1,0E0,1.2362715E1,0E0,0E0,6.039142E1,0E0,1.989824E1,0E0,1.151444E2,4.732569E1,2.289032E1,4.458664E1,1.3877197E1,0E0,0E0,3.0985346E1,0E0,0E0,0E0,0E0,0E0,0E0,0E0,0E0,0E0,0E0,0E0,0E0,0E0,0E0,0E0,0E0,0E0,0E0,0E0,0E0,0E0,0E0,0E0,0E0],"parents":[2147483647,0,0,1,1,2,2,4,4,5,5,6,6,7,7,8,8,9,9,10,10,11,11,12,12,13,13,14,14,15,15,16,16,17,17,18,18,19,19,20,20,21,21,22,22,23,23,24,24,30,30,31,31,32,32,34,34,37,37,39,39,41,41,42,42,43,43,44,44,45,45,48,48],"right_children":[2,4,6,-1,8,10,12,14,16,18,20,22,24,26,28,30,32,34,36,38,40,42,44,46,48,-1,-1,-1,-1,-1,50,52,54,-1,56,-1,-1,58,-1,60,-1,62,64,66,68,70,-1,-1,72,-1,-1,-1,-1,-1,-1,-1,-1,-1,-1,-1,-1,-1,-1,-1,-1,-1,-1,-1,-1,-1,-1,-1,-1],"split_conditions":[1.9442858E1,1.45E1,4E0,-7.679641E-2,1E0,-2.1419642E0,8.714286E0,1.86E1,4E0,1.06E1,3.35E0,1.9714285E1,6E0,2.0777779E1,1.8666666E1,1.2750596E0,6E0,9.130435E-1,-3.2619047E0,2.1E1,1.1388208E0,5E0,2.3833334E1,1.2635013E1,9.8380816E-1,-7.805661E-2,3.3135157E-2,7.7307604E-2,-5.959648E-2,-7.815745E-2,1.8714285E1,1.7714285E1,1.4E0,-7.3139474E-2,1.2284958E1,3.225359E-2,-7.687916E-2,1.222063E1,-7.327639E-2,2.0142857E1,6.717544E-2,2.68E1,-4.4642857E-1,1.9681746E1,7.1428575E-2,8.902743E-1,-7.207181E-2,-8.421631E-2,9.983948E-1,-5.6257438E-2,7.539737E-2,-8.271111E-2,4.869123E-2,-7.8654625E-2,6.49349E-2,-5.3246446E-2,7.3793344E-2,-1.4606974E-2,4.172012E-2,3.195044E-2,-7.994779E-2,-6.292837E-2,6.868815E-2,5.428721E-3,4.88269E-2,-6.288258E-2,6.7851864E-2,3.6710754E-2,-9.3357086E-2,-6.4610004E-2,6.881229E-2,-7.9477094E-2,4.4363204E-2],"split_indices":[18,6,1,0,2,16,23,20,1,22,23,26,1,4,20,19,1,17,9,26,17,1,20,27,17,0,0,0,0,0,6,26,9,0,27,0,0,27,0,6,0,4,16,18,14,17,0,0,19,0,0,0,0,0,0,0,0,0,0,0,0,0,0,0,0,0,0,0,0,0,0,0,0],"split_type":[0,0,0,0,0,0,0,0,0,0,0,0,0,0,0,0,0,0,0,0,0,0,0,0,0,0,0,0,0,0,0,0,0,0,0,0,0,0,0,0,0,0,0,0,0,0,0,0,0,0,0,0,0,0,0,0,0,0,0,0,0,0,0,0,0,0,0,0,0,0,0,0,0],"sum_hessian":[2.1752678E3,6.521235E2,1.5231443E3,3.058107E2,3.4631277E2,4.9769705E2,1.0254473E3,1.6128992E2,1.8502286E2,1.7016153E2,3.275355E2,5.6921967E2,4.562275E2,1.5175195E2,9.537968E0,5.7939354E1,1.270835E2,2.3216303E1,1.4694524E2,2.694207E2,5.8114807E1,3.5652274E2,2.1269695E2,3.931694E2,6.305813E1,1.4787155E2,3.8803985E0,6.3211713E0,3.2167964E0,4.722249E1,1.0716867E1,1.09031494E2,1.8052004E1,7.039508E0,1.6176794E1,3.7403963E0,1.4320483E2,2.5669247E2,1.2728227E1,5.243988E1,5.6749268E0,1.0559566E2,2.509271E2,1.8797816E2,2.4718779E1,3.904217E2,2.747708E0,1.0745704E1,5.2312424E1,1.89344E0,8.823427E0,9.258589E0,9.977291E1,1.5070787E1,2.9812155E0,1.4574512E0,1.4719343E1,6.234301E1,1.9434946E2,3.7949424E0,4.8644936E1,8.592436E1,1.9671291E1,1.2842104E2,1.2250605E2,2.6701071E0,1.8530806E2,1.1519458E1,1.3199321E1,1.2223173E0,3.8919937E2,4.718144E0,4.759428E1],"tree_param":{"num_deleted":"0","num_feature":"28","num_nodes":"73","size_leaf_vector":"1"}},{"base_weights":[4.086586E-3,-1.0464302E0,4.521079E-1,-1.462553E0,-1.3102686E-1,-4.072759E-1,7.579624E-1,-6.3270813E-1,-1.4830868E0,-4.4497725E-1,1.2541027E0,-9.4126916E-1,9.3615067E-1,1.257533E0,5.575888E-1,-6.8218164E-2,6.303163E-2,-7.500801E-2,-9.072586E-1,2.875584E-1,-8.0637544E-2,1.4288685E0,-5.1673878E-2,-1.136702E0,5.0224745E-1,1.4579204E0,3.825841E-1,-8.508661E-2,1.3373151E0,-4.0595156E-1,7.268372E-1,3.6874503E-2,-7.510938E-2,6.55632E-1,-8.643119E-2,2.5309083E-1,7.943773E-2,-7.023594E-1,-1.4153804E0,-7.68947E-2,9.495486E-1,7.645677E-2,4.4225875E-1,-6.2439674E-1,1.0693985E0,-7.372033E-2,1.3602761E0,-8.468809E-2,1.21120416E-1,7.7222145E-1,-7.2663575E-2,-7.10573E-2,4.9812365E-2,6.159688E-2,-7.0547946E-2,4.6267662E-2,-4.6864763E-2,-7.3951244E-2,3.0864952E-2,-6.335186E-2,6.0103E-2,-5.6256782E-2,6.144193E-2,-9.531234E-2,1.9357324E-2,6.952935E-2,-8.73375E-2,-6.7807026E-2,6.91322E-2,-6.418048E-2,3.393608E-2,-3.8268622E-2,4.1154973E-2],"categories":[],"categories_nodes":[],"categories_segments":[],"categories_sizes":[],"default_left":[0,0,0,0,0,0,0,0,0,0,0,0,0,0,0,0,0,0,0,0,0,0,0,0,0,0,0,0,0,0,0,0,0,0,0,0,0,0,0,0,0,0,0,0,0,0,0,0,0,0,0,0,0,0,0,0,0,0,0,0,0,0,0,0,0,0,0,0,0,0,0,0,0],"id":8,"left_children":[1,3,5,7,9,11,13,15,17,19,21,23,25,27,29,-1,-1,-1,31,33,-1,35,-1,37,39,41,43,-1,45,47,49,-1,-1,51,-1,53,-1,55,57,-1,59,-1,61,63,65,-1,67,-1,69,71,-1,-1,-1,-1,-1,-1,-1,-1,-1,-1,-1,-1,-1,-1,-1,-1,-1,-1,-1,-1,-1,-1,-1],"loss_changes":[1.0014574E3,2.4213245E2,3.92381E2,6.512268E0,8.748983E1,2.822234E2,1.0945575E2,1.8761747E1,2.8266602E0,1.405043E2,1.6348911E1,7.988086E1,3.1805756E1,7.646503E1,1.2867429E2,0E0,0E0,0E0,1.5585742E1,7.6419235E1,0E0,6.1736984E0,0E0,2.9013916E1,3.2684723E1,3.4700851E0,3.9206657E1,0E0,2.179602E1,8.047647E1,6.741055E1,0E0,0E0,6.261351E1,0E0,1.0496064E1,0E0,3.868001E1,2.0322784E1,0E0,1.7576591E1,0E0,7.747979E0,3.0854733E1,3.2727486E1,0E0,2.0381653E1,0E0,6.733144E1,5.202356E1,0E0,0E0,0E0,0E0,0E0,0E0,0E0,0E0,0E0,0E0,0E0,0E0,0E0,0E0,0E0,0E0,0E0,0E0,0E0,0E0,0E0,0E0,0E0],"parents":[2147483647,0,0,1,1,2,2,3,3,4,4,5,5,6,6,7,7,8,8,9,9,10,10,11,11,12,12,13,13,14,14,18,18,19,19,21,21,23,23,24,24,25,25,26,26,28,28,29,29,30,30,33,33,35,35,37,37,38,38,40,40,42,42,43,43,44,44,46,46,48,48,49,49],"right_children":[2,4,6,8,10,12,14,16,18,20,22,24,26,28,30,-1,-1,-1,32,34,-1,36,-1,38,40,42,44,-1,46,48,50,-1,-1,52,-1,54,-1,56,58,-1,60,-1,62,64,66,-1,68,-1,70,72,-1,-1,-1,-1,-1,-1,-1,-1,-1,-1,-1,-1,-1,-1,-1,-1,-1,-1,-1,-1,-1,-1,-1],"split_conditions":[2.0681818E1,2.1583334E1,-1.85E0,1.6666667E-1,1.2852929E1,7.857143E0,9E0,8.021978E-1,2.1166666E1,1.8571428E1,1.0416667E1,2.0166666E1,1.2083333E1,1.0916667E1,9.666667E0,-6.8218164E-2,6.303163E-2,-7.500801E-2,-9.3650794E-1,1.228745E1,-8.0637544E-2,2.2833334E1,-5.1673878E-2,-8.888889E-1,8.2296056E-1,5.2380955E-1,1.2170327E0,-8.508661E-2,5.3864545E-1,1.6583334E1,2.1E1,3.6874503E-2,-7.510938E-2,8.5E0,-8.643119E-2,2.225E1,7.943773E-2,1.1E1,2.586994E1,-7.68947E-2,1.8222221E1,7.645677E-2,2.9333334E1,-2.2821429E0,1.4981819E0,-7.372033E-2,2.0875E1,-8.468809E-2,1.2333333E0,5.0393295E-1,-7.2663575E-2,-7.10573E-2,4.9812365E-2,6.159688E-2,-7.0547946E-2,4.6267662E-2,-4.6864763E-2,-7.3951244E-2,3.0864952E-2,-6.335186E-2,6.0103E-2,-5.6256782E-2,6.144193E-2,-9.531234E-2,1.9357324E-2,6.952935E-2,-8.73375E-2,-6.7807026E-2,6.91322E-2,-6.418048E-2,3.393608E-2,-3.8268622E-2,4.1154973E-2],"split_indices":[21,0,16,0,27,23,24,9,0,26,24,0,0,0,24,0,0,0,23,27,0,0,0,10,19,8,19,0,19,0,26,0,0,25,0,0,0,0,18,0,26,0,3,16,19,0,21,0,13,19,0,0,0,0,0,0,0,0,0,0,0,0,0,0,0,0,0,0,0,0,0,0,0],"split_type":[0,0,0,0,0,0,0,0,0,0,0,0,0,0,0,0,0,0,0,0,0,0,0,0,0,0,0,0,0,0,0,0,0,0,0,0,0,0,0,0,0,0,0,0,0,0,0,0,0,0,0,0,0,0,0,0,0,0,0,0,0,0,0,0,0,0,0,0,0,0,0,0,0],"sum_hessian":[2.125795E3,6.3515436E2,1.4906405E3,4.3624774E2,1.9890662E2,3.911798E2,1.0994607E3,1.1302121E1,4.2494562E2,1.6270665E2,3.6199978E1,2.80131E2,1.110488E2,3.132332E2,7.8622754E2,8.353439E0,2.9486816E0,4.1114972E2,1.3795876E1,1.004493E2,6.225734E1,3.3979412E1,2.2205684E0,2.4691463E2,3.3216377E1,5.6325214E1,5.4723583E1,7.6893997E0,3.055438E2,1.172602E2,6.6896735E2,3.6009667E0,1.0194909E1,8.551291E1,1.4936397E1,4.3767095E0,2.9602701E1,9.7880455E1,1.4903416E2,5.534653E0,2.7681725E1,5.2162212E1,4.163005E0,2.2226633E1,3.2496952E1,1.9628837E0,3.035809E2,3.3411465E1,8.384873E1,6.5595776E2,1.3009561E1,1.1601948E1,7.391096E1,2.9192114E0,1.4574978E0,1.19749975E1,8.5905464E1,1.4477357E2,4.2605834E0,2.420085E0,2.526164E1,1.2472438E0,2.915761E0,9.413342E0,1.2813291E1,2.9624424E1,2.8725266E0,1.9923913E0,3.015885E2,2.3455849E1,6.0392887E1,2.0560207E1,6.353976E2],"tree_param":{"num_deleted":"0","num_feature":"28","num_nodes":"73","size_leaf_vector":"1"}},{"base_weights":[-2.3814386E-2,-1.0355712E0,4.1387054E-1,-7.3326066E-2,-5.629331E-1,-4.8418868E-1,6.478673E-1,-1.221323E0,2.9145805E-2,-7.4460155E-1,8.431599E-1,-3.8948495E-2,7.958984E-1,-1.2848282E0,6.530797E-2,-7.400692E-2,5.3629154E-1,5.7767946E-1,-1.1036273E0,9.8413986E-1,-7.493346E-2,2.6330468E-1,-7.890217E-2,9.221601E-1,1.22054085E-1,-1.345628E0,2.5072497E-1,7.3169184E-1,-8.2844816E-2,-7.457057E-2,9.5092416E-1,2.2753881E-1,-1.2170154E0,1.1171731E0,-6.9967054E-2,5.356338E-1,-7.321852E-2,5.5937034E-1,1.1649731E0,-1.1930219E0,5.2033246E-1,-2.0276591E-2,-7.078123E-2,-5.0385594E-2,5.512039E-2,-7.615491E-2,4.4868715E-2,-7.308219E-2,6.0725E-2,-6.54283E-2,4.6468806E-2,-6.8949424E-2,-2.7991438E-2,7.434023E-2,3.3988472E-2,-5.766626E-3,4.5566972E-2,-9.6422555E-3,4.827019E-2,-7.10483E-2,5.9145052E-2,4.0529434E-2,-8.927315E-2,6.1663687E-2,-3.204733E-3],"categories":[],"categories_nodes":[],"categories_segments":[],"categories_sizes":[],"default_left":[0,0,0,0,0,0,0,0,0,0,0,0,0,0,0,0,0,0,0,0,0,0,0,0,0,0,0,0,0,0,0,0,0,0,0,0,0,0,0,0,0,0,0,0,0,0,0,0,0,0,0,0,0,0,0,0,0,0,0,0,0,0,0,0,0],"id":9,"left_children":[1,3,5,-1,7,9,11,13,15,17,19,21,23,25,-1,-1,27,29,31,33,-1,35,-1,37,39,41,43,45,-1,-1,47,49,51,53,-1,55,-1,57,59,61,63,-1,-1,-1,-1,-1,-1,-1,-1,-1,-1,-1,-1,-1,-1,-1,-1,-1,-1,-1,-1,-1,-1,-1,-1],"loss_changes":[9.1978925E2,1.2692493E2,3.0499966E2,0E0,1.1727562E2,1.0441784E2,1.1701578E2,2.4538834E1,1.22748245E2,1.2005702E2,1.7888878E1,9.57704E1,8.042938E1,1.3355682E1,0E0,0E0,5.2634205E1,4.340885E1,3.0189636E1,1.6623814E1,0E0,8.179821E1,0E0,6.956604E1,7.9468704E1,8.262436E0,7.706422E0,4.2784832E1,0E0,0E0,3.1454765E1,1.8894957E1,1.8684296E1,6.35252E0,0E0,3.666232E1,0E0,9.8386826E1,2.3775879E1,4.334627E1,4.851299E1,0E0,0E0,0E0,0E0,0E0,0E0,0E0,0E0,0E0,0E0,0E0,0E0,0E0,0E0,0E0,0E0,0E0,0E0,0E0,0E0,0E0,0E0,0E0,0E0],"parents":[2147483647,0,0,1,1,2,2,4,4,5,5,6,6,7,7,8,8,9,9,10,10,11,11,12,12,13,13,16,16,17,17,18,18,19,19,21,21,23,23,24,24,25,25,26,26,27,27,30,30,31,31,32,32,33,33,35,35,37,37,38,38,39,39,40,40],"right_children":[2,4,6,-1,8,10,12,14,16,18,20,22,24,26,-1,-1,28,30,32,34,-1,36,-1,38,40,42,44,46,-1,-1,48,50,52,54,-1,56,-1,58,60,62,64,-1,-1,-1,-1,-1,-1,-1,-1,-1,-1,-1,-1,-1,-1,-1,-1,-1,-1,-1,-1,-1,-1,-1,-1],"split_conditions":[2.0681818E1,1.5777778E1,9.4198567E-1,-7.3326066E-2,1E0,7.857143E0,3E0,2.21E1,4E0,1.06E1,4E-1,2.04E1,6E0,2.05E1,6.530797E-2,-7.400692E-2,1.3035715E0,8.9762473E-1,-2.8809524E0,-1.9666667E0,-7.493346E-2,2.4142857E1,-7.890217E-2,5E0,5.75E0,4.2857143E-1,4.5E-1,1.7714285E1,-8.2844816E-2,-7.457057E-2,1.1428572E0,-1.6904762E0,-1.6377778E0,1.8E1,-6.9967054E-2,1.9E1,-7.321852E-2,1.8833334E1,2.0818182E1,1.8857143E1,2.7857143E1,-2.0276591E-2,-7.078123E-2,-5.0385594E-2,5.512039E-2,-7.615491E-2,4.4868715E-2,-7.308219E-2,6.0725E-2,-6.54283E-2,4.6468806E-2,-6.8949424E-2,-2.7991438E-2,7.434023E-2,3.3988472E-2,-5.766626E-3,4.5566972E-2,-9.6422555E-3,4.827019E-2,-7.10483E-2,5.9145052E-2,4.0529434E-2,-8.927315E-2,6.1663687E-2,-3.204733E-3],"split_indices":[21,7,17,0,2,23,1,7,1,22,8,26,1,3,0,0,13,17,10,15,0,21,0,1,23,13,15,26,0,0,13,14,15,26,0,26,0,26,21,7,21,0,0,0,0,0,0,0,0,0,0,0,0,0,0,0,0,0,0,0,0,0,0,0,0],"split_type":[0,0,0,0,0,0,0,0,0,0,0,0,0,0,0,0,0,0,0,0,0,0,0,0,0,0,0,0,0,0,0,0,0,0,0,0,0,0,0,0,0,0,0,0,0,0,0,0,0,0,0,0,0,0,0,0,0,0,0,0,0,0,0,0,0],"sum_hessian":[2.0750996E3,6.26201E2,1.4488984E3,3.264458E2,2.9975522E2,2.9926736E2,1.1496311E3,1.4142654E2,1.5832866E2,2.5055077E2,4.871659E1,2.0397775E2,9.456534E2,1.3843979E2,2.9867644E0,3.9338192E1,1.1899046E2,5.337249E1,1.9717827E2,4.649718E1,2.2194107E0,1.7118813E2,3.278964E1,7.961131E2,1.495403E2,1.3328604E2,5.153742E0,1.0986822E2,9.122242E0,7.69871E0,4.5673782E1,1.539818E1,1.8178009E2,4.454235E1,1.9548324E0,1.4847443E2,2.2713686E1,3.2052173E2,4.7559137E2,3.429759E1,1.15242714E2,9.70712E0,1.23578926E2,2.006201E0,3.1475406E0,6.959722E0,1.029085E2,4.0507674E0,4.1623013E1,4.5578876E0,1.0840292E1,1.4495544E2,3.6824654E1,2.284112E1,2.170123E1,5.4587112E1,9.388732E1,1.1254551E2,2.0797621E2,2.7356699E0,4.7285568E2,7.742972E0,2.6554619E1,5.14134E1,6.3829315E1],"tree_param":{"num_deleted":"0","num_feature":"28","num_nodes":"65","size_leaf_vector":"1"}},{"base_weights":[-3.240801E-2,-1.0160866E0,3.869241E-1,-7.159778E-2,-1.9414176E-1,-3.5984427E-1,6.72364E-1,-4.9017712E-1,1.167077E0,-8.348539E-1,4.7469407E-1,4.5965254E-1,1.1593773E0,5.6964625E-2,-1.2714262E0,1.4010365E0,-6.493805E-2,-1.2007641E0,6.883257E-1,-2.967684E-1,8.535645E-1,1.9387822E-1,9.634909E-1,1.3035798E0,5.1024544E-1,4.1798097E-1,-8.236898E-2,1.0155339E0,-7.71553E-2,-4.607601E-2,7.619352E-2,-1.307694E-1,-1.3782294E0,-7.2756964E-1,1.0815552E0,-1.35277E0,5.884091E-1,-7.639216E-2,9.3825656E-1,-7.466304E-2,3.550436E-1,1.0506744E0,-8.0084644E-2,1.3265917E0,-6.509673E-2,-8.287889E-2,1.158716E0,-3.9881345E-2,5.3789914E-2,7.214516E-2,-4.156437E-2,-7.327939E-2,6.6178314E-2,-7.4117504E-2,-2.6815373E-2,-7.844735E-2,6.274181E-2,6.0107768E-2,-6.209256E-2,5.335166E-2,-9.070065E-2,6.602009E-2,-1.6896525E-2,5.312234E-2,-3.1925127E-2,2.2821717E-2,-4.978982E-2,9.540177E-3,6.211204E-2,6.817772E-2,5.1042702E-2,-8.2763076E-2,7.720566E-2],"categories":[],"categories_nodes":[],"categories_segments":[],"categories_sizes":[],"default_left":[0,0,0,0,0,0,0,0,0,0,0,0,0,0,0,0,0,0,0,0,0,0,0,0,0,0,0,0,0,0,0,0,0,0,0,0,0,0,0,0,0,0,0,0,0,0,0,0,0,0,0,0,0,0,0,0,0,0,0,0,0,0,0,0,0,0,0,0,0,0,0,0,0],"id":10,"left_children":[1,3,5,-1,7,9,11,13,15,17,19,21,23,25,27,29,-1,31,33,35,37,39,41,43,45,47,-1,49,-1,-1,-1,51,53,55,57,59,61,-1,63,-1,65,67,-1,69,-1,-1,71,-1,-1,-1,-1,-1,-1,-1,-1,-1,-1,-1,-1,-1,-1,-1,-1,-1,-1,-1,-1,-1,-1,-1,-1,-1,-1],"loss_changes":[8.405036E2,2.0789197E2,3.047776E2,0E0,8.348841E1,1.5726958E2,1.06578125E2,7.261661E1,2.3194767E1,1.4158499E2,4.2394936E1,9.640033E1,2.8695343E1,6.2690594E1,4.5025078E1,1.1195831E1,0E0,3.8556152E1,2.8377115E1,4.5877823E1,2.098729E1,1.2926808E2,5.7333374E1,1.7076508E1,8.437775E1,6.798981E1,0E0,7.537261E0,0E0,0E0,0E0,6.0422104E1,1.4534485E1,2.0931395E1,1.2472668E1,2.6819962E1,1.8709005E1,0E0,1.9132545E1,0E0,5.975723E1,3.9504272E1,0E0,1.4813538E0,0E0,0E0,5.2159573E1,0E0,0E0,0E0,0E0,0E0,0E0,0E0,0E0,0E0,0E0,0E0,0E0,0E0,0E0,0E0,0E0,0E0,0E0,0E0,0E0,0E0,0E0,0E0,0E0,0E0,0E0],"parents":[2147483647,0,0,1,1,2,2,4,4,5,5,6,6,7,7,8,8,9,9,10,10,11,11,12,12,13,13,14,14,15,15,17,17,18,18,19,19,20,20,21,21,22,22,23,23,24,24,25,25,27,27,31,31,32,32,33,33,34,34,35,35,36,36,38,38,40,40,41,41,43,43,46,46],"right_children":[2,4,6,-1,8,10,12,14,16,18,20,22,24,26,28,30,-1,32,34,36,38,40,42,44,46,48,-1,50,-1,-1,-1,52,54,56,58,60,62,-1,64,-1,66,68,-1,70,-1,-1,72,-1,-1,-1,-1,-1,-1,-1,-1,-1,-1,-1,-1,-1,-1,-1,-1,-1,-1,-1,-1,-1,-1,-1,-1,-1,-1],"split_conditions":[2.0681818E1,2.1083334E1,9.585062E-1,-7.159778E-2,1.2852929E1,5E0,2.6666666E1,1.8571428E1,7.571429E0,2.0083334E1,1.0091542E0,1.9916666E1,6E0,1.228745E1,2.125E1,-5.6666665E0,-6.493805E-2,1.1166667E1,8.3031005E-1,7.633333E0,2.0142857E1,2E0,6E0,9.333333E0,9.75E0,5E0,-8.236898E-2,-7.25E-1,-7.71553E-2,-4.607601E-2,7.619352E-2,2.1333334E1,1.2852929E1,9.333333E0,-3.690476E-1,1.875E1,1.1916667E1,-7.639216E-2,2.3333333E0,-7.466304E-2,2.53E1,6.429713E-1,-8.0084644E-2,1.4158363E0,-6.509673E-2,-8.287889E-2,1.4E1,-3.9881345E-2,5.3789914E-2,7.214516E-2,-4.156437E-2,-7.327939E-2,6.6178314E-2,-7.4117504E-2,-2.6815373E-2,-7.844735E-2,6.274181E-2,6.0107768E-2,-6.209256E-2,5.335166E-2,-9.070065E-2,6.602009E-2,-1.6896525E-2,5.312234E-2,-3.1925127E-2,2.2821717E-2,-4.978982E-2,9.540177E-3,6.211204E-2,6.817772E-2,5.1042702E-2,-8.2763076E-2,7.720566E-2],"split_indices":[21,0,17,0,27,1,20,26,22,0,19,0,1,27,0,23,0,0,19,23,6,1,1,25,24,1,0,9,0,0,0,7,27,25,14,4,0,0,13,0,20,19,0,19,0,0,0,0,0,0,0,0,0,0,0,0,0,0,0,0,0,0,0,0,0,0,0,0,0,0,0,0,0],"split_type":[0,0,0,0,0,0,0,0,0,0,0,0,0,0,0,0,0,0,0,0,0,0,0,0,0,0,0,0,0,0,0,0,0,0,0,0,0,0,0,0,0,0,0,0,0,0,0,0,0,0,0,0,0,0,0,0,0,0,0,0,0,0,0,0,0,0,0,0,0,0,0,0,0],"sum_hessian":[2.0356906E3,6.0800226E2,1.4276884E3,4.0323862E2,2.0476363E2,3.947312E2,1.0329572E3,1.6871228E2,3.6051342E1,2.5155092E2,1.4318027E2,7.2029834E2,3.1265884E2,9.976778E1,6.894451E1,3.3321598E1,2.729743E0,2.0299706E2,4.855387E1,4.722882E1,9.595144E1,4.7246057E2,2.4783775E2,2.5500266E2,5.7656193E1,8.2951614E1,1.6816162E1,7.0298963E0,6.191461E1,1.3471595E0,3.1974438E1,2.912573E1,1.7387132E2,1.03688135E1,3.8185055E1,2.1295458E1,2.5933363E1,2.710018E0,9.3241425E1,4.0476116E1,4.3198447E2,2.4026231E2,7.5754433E0,2.5325673E2,1.7459127E0,1.2917416E1,4.4738777E1,2.9052238E1,5.3899376E1,5.8864374E0,1.1434588E0,1.5182861E1,1.394287E1,1.5405823E2,1.9813095E1,7.425731E0,2.9430823E0,3.6759583E1,1.4254744E0,3.199043E0,1.8096416E1,1.4248678E1,1.1684686E1,8.673602E1,6.5054026E0,4.0244037E2,2.9544085E1,4.413819E1,1.9612411E2,2.2285452E2,3.040221E1,4.99233E0,3.9746445E1],"tree_param":{"num_deleted":"0","num_feature":"28","num_nodes":"73","size_leaf_vector":"1"}},{"base_weights":[1.4577174E-3,-9.3557024E-1,4.0265325E-1,-1.3795552E0,-1.06710374E-1,-5.312768E-1,6.4359766E-1,-6.187023E-1,-7.006316E-2,2.743116E-1,-1.0834851E0,-1.0942664E0,9.3734336E-1,-1.3354232E0,6.95896E-1,-6.431156E-2,6.200492E-2,-6.981392E-2,4.7186956E-1,3.490456E-1,-1.3449208E0,-1.2982538E0,2.7822372E-1,1.394353E0,4.3685395E-1,-8.1325926E-2,-1.3214926E-1,5.168287E-1,1.1669378E0,6.618171E-1,-7.60429E-2,-6.0577627E-2,6.755417E-2,-7.5853914E-2,2.2568917E-1,-1.2091094E-1,-1.4026734E0,-7.468099E-2,1.1833204E0,3.5634127E-2,7.200414E-2,-1.1294066E0,1.1290852E0,5.8946516E-2,-6.7293935E-2,2.7045012E-1,9.877985E-1,1.2843041E0,5.625762E-1,4.1206185E-2,-7.066896E-2,-5.191201E-2,5.175825E-2,8.1350654E-2,-6.968655E-2,-2.3275064E-2,-7.2278604E-2,7.030221E-2,1.5823951E-2,5.90289E-2,-9.466304E-2,6.581598E-2,-7.124159E-2,-7.337581E-2,2.1324826E-2,5.3394336E-2,-7.751145E-2,3.7581536E-3,6.5290585E-2,-5.2274313E-2,5.8753222E-2],"categories":[],"categories_nodes":[],"categories_segments":[],"categories_sizes":[],"default_left":[0,0,0,0,0,0,0,0,0,0,0,0,0,0,0,0,0,0,0,0,0,0,0,0,0,0,0,0,0,0,0,0,0,0,0,0,0,0,0,0,0,0,0,0,0,0,0,0,0,0,0,0,0,0,0,0,0,0,0,0,0,0,0,0,0,0,0,0,0,0,0],"id":11,"left_children":[1,3,5,7,9,11,13,15,-1,17,19,21,23,25,27,-1,-1,-1,29,31,33,35,37,39,41,-1,43,45,47,49,-1,-1,-1,-1,51,53,55,-1,57,-1,-1,59,61,-1,-1,63,65,67,69,-1,-1,-1,-1,-1,-1,-1,-1,-1,-1,-1,-1,-1,-1,-1,-1,-1,-1,-1,-1,-1,-1],"loss_changes":[7.740781E2,2.2702405E2,3.247791E2,5.771118E0,8.083907E1,2.4595374E2,1.195968E2,1.765008E1,0E0,5.2303066E1,2.328881E1,6.04433E1,1.8290321E1,1.024464E1,9.3672E1,0E0,0E0,0E0,5.4255466E1,1.7583637E1,1.4330589E1,2.2820953E1,4.7619705E1,3.0580902E-1,4.561343E1,0E0,1.2575131E1,9.391141E1,2.1057983E1,4.465919E1,0E0,0E0,0E0,0E0,7.193918E0,3.859669E1,6.229248E0,0E0,3.3164463E0,0E0,0E0,2.5233707E1,1.5675949E1,0E0,0E0,1.4551468E2,5.824106E1,6.568451E0,5.2162365E1,0E0,0E0,0E0,0E0,0E0,0E0,0E0,0E0,0E0,0E0,0E0,0E0,0E0,0E0,0E0,0E0,0E0,0E0,0E0,0E0,0E0,0E0],"parents":[2147483647,0,0,1,1,2,2,3,3,4,4,5,5,6,6,7,7,9,9,10,10,11,11,12,12,13,13,14,14,18,18,19,19,20,20,21,21,22,22,23,23,24,24,26,26,27,27,28,28,29,29,34,34,35,35,36,36,38,38,41,41,42,42,45,45,46,46,47,47,48,48],"right_children":[2,4,6,8,10,12,14,16,-1,18,20,22,24,26,28,-1,-1,-1,30,32,34,36,38,40,42,-1,44,46,48,50,-1,-1,-1,-1,52,54,56,-1,58,-1,-1,60,62,-1,-1,64,66,68,70,-1,-1,-1,-1,-1,-1,-1,-1,-1,-1,-1,-1,-1,-1,-1,-1,-1,-1,-1,-1,-1,-1],"split_conditions":[2.0681818E1,2.1E1,-2.1626985E0,1.6666667E-1,1.0178572E0,7.857143E0,5.0393295E-1,8.5714287E-1,-7.006316E-2,1.1946108E1,4.714286E0,1.9583334E1,1.2083333E1,1.2737624E1,1.9625E1,-6.431156E-2,6.200492E-2,-6.981392E-2,2E1,1.6666666E1,1.9833334E1,1.0916667E1,2.2125E1,2.5666666E1,1.2436669E0,-8.1325926E-2,3.3034372E-1,1.9833334E1,6E0,6E0,-7.60429E-2,-6.0577627E-2,6.755417E-2,-7.5853914E-2,-7.5555556E-2,1.7333334E1,-3.015873E0,-7.468099E-2,1.06E1,3.5634127E-2,7.200414E-2,3.6936238E-1,1.9714285E1,5.8946516E-2,-6.7293935E-2,2E0,6E0,1.1166667E1,1.4083333E1,4.1206185E-2,-7.066896E-2,-5.191201E-2,5.175825E-2,8.1350654E-2,-6.968655E-2,-2.3275064E-2,-7.2278604E-2,7.030221E-2,1.5823951E-2,5.90289E-2,-9.466304E-2,6.581598E-2,-7.124159E-2,-7.337581E-2,2.1324826E-2,5.3394336E-2,-7.751145E-2,3.7581536E-3,6.5290585E-2,-5.2274313E-2,5.8753222E-2],"split_indices":[21,0,16,0,13,23,19,9,0,27,22,0,0,27,22,0,0,0,26,7,6,0,21,5,19,0,19,0,1,1,0,0,0,0,16,26,10,0,22,0,0,19,26,0,0,1,1,0,0,0,0,0,0,0,0,0,0,0,0,0,0,0,0,0,0,0,0,0,0,0,0],"split_type":[0,0,0,0,0,0,0,0,0,0,0,0,0,0,0,0,0,0,0,0,0,0,0,0,0,0,0,0,0,0,0,0,0,0,0,0,0,0,0,0,0,0,0,0,0,0,0,0,0,0,0,0,0,0,0,0,0,0,0,0,0,0,0,0,0,0,0,0,0,0,0],"sum_hessian":[2.057092E3,6.1631085E2,1.4407811E3,4.0090094E2,2.1540994E2,2.952297E2,1.1455514E3,1.193922E1,3.889617E2,1.5547943E2,5.993052E1,2.136014E2,8.162832E1,2.886171E1,1.1166897E3,9.011176E0,2.9280443E0,1.5800397E1,1.3967903E2,9.197563E0,5.0732956E1,1.8600966E2,2.7591738E1,4.1733982E1,3.9894337E1,2.2956373E1,5.905337E0,8.10626E2,3.060637E2,1.2813321E2,1.1545822E1,3.514659E0,5.6829042E0,4.5752068E1,4.9808884E0,1.5329195E1,1.7068047E2,9.109157E0,1.848258E1,3.6663444E0,3.806764E1,1.2034107E1,2.7860231E1,2.8526042E0,3.0527327E0,5.332441E2,2.773819E2,2.5534998E2,5.0713722E1,1.19397675E2,8.7355385E0,1.8342506E0,3.1466382E0,6.341852E0,8.987343E0,7.9895873E0,1.6269087E2,1.4209579E1,4.273001E0,2.854925E0,9.179182E0,2.6408726E1,1.4515047E0,4.324118E1,4.9000287E2,2.694583E2,7.923596E0,4.54121E0,2.5080876E2,1.3793229E1,3.6920494E1],"tree_param":{"num_deleted":"0","num_feature":"28","num_nodes":"71","size_leaf_vector":"1"}},{"base_weights":[2.286204E-2,-1.1737739E0,3.3633602E-1,-1.3705373E0,1.2432083E0,-3.657268E-1,6.650085E-1,-5.285337E-1,-6.963339E-2,-6.545298E-2,1.3846862E0,-1.0680977E0,3.362199E-1,3.6682922E-2,8.129756E-1,-6.1442383E-2,4.2841777E-2,7.185692E-2,3.5036873E-2,8.671885E-2,-7.197329E-2,-6.9288135E-2,6.9953763E-1,-5.4263014E-1,7.810943E-1,5.665166E-1,1.0575463E0,-7.223942E-2,1.196193E0,2.7978915E-1,1.2339879E0,7.809765E-1,-7.074443E-1,9.838036E-1,-7.28261E-2,6.7451775E-1,-1.522946E0,1.0826311E0,-7.5365245E-2,-5.776918E-2,7.295982E-2,3.3284094E-2,-8.5365705E-2,6.57448E-2,-6.554941E-2,6.385394E-2,-6.3696094E-2,-4.4427816E-2,5.0838154E-2,-7.206628E-2,5.366611E-2,-4.769848E-2,3.9721496E-2,5.3433754E-2,-9.652177E-2,6.0281433E-2,2.5606407E-2],"categories":[],"categories_nodes":[],"categories_segments":[],"categories_sizes":[],"default_left":[0,0,0,0,0,0,0,0,0,0,0,0,0,0,0,0,0,0,0,0,0,0,0,0,0,0,0,0,0,0,0,0,0,0,0,0,0,0,0,0,0,0,0,0,0,0,0,0,0,0,0,0,0,0,0,0,0],"id":12,"left_children":[1,3,5,7,9,11,13,15,-1,-1,17,19,21,23,25,-1,-1,-1,-1,27,-1,-1,29,31,33,35,37,-1,39,41,43,45,47,49,-1,51,53,55,-1,-1,-1,-1,-1,-1,-1,-1,-1,-1,-1,-1,-1,-1,-1,-1,-1,-1,-1],"loss_changes":[7.6343243E2,2.0262341E2,3.7236456E2,6.5526123E0,1.3486176E1,2.5420883E2,1.0212631E2,1.233522E1,0E0,0E0,1.09241486E-1,1.106004E2,1.6255525E2,9.1194725E1,5.3005127E1,0E0,0E0,0E0,0E0,1.098389E2,0E0,0E0,4.764971E1,2.6503181E1,4.3401443E1,1.01469604E2,3.0276031E1,0E0,2.4843784E1,9.4015305E1,2.104213E1,1.5539879E1,3.4101616E1,2.0094917E1,0E0,8.353775E1,2.5489109E1,3.036139E1,0E0,0E0,0E0,0E0,0E0,0E0,0E0,0E0,0E0,0E0,0E0,0E0,0E0,0E0,0E0,0E0,0E0,0E0,0E0],"parents":[2147483647,0,0,1,1,2,2,3,3,4,4,5,5,6,6,7,7,10,10,11,11,12,12,13,13,14,14,19,19,22,22,23,23,24,24,25,25,26,26,28,28,29,29,30,30,31,31,32,32,33,33,35,35,36,36,37,37],"right_children":[2,4,6,8,10,12,14,16,-1,-1,18,20,22,24,26,-1,-1,-1,-1,28,-1,-1,30,32,34,36,38,-1,40,42,44,46,48,50,-1,52,54,56,-1,-1,-1,-1,-1,-1,-1,-1,-1,-1,-1,-1,-1,-1,-1,-1,-1,-1,-1],"split_conditions":[1E1,2.3285715E1,4E0,1.6666667E-1,2.2166666E1,1.9916666E1,7.2243E-1,1.42E1,-6.963339E-2,-6.545298E-2,2.3666666E1,1.1166667E1,2.009091E1,-2.125E-1,8.083333E0,-6.1442383E-2,4.2841777E-2,7.185692E-2,3.5036873E-2,2.34E1,-7.197329E-2,-6.9288135E-2,2.188889E1,1.0916667E1,6E0,2.5662802E1,1.2635013E1,-7.223942E-2,2E0,2.1428572E1,2.25E1,2.3809524E-2,1.2737624E1,1.3083333E1,-7.28261E-2,-2.6407843E0,1.1333333E1,6E0,-7.5365245E-2,-5.776918E-2,7.295982E-2,3.3284094E-2,-8.5365705E-2,6.57448E-2,-6.554941E-2,6.385394E-2,-6.3696094E-2,-4.4427816E-2,5.0838154E-2,-7.206628E-2,5.366611E-2,-4.769848E-2,3.9721496E-2,5.3433754E-2,-9.652177E-2,6.0281433E-2,2.5606407E-2],"split_indices":[0,21,1,0,4,0,19,3,0,0,4,0,21,16,23,0,0,0,0,21,0,0,21,0,1,18,27,0,1,21,7,10,27,0,0,16,0,1,0,0,0,0,0,0,0,0,0,0,0,0,0,0,0,0,0,0,0],"split_type":[0,0,0,0,0,0,0,0,0,0,0,0,0,0,0,0,0,0,0,0,0,0,0,0,0,0,0,0,0,0,0,0,0,0,0,0,0,0,0,0,0,0,0,0,0,0,0,0,0,0,0,0,0,0,0,0,0],"sum_hessian":[2.0331475E3,4.2147827E2,1.6116692E3,3.9014966E2,3.1328629E1,5.1388E2,1.0977892E3,1.0628918E1,3.7952072E2,1.2119672E0,3.0116663E1,2.5660165E2,2.5727832E2,2.0948456E2,8.883046E2,7.135071E0,3.493847E0,2.6948723E1,3.1679392E0,6.2625652E1,1.9397601E2,4.433478E1,2.1294356E2,1.17958435E2,9.1526115E1,4.4409613E2,4.4420853E2,2.618202E1,3.644363E1,1.20123795E2,9.281976E1,1.2647673E1,1.0531076E2,8.443715E1,7.0889635E0,4.2291354E2,2.1182583E1,4.4047845E2,3.7300763E0,3.3245933E0,3.3119038E1,1.0114632E2,1.8977476E1,9.042827E1,2.3914938E0,1.0492942E1,2.1547313E0,9.573893E1,9.571831E0,2.4682956E0,8.196886E1,2.8528046E1,3.943855E2,2.657619E0,1.8524963E1,3.6144043E2,7.9038E1],"tree_param":{"num_deleted":"0","num_feature":"28","num_nodes":"57","size_leaf_vector":"1"}},{"base_weights":[2.5462171E-2,-9.420464E-1,4.194035E-1,-6.760963E-2,-5.163521E-1,-5.242789E-1,6.4023435E-1,3.3648172E-1,-9.4919115E-1,-1.0697145E0,8.7122995E-1,3.104224E-1,8.967705E-1,-6.612062E-2,7.866686E-1,-1.4229295E-1,-1.2984881E0,3.2769033E-1,-1.1669589E0,9.503486E-1,-5.8080245E-2,2.2037394E-2,9.363097E-1,-1.6397776E-1,9.6060747E-1,9.43636E-1,-6.6854365E-2,-1.1319579E0,5.574978E-1,-7.0176475E-2,-4.6097848E-1,-6.447494E-2,6.4960465E-2,-6.9607235E-2,-7.0617974E-1,1.017716E0,-5.6473583E-2,2.878719E-1,-6.259778E-1,1.1394479E0,-6.7798555E-1,4.846693E-1,-7.03541E-2,-2.1947877E-1,9.8564047E-1,5.646468E-2,-2.0377658E-2,2.7466873E-2,-7.225497E-2,4.1710433E-2,-5.9013575E-2,2.723748E-2,-7.536396E-2,-6.787632E-2,-1.6160222E-2,6.494696E-2,2.6956294E-2,1.9955428E-2,-9.0388395E-2,-5.240768E-2,2.6800085E-2,-7.330277E-2,6.0073536E-2,-8.312302E-2,6.0790647E-2,-6.851421E-2,5.035329E-2,-7.3658325E-2,4.7240894E-2,-6.503969E-2,4.9855977E-2],"categories":[],"categories_nodes":[],"categories_segments":[],"categories_sizes":[],"default_left":[0,0,0,0,0,0,0,0,0,0,0,0,0,0,0,0,0,0,0,0,0,0,0,0,0,0,0,0,0,0,0,0,0,0,0,0,0,0,0,0,0,0,0,0,0,0,0,0,0,0,0,0,0,0,0,0,0,0,0,0,0,0,0,0,0,0,0,0,0,0,0],"id":13,"left_children":[1,3,5,-1,7,9,11,13,15,17,19,21,23,-1,25,27,29,31,33,35,-1,37,39,41,43,45,-1,47,49,-1,51,-1,-1,-1,53,55,-1,57,59,61,63,65,-1,67,69,-1,-1,-1,-1,-1,-1,-1,-1,-1,-1,-1,-1,-1,-1,-1,-1,-1,-1,-1,-1,-1,-1,-1,-1,-1,-1],"loss_changes":[7.605397E2,1.00112854E2,2.9583777E2,0E0,1.05503555E2,2.0602621E2,9.6983246E1,7.323353E1,5.3161987E1,2.6769318E1,1.3370937E1,9.103505E1,4.390631E1,0E0,2.681762E1,4.101061E1,1.0962845E1,2.2751024E1,1.7876984E1,1.1512642E1,0E0,5.9848186E1,5.294536E1,3.0942501E1,1.8222961E1,1.8514923E1,0E0,1.3682423E1,1.773024E1,0E0,1.7864408E1,0E0,0E0,0E0,1.4951891E1,9.012962E0,0E0,5.8137016E1,5.0144352E1,2.465857E1,3.6344536E1,2.599739E1,0E0,2.1067387E1,1.6967651E1,0E0,0E0,0E0,0E0,0E0,0E0,0E0,0E0,0E0,0E0,0E0,0E0,0E0,0E0,0E0,0E0,0E0,0E0,0E0,0E0,0E0,0E0,0E0,0E0,0E0,0E0],"parents":[2147483647,0,0,1,1,2,2,4,4,5,5,6,6,7,7,8,8,9,9,10,10,11,11,12,12,14,14,15,15,16,16,17,17,18,18,19,19,21,21,22,22,23,23,24,24,25,25,27,27,28,28,30,30,34,34,35,35,37,37,38,38,39,39,40,40,41,41,43,43,44,44],"right_children":[2,4,6,-1,8,10,12,14,16,18,20,22,24,-1,26,28,30,32,34,36,-1,38,40,42,44,46,-1,48,50,-1,52,-1,-1,-1,54,56,-1,58,60,62,64,66,-1,68,70,-1,-1,-1,-1,-1,-1,-1,-1,-1,-1,-1,-1,-1,-1,-1,-1,-1,-1,-1,-1,-1,-1,-1,-1,-1,-1],"split_conditions":[2.0681818E1,1.5777778E1,-2.1626985E0,-6.760963E-2,7.2E0,7.857143E0,-5.3571427E-1,4E0,6.818182E-1,1.9272728E1,6E0,1.7777779E1,2E0,-6.612062E-2,1.3035715E0,2E1,2.5E-2,2.2125E1,1.1333333E0,4.25E-1,-5.8080245E-2,2.1428572E-1,6E0,2.1166666E1,5.0393295E-1,6E0,-6.6854365E-2,-9.5714283E-1,8.666667E-1,-7.0176475E-2,1.2089729E1,-6.447494E-2,6.4960465E-2,-6.9607235E-2,-2.8333333E0,2.9333334E1,-5.6473583E-2,2.4166666E1,1.1332022E0,2.68E1,1.3333334E0,1.2555555E1,-7.03541E-2,1.2737624E1,1.8E1,5.646468E-2,-2.0377658E-2,2.7466873E-2,-7.225497E-2,4.1710433E-2,-5.9013575E-2,2.723748E-2,-7.536396E-2,-6.787632E-2,-1.6160222E-2,6.494696E-2,2.6956294E-2,1.9955428E-2,-9.0388395E-2,-5.240768E-2,2.6800085E-2,-7.330277E-2,6.0073536E-2,-8.312302E-2,6.0790647E-2,-6.851421E-2,5.035329E-2,-7.3658325E-2,4.7240894E-2,-6.503969E-2,4.9855977E-2],"split_indices":[21,7,16,0,22,23,16,1,13,5,1,22,1,0,13,21,16,21,12,14,0,9,1,5,19,1,0,9,23,0,27,0,0,0,15,7,0,20,19,5,12,22,0,27,7,0,0,0,0,0,0,0,0,0,0,0,0,0,0,0,0,0,0,0,0,0,0,0,0,0,0],"split_type":[0,0,0,0,0,0,0,0,0,0,0,0,0,0,0,0,0,0,0,0,0,0,0,0,0,0,0,0,0,0,0,0,0,0,0,0,0,0,0,0,0,0,0,0,0,0,0,0,0,0,0,0,0,0,0,0,0,0,0,0,0,0,0,0,0,0,0,0,0,0,0],"sum_hessian":[1.993389E3,5.76393E2,1.416996E3,2.9244904E2,2.8394397E2,2.684495E2,1.1485465E3,9.56685E1,1.8827547E2,1.9317886E2,7.5270645E1,5.0347342E2,6.450731E2,2.0007048E1,7.566145E1,5.73049E1,1.3097057E2,1.2414356E1,1.8076451E2,7.296338E1,2.3072615E0,3.4537363E2,1.580998E2,3.6528446E1,6.085447E2,7.09716E1,4.6898556E0,2.3480505E1,3.3824394E1,1.1577422E2,1.5196348E1,4.536163E0,7.878193E0,1.2006611E2,6.0698395E1,7.116882E1,1.7945573E0,2.4530019E2,1.0007344E2,1.4068993E2,1.740986E1,2.4404425E1,1.21240225E1,1.2479477E1,5.960652E2,6.2542316E1,8.429281E0,3.568187E0,1.9912317E1,2.9626778E1,4.1976175E0,7.992822E0,7.203526E0,2.1532402E1,3.916599E1,4.3748055E1,2.7420769E1,2.3370468E2,1.1595503E1,7.347583E1,2.6597612E1,2.7448452E0,1.3794508E2,1.1535425E1,5.8744364E0,5.005951E0,1.9398474E1,5.8813214E0,6.5981555E0,2.416526E0,5.936487E2],"tree_param":{"num_deleted":"0","num_feature":"28","num_nodes":"71","size_leaf_vector":"1"}},{"base_weights":[1.1666485E-2,-1.1299735E0,2.858822E-1,-6.691123E-2,6.950071E-2,-3.6096743E-1,5.9283924E-1,-1.0744674E0,3.3137545E-1,1.0398054E0,3.9668027E-1,-7.026502E-2,9.824701E-2,-6.690966E-2,6.26449E-1,-7.841754E-2,1.0872906E0,4.48973E-2,9.1590625E-1,1.1196227E0,-6.8621375E-2,-2.919979E-1,8.976914E-1,1.329956E0,8.9308274E-1,-4.969096E-1,6.302274E-1,-9.512148E-2,9.621668E-1,-5.020098E-2,6.754535E-2,-7.718726E-2,5.0742503E-2,4.9329586E-2,-6.763279E-2,5.2208252E-2,6.8756476E-2,-4.3030865E-2,5.012505E-2,-6.820837E-2,1.104794E-3,-1.0759203E-2,4.6118315E-2,4.923478E-2,-8.4676996E-2],"categories":[],"categories_nodes":[],"categories_segments":[],"categories_sizes":[],"default_left":[0,0,0,0,0,0,0,0,0,0,0,0,0,0,0,0,0,0,0,0,0,0,0,0,0,0,0,0,0,0,0,0,0,0,0,0,0,0,0,0,0,0,0,0,0],"id":14,"left_children":[1,3,5,-1,-1,7,9,11,13,15,17,-1,19,-1,21,-1,23,25,27,29,-1,31,33,35,37,39,41,-1,43,-1,-1,-1,-1,-1,-1,-1,-1,-1,-1,-1,-1,-1,-1,-1,-1],"loss_changes":[6.131672E2,2.0093591E2,3.1378735E2,0E0,0E0,2.5173068E2,9.352469E1,9.745755E1,1.2844733E2,4.2101288E1,1.3626239E2,0E0,8.584784E1,0E0,5.526951E1,0E0,1.393692E1,1.4172325E2,4.111818E1,1.789619E1,0E0,8.515319E1,3.5485825E1,3.7960815E-1,3.5653427E1,1.0450858E2,5.3244507E1,0E0,1.944522E1,0E0,0E0,0E0,0E0,0E0,0E0,0E0,0E0,0E0,0E0,0E0,0E0,0E0,0E0,0E0,0E0],"parents":[2147483647,0,0,1,1,2,2,5,5,6,6,7,7,8,8,9,9,10,10,12,12,14,14,16,16,17,17,18,18,19,19,21,21,22,22,23,23,24,24,25,25,26,26,28,28],"right_children":[2,4,6,-1,-1,8,10,12,14,16,18,-1,20,-1,22,-1,24,26,28,30,-1,32,34,36,38,40,42,-1,44,-1,-1,-1,-1,-1,-1,-1,-1,-1,-1,-1,-1,-1,-1,-1,-1],"split_conditions":[9.666667E0,2.0285715E1,4E0,-6.691123E-2,6.950071E-2,1.9916666E1,8.916667E0,2.0714285E1,1.841369E1,1.0833333E1,9.875E0,-7.026502E-2,1.1166667E1,-6.690966E-2,1.222063E1,-7.841754E-2,1.45E1,6.8636365E0,-2.0555556E0,2E0,-6.8621375E-2,1.2611111E1,1.2E1,2.9E1,-1.9833333E0,5E0,9.7959185E-1,-9.512148E-2,2.9777779E1,-5.020098E-2,6.754535E-2,-7.718726E-2,5.0742503E-2,4.9329586E-2,-6.763279E-2,5.2208252E-2,6.8756476E-2,-4.3030865E-2,5.012505E-2,-6.820837E-2,1.104794E-3,-1.0759203E-2,4.6118315E-2,4.923478E-2,-8.4676996E-2],"split_indices":[0,20,1,0,0,0,24,26,18,0,24,0,0,0,27,0,0,23,9,1,0,22,24,20,16,1,17,0,20,0,0,0,0,0,0,0,0,0,0,0,0,0,0,0,0],"split_type":[0,0,0,0,0,0,0,0,0,0,0,0,0,0,0,0,0,0,0,0,0,0,0,0,0,0,0,0,0,0,0,0,0,0,0,0,0,0,0,0,0,0,0,0,0],"sum_hessian":[1.9566206E3,3.7834387E2,1.5782767E3,3.4989743E2,2.8446453E1,5.078693E2,1.0704073E3,2.4984126E2,2.5802805E2,3.2517206E2,7.4523535E2,1.9471277E2,5.512849E1,3.8222805E1,2.1980524E2,5.2416663E0,3.199304E2,4.4489746E2,3.0033786E2,3.267475E1,2.2453741E1,5.0096897E1,1.6970833E2,1.3962233E2,1.8030806E2,2.3111679E2,2.1378067E2,4.2022033E0,2.9613568E2,2.8809447E0,2.9793804E1,2.549529E1,2.4601608E1,1.6379901E2,5.9093204E0,2.2348482E1,1.1727384E2,1.0186045E1,1.7012201E2,8.591855E1,1.4519824E2,5.4969536E1,1.5881113E2,2.9426855E2,1.8671192E0],"tree_param":{"num_deleted":"0","num_feature":"28","num_nodes":"45","size_leaf_vector":"1"}},{"base_weights":[3.3432816E-3,-1.0759141E0,2.8190526E-1,-1.3011429E0,1.1530063E0,-3.2692298E-1,5.714593E-1,-4.2604786E-1,-6.628153E-2,6.7204915E-2,-7.081737E-2,-1.0295966E0,3.2014987E-1,3.7811682E-1,9.404687E-1,-5.8060747E-2,4.948314E-2,1.09203696E-1,-6.83968E-2,-6.569728E-2,6.317535E-1,4.1802555E-1,-9.1905735E-2,1.2201667E0,6.233601E-1,-6.88126E-2,1.2042409E0,1.8067639E-1,1.141304E0,2.6288068E-1,9.9934274E-1,-5.0598554E-2,1.2446717E0,9.264049E-1,-8.29035E-2,-4.6570163E-2,7.0040956E-2,2.272424E-2,-7.5114146E-2,6.07705E-2,-6.7917734E-2,1.97403E-2,-8.2688816E-2,-1.0915736E-1,6.6570036E-2,-8.735188E-2,4.85604E-2,6.30486E-2,4.0045813E-2,5.152392E-2,-4.7881674E-2],"categories":[],"categories_nodes":[],"categories_segments":[],"categories_sizes":[],"default_left":[0,0,0,0,0,0,0,0,0,0,0,0,0,0,0,0,0,0,0,0,0,0,0,0,0,0,0,0,0,0,0,0,0,0,0,0,0,0,0,0,0,0,0,0,0,0,0,0,0,0,0],"id":15,"left_children":[1,3,5,7,9,11,13,15,-1,-1,-1,17,19,21,23,-1,-1,25,-1,-1,27,29,-1,31,33,-1,35,37,39,41,43,45,47,49,-1,-1,-1,-1,-1,-1,-1,-1,-1,-1,-1,-1,-1,-1,-1,-1,-1],"loss_changes":[5.666495E2,1.9561859E2,2.6428915E2,6.970886E0,1.9587612E1,2.2016365E2,7.210501E1,1.2645876E1,0E0,0E0,0E0,8.954855E1,1.2938353E2,5.986165E1,3.0150635E1,0E0,0E0,8.961129E1,0E0,0E0,4.868431E1,5.900161E1,0E0,5.796997E0,1.158742E2,0E0,1.4596001E1,5.3222527E1,2.0118011E1,1.3214899E2,1.4881802E2,9.401086E0,2.9711914E-1,2.9737373E1,0E0,0E0,0E0,0E0,0E0,0E0,0E0,0E0,0E0,0E0,0E0,0E0,0E0,0E0,0E0,0E0,0E0],"parents":[2147483647,0,0,1,1,2,2,3,3,4,4,5,5,6,6,7,7,11,11,12,12,13,13,14,14,17,17,20,20,21,21,23,23,24,24,26,26,27,27,28,28,29,29,30,30,31,31,32,32,33,33],"right_children":[2,4,6,8,10,12,14,16,-1,-1,-1,18,20,22,24,-1,-1,26,-1,-1,28,30,-1,32,34,-1,36,38,40,42,44,46,48,50,-1,-1,-1,-1,-1,-1,-1,-1,-1,-1,-1,-1,-1,-1,-1,-1,-1],"split_conditions":[1.0083333E1,2.3285715E1,4E0,1.6666667E-1,2.1333334E0,1.9916666E1,2.65E1,1.42E1,-6.628153E-2,6.7204915E-2,-7.081737E-2,1.1166667E1,2.009091E1,2.7714285E1,1.8E1,-5.8060747E-2,4.948314E-2,2.0714285E1,-6.83968E-2,-6.569728E-2,2.188889E1,1.2737624E1,-9.1905735E-2,2.9428572E1,1.234808E1,-6.88126E-2,2E0,1.9444445E1,2.04E1,1.2635013E1,1.75E1,1.65E1,2.3333333E0,2.357143E0,-8.29035E-2,-4.6570163E-2,7.0040956E-2,2.272424E-2,-7.5114146E-2,6.07705E-2,-6.7917734E-2,1.97403E-2,-8.2688816E-2,-1.0915736E-1,6.6570036E-2,-8.735188E-2,4.85604E-2,6.30486E-2,4.0045813E-2,5.152392E-2,-4.7881674E-2],"split_indices":[0,21,1,0,13,0,20,3,0,0,0,0,21,7,26,0,0,26,0,0,21,27,0,21,27,0,1,20,26,27,0,0,12,13,0,0,0,0,0,0,0,0,0,0,0,0,0,0,0,0,0],"split_type":[0,0,0,0,0,0,0,0,0,0,0,0,0,0,0,0,0,0,0,0,0,0,0,0,0,0,0,0,0,0,0,0,0,0,0,0,0,0,0,0,0,0,0,0,0,0,0,0,0,0,0],"sum_hessian":[1.8828011E3,3.8567685E2,1.4971244E3,3.5065952E2,3.5017326E1,4.8249063E2,1.0146337E3,1.0046162E1,3.4061337E2,3.3037113E1,1.9802153E0,2.3102417E2,2.5146646E2,6.671206E2,3.4751315E2,6.7307186E0,3.3154426E0,5.3071297E1,1.7795287E2,3.9757183E1,2.1170927E2,6.5611694E2,1.1003631E1,1.8313533E2,1.6437782E2,2.241193E1,3.0659365E1,1.1301652E2,9.869275E1,5.1904407E2,1.3707288E2,3.4445627E0,1.7969077E2,1.4562785E2,1.8749966E1,2.2691398E0,2.8390224E1,9.783005E1,1.5186471E1,9.635008E1,2.3426657E0,4.8636136E2,3.26827E1,1.2424083E1,1.24648796E2,1.0280328E0,2.41653E0,1.7154774E2,8.143023E0,1.3843387E2,7.1939797E0],"tree_param":{"num_deleted":"0","num_feature":"28","num_nodes":"51","size_leaf_vector":"1"}},{"base_weights":[1.2123581E-2,-8.760372E-1,3.5855445E-1,-1.2610537E0,-2.0626596E-1,-3.506273E-1,5.381727E-1,-3.593107E-1,-6.427367E-2,1.7985646E-1,-1.1564089E0,-8.7782115E-1,8.685044E-1,-4.1547182E-1,6.1305654E-1,-5.6812752E-2,6.0175367E-2,-1.1029707E-1,1.1465937E0,-7.192736E-2,1.3260907E-1,-1.2155062E0,9.109153E-2,1.2728709E0,3.4950984E-1,-9.8888403E-1,3.249042E-1,4.5835218E-1,9.871072E-1,-6.987755E-2,1.9585784E-1,-4.0958017E-2,1.278833E0,-6.2423985E-2,4.878882E-2,-3.850442E-1,-6.6246055E-2,-7.05694E-2,7.525584E-1,2.9063473E-2,6.577584E-2,1.0593737E0,-1.1220018E0,4.7099993E-1,-1.3566351E0,1.1152958E0,-7.206031E-2,5.191078E-1,-1.2368892E0,1.0122092E0,-6.9123246E-2,4.8080865E-2,-1.8252412E-2,1.667008E-2,6.971475E-2,-6.428577E-2,4.0261388E-2,-6.430043E-2,5.235463E-2,6.1457425E-2,-5.5038165E-2,-9.1274075E-2,5.4782875E-2,-6.0392004E-2,7.220068E-2,-7.7625506E-2,5.1233484E-3,-6.054529E-2,6.404135E-2,1.1871438E-2,3.8668644E-2,-9.6324325E-2,5.974392E-2,5.6151748E-2,2.5591586E-2],"categories":[],"categories_nodes":[],"categories_segments":[],"categories_sizes":[],"default_left":[0,0,0,0,0,0,0,0,0,0,0,0,0,0,0,0,0,0,0,0,0,0,0,0,0,0,0,0,0,0,0,0,0,0,0,0,0,0,0,0,0,0,0,0,0,0,0,0,0,0,0,0,0,0,0,0,0,0,0,0,0,0,0,0,0,0,0,0,0,0,0,0,0,0,0],"id":16,"left_children":[1,3,5,7,9,11,13,15,-1,17,19,21,23,25,27,-1,-1,29,31,-1,33,35,37,39,41,43,45,47,49,-1,51,-1,53,-1,-1,55,-1,-1,57,-1,-1,59,61,63,65,67,-1,69,71,73,-1,-1,-1,-1,-1,-1,-1,-1,-1,-1,-1,-1,-1,-1,-1,-1,-1,-1,-1,-1,-1,-1,-1,-1,-1],"loss_changes":[5.800056E2,1.3614365E2,1.7292848E2,6.9299316E0,7.148175E1,1.7728903E2,7.755316E1,1.3799627E1,0E0,3.911712E1,2.065564E1,6.300862E1,1.7061543E1,3.4031353E1,5.764731E1,0E0,0E0,4.2767994E1,9.411888E0,0E0,1.4051448E1,1.2449448E1,5.1363884E1,6.0704803E-1,4.0788006E1,2.4795422E1,5.1035404E1,7.39879E1,1.88208E1,0E0,3.814265E1,0E0,2.868805E0,0E0,0E0,2.0346233E1,0E0,0E0,2.2838501E1,0E0,0E0,1.0920223E1,2.2003756E1,1.7746191E1,1.0504715E1,1.1187195E1,0E0,4.9105484E1,4.4115494E1,1.5529114E1,0E0,0E0,0E0,0E0,0E0,0E0,0E0,0E0,0E0,0E0,0E0,0E0,0E0,0E0,0E0,0E0,0E0,0E0,0E0,0E0,0E0,0E0,0E0,0E0,0E0],"parents":[2147483647,0,0,1,1,2,2,3,3,4,4,5,5,6,6,7,7,9,9,10,10,11,11,12,12,13,13,14,14,17,17,18,18,20,20,21,21,22,22,23,23,24,24,25,25,26,26,27,27,28,28,30,30,32,32,35,35,38,38,41,41,42,42,43,43,44,44,45,45,47,47,48,48,49,49],"right_children":[2,4,6,8,10,12,14,16,-1,18,20,22,24,26,28,-1,-1,30,32,-1,34,36,38,40,42,44,46,48,50,-1,52,-1,54,-1,-1,56,-1,-1,58,-1,-1,60,62,64,66,68,-1,70,72,74,-1,-1,-1,-1,-1,-1,-1,-1,-1,-1,-1,-1,-1,-1,-1,-1,-1,-1,-1,-1,-1,-1,-1,-1,-1],"split_conditions":[2.0681818E1,2.1E1,-2.1626985E0,1.6666667E-1,1.0178572E0,7.857143E0,6.0140294E-1,8.021978E-1,-6.427367E-2,1.2852929E1,2.375E1,1.8083334E1,1.2083333E1,1.975E1,2.65E1,-5.6812752E-2,6.0175367E-2,1.7E1,2E0,-7.192736E-2,1.6E1,1.1E1,1.2284958E1,2.5666666E1,-2.0333333E0,2.0142857E1,2.0333334E1,2.53E1,1.2635013E1,-6.987755E-2,-7.25E-1,-4.0958017E-2,2.2833334E1,-6.2423985E-2,4.878882E-2,2.2666666E1,-6.6246055E-2,-7.05694E-2,8.431665E-1,2.9063473E-2,6.577584E-2,1.2089729E1,1.2595238E1,5E0,1.4E0,2.1333334E1,-7.206031E-2,-5.3571427E-1,2.9625E1,6E0,-6.9123246E-2,4.8080865E-2,-1.8252412E-2,1.667008E-2,6.971475E-2,-6.428577E-2,4.0261388E-2,-6.430043E-2,5.235463E-2,6.1457425E-2,-5.5038165E-2,-9.1274075E-2,5.4782875E-2,-6.0392004E-2,7.220068E-2,-7.7625506E-2,5.1233484E-3,-6.054529E-2,6.404135E-2,1.1871438E-2,3.8668644E-2,-9.6324325E-2,5.974392E-2,5.6151748E-2,2.5591586E-2],"split_indices":[21,0,16,0,13,23,19,9,0,27,0,0,0,26,20,0,0,21,1,0,7,0,27,5,10,6,26,20,27,0,9,0,0,0,0,6,0,0,19,0,0,27,23,1,13,7,0,16,4,1,0,0,0,0,0,0,0,0,0,0,0,0,0,0,0,0,0,0,0,0,0,0,0,0,0],"split_type":[0,0,0,0,0,0,0,0,0,0,0,0,0,0,0,0,0,0,0,0,0,0,0,0,0,0,0,0,0,0,0,0,0,0,0,0,0,0,0,0,0,0,0,0,0,0,0,0,0,0,0,0,0,0,0,0,0,0,0,0,0,0,0,0,0,0,0,0,0,0,0,0,0,0,0],"sum_hessian":[1.883034E3,5.279572E2,1.3550769E3,3.3468277E2,1.9327444E2,2.7365613E2,1.0814208E3,9.238763E0,3.25444E2,1.38003E2,5.527144E1,1.9123822E2,8.241792E1,7.84036E1,1.00301715E3,6.3532386E0,2.8855245E0,1.0682637E2,3.117663E1,4.5250973E1,1.0020468E1,1.4162473E2,4.961349E1,4.5508286E1,3.6909637E1,4.399464E1,3.4408966E1,7.111263E2,2.9189087E2,1.9840496E1,8.698587E1,1.6376874E0,2.9538942E1,3.6163185E0,6.404149E0,1.7013205E1,1.2461152E2,1.481911E1,3.479438E1,3.4929047E0,4.201538E1,2.5087427E1,1.1822212E1,8.795972E0,3.5198666E1,2.4025347E1,1.0383618E1,6.8719183E2,2.3934443E1,2.8939795E2,2.492896E0,3.647505E1,5.0510822E1,3.6379535E0,2.590099E1,9.639142E0,7.374063E0,3.967534E0,3.0826847E1,2.365895E1,1.4284761E0,9.109398E0,2.7128146E0,3.1388512E0,5.6571207E0,3.0976286E1,4.222381E0,1.1765187E0,2.2848827E1,3.269381E2,3.6025372E2,1.8808529E1,5.1259127E0,2.3590446E2,5.3493504E1],"tree_param":{"num_deleted":"0","num_feature":"28","num_nodes":"75","size_leaf_vector":"1"}},{"base_weights":[-3.645696E-2,-1.0524076E0,2.1608548E-1,-6.361144E-2,-5.012201E-1,-3.4225506E-1,5.033989E-1,6.9525474E-1,-8.9023364E-1,-6.3622676E-2,-9.746877E-2,6.4811665E-1,-2.497082E-1,-6.916086E-2,1.1767809E0,-1.2383059E0,4.86223E-1,-8.528838E-1,1.7205054E-1,3.6683252E-1,1.0063864E0,-1.3735034E0,1.4920713E-1,6.732794E-2,-5.0389733E-2,5.202635E-1,-6.858576E-2,6.027281E-2,-5.3156245E-2,-6.915792E-2,8.9856386E-2,4.7329167E-1,-6.221345E-1,4.6798125E-1,-9.176484E-2,1.0444199E0,-7.5149864E-2,-7.860173E-2,2.5990677E-1,-9.1910875E-1,4.4705227E-1,-3.87002E-2,5.8602583E-2,2.0232737E-2,-6.930898E-2,3.2270234E-2,-6.656543E-2,-7.138268E-2,2.2012124E-2,-2.3846652E-2,3.162251E-2,2.862976E-2,5.5471566E-2,5.6762975E-2,-5.953007E-2,-8.418733E-2,4.1511387E-2,2.691226E-2,-7.76481E-2],"categories":[],"categories_nodes":[],"categories_segments":[],"categories_sizes":[],"default_left":[0,0,0,0,0,0,0,0,0,0,0,0,0,0,0,0,0,0,0,0,0,0,0,0,0,0,0,0,0,0,0,0,0,0,0,0,0,0,0,0,0,0,0,0,0,0,0,0,0,0,0,0,0,0,0,0,0,0,0],"id":17,"left_children":[1,3,5,-1,7,9,11,13,15,-1,17,19,21,-1,23,25,27,29,31,33,35,37,39,-1,-1,41,-1,-1,-1,-1,43,45,47,49,-1,51,-1,-1,53,55,57,-1,-1,-1,-1,-1,-1,-1,-1,-1,-1,-1,-1,-1,-1,-1,-1,-1,-1],"loss_changes":[4.6192276E2,4.2790344E1,2.3150552E2,0E0,4.895111E1,1.1157161E2,1.0397504E2,2.7689327E1,3.8356182E1,0E0,7.943371E1,8.0177155E1,6.935765E1,0E0,9.398775E0,1.5535828E1,1.9805218E1,5.140148E1,6.9161125E1,1.00939545E2,3.506494E1,1.3545105E1,3.6922318E1,0E0,0E0,5.2768736E0,0E0,0E0,0E0,0E0,1.8154753E1,6.5855225E1,6.874039E1,6.718599E1,0E0,9.987244E0,0E0,0E0,8.015335E0,3.529795E1,1.7324127E1,0E0,0E0,0E0,0E0,0E0,0E0,0E0,0E0,0E0,0E0,0E0,0E0,0E0,0E0,0E0,0E0,0E0,0E0],"parents":[2147483647,0,0,1,1,2,2,4,4,5,5,6,6,7,7,8,8,10,10,11,11,12,12,14,14,15,15,16,16,17,17,18,18,19,19,20,20,21,21,22,22,25,25,30,30,31,31,32,32,33,33,35,35,38,38,39,39,40,40],"right_children":[2,4,6,-1,8,10,12,14,16,-1,18,20,22,-1,24,26,28,30,32,34,36,38,40,-1,-1,42,-1,-1,-1,-1,44,46,48,50,-1,52,-1,-1,54,56,58,-1,-1,-1,-1,-1,-1,-1,-1,-1,-1,-1,-1,-1,-1,-1,-1,-1,-1],"split_conditions":[1.775E1,1.5571428E1,4E0,-6.361144E-2,8.916667E0,-2.5972223E0,6E0,8.714286E0,1.2852929E1,-6.3622676E-2,1.222063E1,8.083333E0,8.5261637E-1,-6.916086E-2,7.888889E0,1.3285714E1,6.6666665E0,1.0380953E1,1.2573978E1,2.5833334E1,1.2635013E1,2.1E-1,-1.1E0,6.732794E-2,-5.0389733E-2,1.3666667E1,-6.858576E-2,6.027281E-2,-5.3156245E-2,-6.915792E-2,1.4166666E0,4.2E0,3E0,6.24999E-1,-9.176484E-2,-1.5714285E0,-7.5149864E-2,-7.860173E-2,-5E-1,1.3288249E0,2.625E0,-3.87002E-2,5.8602583E-2,2.0232737E-2,-6.930898E-2,3.2270234E-2,-6.656543E-2,-7.138268E-2,2.2012124E-2,-2.3846652E-2,3.162251E-2,2.862976E-2,5.5471566E-2,5.6762975E-2,-5.953007E-2,-8.418733E-2,4.1511387E-2,2.691226E-2,-7.76481E-2],"split_indices":[7,7,1,0,24,16,1,24,27,0,27,23,19,0,22,5,22,24,27,7,27,16,16,0,0,4,0,0,0,0,13,23,1,19,0,15,0,0,9,19,13,0,0,0,0,0,0,0,0,0,0,0,0,0,0,0,0,0,0],"split_type":[0,0,0,0,0,0,0,0,0,0,0,0,0,0,0,0,0,0,0,0,0,0,0,0,0,0,0,0,0,0,0,0,0,0,0,0,0,0,0,0,0,0,0,0,0,0,0,0,0,0,0,0,0,0,0,0,0,0,0],"sum_hessian":[1.7984862E3,3.5742743E2,1.4410587E3,2.5458662E2,1.02840805E2,4.89539E2,9.515197E2,2.5039742E1,7.780106E1,1.0111176E2,3.8842722E2,7.98264E2,1.5325574E2,4.3576603E0,2.0682081E1,6.21781E1,1.562296E1,1.01572624E2,2.868546E2,4.4831082E2,3.499532E2,3.950946E1,1.1374627E2,1.9546593E1,1.1354885E0,4.1798987E0,5.7998203E1,1.0821431E1,4.8015294E0,6.470823E1,3.6864395E1,2.082628E2,7.85918E1,4.293761E2,1.8934721E1,3.4530338E2,4.6497927E0,3.5261246E1,4.248216E0,2.4343771E1,8.9402504E1,1.3371626E0,2.8427362E0,3.0982515E1,5.8818784E0,1.9071573E2,1.7547073E1,4.4503994E1,3.40878E1,6.3374474E1,3.6600162E2,4.3004284E1,3.022991E2,2.7849133E0,1.4633031E0,1.6965582E1,7.3781896E0,8.6202866E1,3.1996372E0],"tree_param":{"num_deleted":"0","num_feature":"28","num_nodes":"59","size_leaf_vector":"1"}},{"base_weights":[9.810889E-3,-8.2696193E-1,3.2428887E-1,-1.1989486E0,-1.3168921E-2,-2.5597317E-2,7.581747E-1,-1.2258455E0,4.4608057E-1,-6.408176E-2,2.4521263E-1,-4.221709E-1,4.9785244E-1,1.084264E0,6.056925E-1,-3.8946706E-1,-1.2486775E0,-4.2604085E-2,6.131667E-2,4.1870093E-1,-6.621645E-2,-7.8341717E-1,4.4368035E-1,7.111106E-1,-2.7904472E-1,-8.2991354E-2,1.1703217E0,-1.5838258E-1,7.3053163E-1,-5.5636954E-2,5.712999E-2,-6.3353024E-2,-7.083591E-1,-6.697991E-2,6.048324E-1,-6.538161E-2,-3.6126697E-1,-6.7551665E-2,5.64586E-1,1.1119506E0,4.820266E-1,1.6812497E-1,-8.098474E-2,-2.4031204E-1,1.2036555E0,-7.53015E-2,2.1252455E-1,9.247774E-1,3.612862E-1,-5.8599085E-2,2.7022192E-2,4.3890756E-2,-1.5823966E-2,8.035743E-4,-4.7582254E-2,6.516657E-2,1.4360951E-2,-6.1175313E-2,6.0192015E-2,-9.2658885E-2,3.0805467E-2,-1.1838542E-2,6.409579E-2,4.9252402E-2,-9.0664685E-2,6.354628E-2,4.8408337E-2,2.822784E-2,-8.334736E-2,-5.9419002E-2,4.7737908E-2,-2.7750289E-2,4.9747072E-2],"categories":[],"categories_nodes":[],"categories_segments":[],"categories_sizes":[],"default_left":[0,0,0,0,0,0,0,0,0,0,0,0,0,0,0,0,0,0,0,0,0,0,0,0,0,0,0,0,0,0,0,0,0,0,0,0,0,0,0,0,0,0,0,0,0,0,0,0,0,0,0,0,0,0,0,0,0,0,0,0,0,0,0,0,0,0,0,0,0,0,0,0,0],"id":18,"left_children":[1,3,5,7,9,11,13,15,17,-1,19,21,23,25,27,29,31,-1,-1,33,-1,35,37,39,41,-1,43,45,47,-1,-1,-1,49,-1,51,-1,53,-1,55,57,59,61,-1,63,65,-1,67,69,71,-1,-1,-1,-1,-1,-1,-1,-1,-1,-1,-1,-1,-1,-1,-1,-1,-1,-1,-1,-1,-1,-1,-1,-1],"loss_changes":[4.7468555E2,1.4915118E2,1.9905952E2,1.5509308E1,5.130915E1,1.5107962E2,2.8447449E1,5.8725586E0,7.297907E0,0E0,3.5980606E1,1.2985458E2,5.2177956E1,4.5684875E1,3.837494E1,1.2686998E1,2.317566E0,0E0,0E0,3.9399666E1,0E0,6.426039E1,2.7350504E1,2.2094078E1,4.1212013E1,0E0,8.761887E0,2.888756E1,2.440686E1,0E0,0E0,0E0,8.112702E0,0E0,2.726733E1,0E0,3.641918E1,0E0,2.3292213E1,2.0542465E1,5.0796635E1,2.3805885E1,0E0,1.1410289E1,1.5606232E0,0E0,3.1173439E1,1.5414322E1,7.054517E1,0E0,0E0,0E0,0E0,0E0,0E0,0E0,0E0,0E0,0E0,0E0,0E0,0E0,0E0,0E0,0E0,0E0,0E0,0E0,0E0,0E0,0E0,0E0,0E0],"parents":[2147483647,0,0,1,1,2,2,3,3,4,4,5,5,6,6,7,7,8,8,10,10,11,11,12,12,13,13,14,14,15,15,16,16,19,19,21,21,22,22,23,23,24,24,26,26,27,27,28,28,32,32,34,34,36,36,38,38,39,39,40,40,41,41,43,43,44,44,46,46,47,47,48,48],"right_children":[2,4,6,8,10,12,14,16,18,-1,20,22,24,26,28,30,32,-1,-1,34,-1,36,38,40,42,-1,44,46,48,-1,-1,-1,50,-1,52,-1,54,-1,56,58,60,62,-1,64,66,-1,68,70,72,-1,-1,-1,-1,-1,-1,-1,-1,-1,-1,-1,-1,-1,-1,-1,-1,-1,-1,-1,-1,-1,-1,-1,-1],"split_conditions":[1.9442858E1,2.2083334E1,-5.3571427E-1,1.86E1,3E0,5E0,9E0,1.6666667E-1,2.1666666E1,-6.408176E-2,6E0,1.9916666E1,6E0,1.1E1,9.666667E0,4.4444445E-1,1.9833334E1,-4.2604085E-2,6.131667E-2,1.7714285E1,-6.621645E-2,3E0,9.5E0,1.2166667E1,1.7416666E1,-8.2991354E-2,2.0284721E1,1.6583334E1,2.3833334E1,-5.5636954E-2,5.712999E-2,-6.3353024E-2,1.2583333E1,-6.697991E-2,3.4166667E-1,-6.538161E-2,-1.4285715E-1,-6.7551665E-2,9.571428E0,2.3E1,-1.375E0,1.675E1,-8.098474E-2,1.7875E1,1.7714285E1,-7.53015E-2,1.2401577E1,1.9634686E1,1.9625E1,-5.8599085E-2,2.7022192E-2,4.3890756E-2,-1.5823966E-2,8.035743E-4,-4.7582254E-2,6.516657E-2,1.4360951E-2,-6.1175313E-2,6.0192015E-2,-9.2658885E-2,3.0805467E-2,-1.1838542E-2,6.409579E-2,4.9252402E-2,-9.0664685E-2,6.354628E-2,4.8408337E-2,2.822784E-2,-8.334736E-2,-5.9419002E-2,4.7737908E-2,-2.7750289E-2,4.9747072E-2],"split_indices":[18,0,16,20,1,1,24,0,0,0,1,0,1,0,24,8,5,0,0,26,0,1,24,0,0,0,18,0,7,0,0,0,0,0,14,0,9,0,24,5,14,0,0,5,26,0,27,18,22,0,0,0,0,0,0,0,0,0,0,0,0,0,0,0,0,0,0,0,0,0,0,0,0],"split_type":[0,0,0,0,0,0,0,0,0,0,0,0,0,0,0,0,0,0,0,0,0,0,0,0,0,0,0,0,0,0,0,0,0,0,0,0,0,0,0,0,0,0,0,0,0,0,0,0,0,0,0,0,0,0,0,0,0,0,0,0,0,0,0,0,0,0,0,0,0,0,0,0,0],"sum_hessian":[1.8018629E3,4.9175537E2,1.3101075E3,3.3716376E2,1.545916E2,7.257791E2,5.843284E2,3.319904E2,5.1733665E0,2.5490664E1,1.2910094E2,4.1304407E2,3.1273508E2,1.8423137E2,4.000971E2,9.30193E0,3.2268848E2,1.9075617E0,3.2658048E0,1.1691144E2,1.2189501E1,2.9151486E2,1.21529205E2,2.454451E2,6.728996E1,5.0459294E0,1.7918544E2,5.61519E1,3.439452E2,6.504791E0,2.7971401E0,3.1077023E2,1.1918232E1,1.0598183E1,1.06313255E2,1.2910194E2,1.6241292E2,7.0282426E0,1.1450097E2,8.785929E1,1.5758582E2,5.111523E1,1.6174732E1,3.9931326E0,1.751923E2,1.1458477E1,4.4693424E1,2.243951E2,1.19550095E2,8.736347E0,3.1818845E0,8.20494E1,2.4263855E1,9.967727E1,6.2735653E1,3.0245491E1,8.425548E1,2.8598034E0,8.499949E1,7.8607445E0,1.4972507E2,3.8064926E1,1.3050304E1,2.4546888E0,1.5384438E0,1.3284628E2,4.2346024E1,3.8232037E1,6.4613867E0,2.5985918E0,2.217965E2,4.892566E1,7.0624435E1],"tree_param":{"num_deleted":"0","num_feature":"28","num_nodes":"73","size_leaf_vector":"1"}},{"base_weights":[2.9572968E-3,-1.0499512E0,2.5275177E-1,-1.2589495E0,1.1319284E0,-2.8153977E-1,4.993621E-1,-6.1785698E-2,-7.683578E-2,6.480124E-2,-2.0008078E-3,-9.485541E-1,3.0100814E-1,9.199149E-1,3.1215325E-1,4.814957E-2,-6.665244E-2,-6.5587275E-2,2.0228E-1,-3.235796E-1,1.0816091E0,-7.996597E-2,9.56829E-1,-3.8591787E-1,4.8667723E-1,1.1635429E0,-6.433266E-2,-6.357839E-2,5.4267574E-2,1.1539675E0,-7.028603E-2,-7.244034E-2,9.872263E-1,1.6045873E-1,-7.8963004E-2,6.312185E-1,1.5534755E-2,-4.388798E-2,6.713777E-2,1.9164957E-2,-8.045446E-2,3.450732E-2,6.3327625E-2,2.811102E-2,5.5014558E-2,2.0834308E-2,-8.022881E-2,1.5772285E-2,4.354903E-2,3.6548536E-2,-8.2314774E-2],"categories":[],"categories_nodes":[],"categories_segments":[],"categories_sizes":[],"default_left":[0,0,0,0,0,0,0,0,0,0,0,0,0,0,0,0,0,0,0,0,0,0,0,0,0,0,0,0,0,0,0,0,0,0,0,0,0,0,0,0,0,0,0,0,0,0,0,0,0,0,0],"id":19,"left_children":[1,3,5,7,9,11,13,-1,-1,-1,15,17,19,21,23,-1,-1,-1,25,27,29,-1,31,33,35,37,-1,-1,39,41,-1,-1,43,45,-1,47,49,-1,-1,-1,-1,-1,-1,-1,-1,-1,-1,-1,-1,-1,-1],"loss_changes":[4.7001508E2,1.5768588E2,1.904544E2,1.2243652E-1,5.6743126E0,1.7777423E2,7.75466E1,0E0,0E0,0E0,7.5157037E0,8.937343E1,1.1959871E2,2.98013E1,8.371403E1,0E0,0E0,0E0,7.5933304E1,4.9012856E1,2.1230064E1,0E0,2.3385345E1,9.002321E1,3.7371033E1,1.2932289E1,0E0,0E0,5.461229E1,4.6828003E0,0E0,0E0,1.3657501E1,4.378998E1,0E0,3.152536E1,1.5563568E2,0E0,0E0,0E0,0E0,0E0,0E0,0E0,0E0,0E0,0E0,0E0,0E0,0E0,0E0],"parents":[2147483647,0,0,1,1,2,2,3,3,4,4,5,5,6,6,10,10,11,11,12,12,13,13,14,14,18,18,19,19,20,20,22,22,23,23,24,24,25,25,28,28,29,29,32,32,33,33,35,35,36,36],"right_children":[2,4,6,8,10,12,14,-1,-1,-1,16,18,20,22,24,-1,-1,-1,26,28,30,-1,32,34,36,38,-1,-1,40,42,-1,-1,44,46,-1,48,50,-1,-1,-1,-1,-1,-1,-1,-1,-1,-1,-1,-1,-1,-1],"split_conditions":[1E1,2.3285715E1,4E0,2.0818182E1,1.6666666E0,1.9916666E1,8.916667E0,-6.1785698E-2,-7.683578E-2,6.480124E-2,-3.5E-1,2.0714285E1,2.188889E1,4.8921475E-1,9.166667E0,4.814957E-2,-6.665244E-2,-6.5587275E-2,1.1166667E1,1.899256E1,2.04E1,-7.996597E-2,1.0833333E1,1.7583334E1,6E0,2E0,-6.433266E-2,-6.357839E-2,2.06E1,1E0,-7.028603E-2,-7.244034E-2,-2.3333333E-1,2.4166666E1,-7.8963004E-2,1.7666666E1,1.55E1,-4.388798E-2,6.713777E-2,1.9164957E-2,-8.045446E-2,3.450732E-2,6.3327625E-2,2.811102E-2,5.5014558E-2,2.0834308E-2,-8.022881E-2,1.5772285E-2,4.354903E-2,3.6548536E-2,-8.2314774E-2],"split_indices":[0,21,1,21,13,0,24,0,0,0,14,26,21,19,24,0,0,0,0,18,26,0,0,0,1,1,0,0,6,1,0,0,14,20,0,0,0,0,0,0,0,0,0,0,0,0,0,0,0,0,0],"split_type":[0,0,0,0,0,0,0,0,0,0,0,0,0,0,0,0,0,0,0,0,0,0,0,0,0,0,0,0,0,0,0,0,0,0,0,0,0,0,0,0,0,0,0,0,0,0,0,0,0,0,0],"sum_hessian":[1.7850479E3,3.4167032E2,1.4433776E3,3.1218927E2,2.9481054E1,4.5577673E2,9.8760077E2,2.9311826E2,1.9070993E1,2.5629183E1,3.8518703E0,2.1219093E2,2.435858E2,3.030052E2,6.845956E2,2.393286E0,1.4585842E0,1.611833E2,5.1007618E1,1.3564038E2,1.0794542E2,3.7645533E0,2.9924063E2,1.3668076E2,5.4791486E2,3.112907E1,1.9878548E1,3.7981804E1,9.765858E1,1.0541488E2,2.5305402E0,3.15172E0,2.960889E2,9.4348465E1,4.2332294E1,4.1902338E2,1.2889148E2,2.1977649E0,2.8931307E1,8.2173294E1,1.5485284E1,2.1982538E1,8.343234E1,6.3472202E1,2.326167E2,8.305537E1,1.1293098E1,1.818448E2,2.3717856E2,9.049328E1,3.8398197E1],"tree_param":{"num_deleted":"0","num_feature":"28","num_nodes":"51","size_leaf_vector":"1"}},{"base_weights":[-1.7765919E-2,-7.98199E-1,2.859064E-1,-6.13266E-2,-4.257031E-1,-3.2492656E-1,4.807697E-1,2.7596945E-1,-8.460448E-1,-6.8727326E-1,7.057588E-1,3.1020874E-1,8.213812E-1,-5.9935648E-2,6.650657E-1,3.036051E-1,-9.7177327E-1,-1.05429E0,-1.2334437E-1,8.6623484E-1,-8.31776E-1,-4.7449493E-1,4.2881548E-1,-6.57491E-2,8.529617E-1,-6.5387204E-2,8.2335E-1,-5.8534216E-2,5.69791E-2,-1.122552E0,-2.824032E-1,-1.157003E0,8.841996E-1,-6.1700184E-2,1.8351613E-1,1.1987656E0,3.466306E-1,-8.834916E-2,3.777009E-2,-1.0919757E0,1.4786729E-1,2.8500777E-1,8.1488186E-1,-6.753498E-2,8.781986E-1,4.8625734E-2,-6.39014E-2,-6.49283E-2,-2.9067291E-2,2.3700317E-2,-4.9101356E-2,-6.133583E-2,4.0411155E-4,-4.374403E-2,6.616661E-2,2.0476637E-2,-6.7407064E-2,6.1996277E-2,2.7606053E-2,-5.7055946E-2,5.09908E-2,8.445382E-3,-7.42548E-2,2.9902099E-2,-7.019537E-2,2.8745586E-2,-1.0454359E-2,4.8406273E-2,6.957916E-3,6.18926E-2,3.8229417E-2],"categories":[],"categories_nodes":[],"categories_segments":[],"categories_sizes":[],"default_left":[0,0,0,0,0,0,0,0,0,0,0,0,0,0,0,0,0,0,0,0,0,0,0,0,0,0,0,0,0,0,0,0,0,0,0,0,0,0,0,0,0,0,0,0,0,0,0,0,0,0,0,0,0,0,0,0,0,0,0,0,0,0,0,0,0,0,0,0,0,0,0],"id":20,"left_children":[1,3,5,-1,7,9,11,13,15,17,19,21,23,-1,25,27,29,31,33,35,37,39,41,-1,43,-1,45,-1,-1,47,49,51,53,-1,55,57,59,-1,-1,61,63,65,67,-1,69,-1,-1,-1,-1,-1,-1,-1,-1,-1,-1,-1,-1,-1,-1,-1,-1,-1,-1,-1,-1,-1,-1,-1,-1,-1,-1],"loss_changes":[4.047287E2,7.580066E1,1.4649344E2,0E0,7.6147514E1,1.117561E2,5.3917892E1,5.6557854E1,2.3596512E1,4.5600258E1,1.9964111E1,5.818238E1,2.2072403E1,0E0,2.5287964E1,2.1859632E1,1.4812134E1,2.7645767E1,3.0300175E1,1.1871361E1,1.3032942E1,3.177749E1,2.9841614E1,0E0,1.8238098E1,0E0,2.393338E1,0E0,0E0,1.0590073E1,1.4996367E1,1.035881E1,6.792988E0,0E0,2.4787674E1,4.5868683E-1,3.0365023E1,0E0,0E0,2.0779953E1,3.007732E1,5.6873074E1,1.5032776E1,0E0,1.14648285E1,0E0,0E0,0E0,0E0,0E0,0E0,0E0,0E0,0E0,0E0,0E0,0E0,0E0,0E0,0E0,0E0,0E0,0E0,0E0,0E0,0E0,0E0,0E0,0E0,0E0,0E0],"parents":[2147483647,0,0,1,1,2,2,4,4,5,5,6,6,7,7,8,8,9,9,10,10,11,11,12,12,14,14,15,15,16,16,17,17,18,18,19,19,20,20,21,21,22,22,24,24,26,26,29,29,30,30,31,31,32,32,34,34,35,35,36,36,39,39,40,40,41,41,42,42,44,44],"right_children":[2,4,6,-1,8,10,12,14,16,18,20,22,24,-1,26,28,30,32,34,36,38,40,42,-1,44,-1,46,-1,-1,48,50,52,54,-1,56,58,60,-1,-1,62,64,66,68,-1,70,-1,-1,-1,-1,-1,-1,-1,-1,-1,-1,-1,-1,-1,-1,-1,-1,-1,-1,-1,-1,-1,-1,-1,-1,-1,-1],"split_conditions":[2.0681818E1,1.5571428E1,-1.85E0,-6.13266E-2,1.625E1,8.083333E0,2.5E-2,4E0,4.2857143E-1,1.1333333E0,5.2380955E-1,6.578061E-1,1E0,-5.9935648E-2,1.7714285E1,1.9272728E1,0E0,2.586994E1,-2.8333333E0,2.9206312E1,2.1666667E0,1.0380953E1,9.085714E0,-6.57491E-2,1.9634686E1,-6.5387204E-2,1.3035715E0,-5.8534216E-2,5.69791E-2,1.975E1,1.8571428E1,2.2698412E0,-9.583333E-1,-6.1700184E-2,2.411111E1,2.9625E1,1.2170327E0,-8.834916E-2,3.777009E-2,-1.6666667E-1,2.04E1,3.6666667E0,6E0,-6.753498E-2,2.0833334E1,4.8625734E-2,-6.39014E-2,-6.49283E-2,-2.9067291E-2,2.3700317E-2,-4.9101356E-2,-6.133583E-2,4.0411155E-4,-4.374403E-2,6.616661E-2,2.0476637E-2,-6.7407064E-2,6.1996277E-2,2.7606053E-2,-5.7055946E-2,5.09908E-2,8.445382E-3,-7.42548E-2,2.9902099E-2,-7.019537E-2,2.8745586E-2,-1.0454359E-2,4.8406273E-2,6.957916E-3,6.18926E-2,3.8229417E-2],"split_indices":[21,7,16,0,3,23,16,1,13,12,8,19,1,0,26,3,16,18,15,18,9,24,23,0,18,0,13,0,0,7,26,11,8,0,4,7,19,0,0,14,26,23,1,0,5,0,0,0,0,0,0,0,0,0,0,0,0,0,0,0,0,0,0,0,0,0,0,0,0,0,0],"split_type":[0,0,0,0,0,0,0,0,0,0,0,0,0,0,0,0,0,0,0,0,0,0,0,0,0,0,0,0,0,0,0,0,0,0,0,0,0,0,0,0,0,0,0,0,0,0,0,0,0,0,0,0,0,0,0,0,0,0,0,0,0,0,0,0,0,0,0,0,0,0,0],"sum_hessian":[1.7057822E3,4.7735608E2,1.2284261E3,2.2096999E2,2.563861E2,2.9694205E2,9.314841E2,9.617894E1,1.6020717E2,2.1994987E2,7.699217E1,6.219526E2,3.0953152E2,1.9644634E1,7.653431E1,1.5653963E1,1.445532E2,1.3270992E2,8.723995E1,7.0111115E1,6.881051E0,8.126983E1,5.4068274E2,3.91697E0,3.0561456E2,5.145113E0,7.138919E1,5.519556E0,1.0134407E1,1.1809511E2,2.645809E1,1.26414825E2,6.2950873E0,1.8231388E1,6.900857E1,4.195447E1,2.8156647E1,4.2585273E0,2.6225235E0,4.0416134E1,4.08537E1,3.95208E2,1.4547472E2,2.8656735E0,3.0274887E2,6.715916E1,4.2300367E0,8.8057274E1,3.0037838E1,1.2868062E1,1.3590028E1,1.19227875E2,7.1869516E0,1.0593287E0,5.235759E0,6.0773277E1,8.235292E0,3.858124E1,3.3732285E0,8.554959E0,1.9601688E1,9.741587E0,3.0674547E1,3.2143402E1,8.710293E0,2.4896649E2,1.4624152E2,1.182294E2,2.724531E1,7.030148E1,2.324474E2],"tree_param":{"num_deleted":"0","num_feature":"28","num_nodes":"71","size_leaf_vector":"1"}},{"base_weights":[2.5773754E-2,-9.933624E-1,2.5486487E-1,-1.2034488E0,1.1229703E0,-2.1894337E-1,4.7760916E-1,-3.0995214E-1,-6.149226E-2,1.1482816E-1,6.31099E-2,-9.5627606E-1,3.7611237E-1,-3.7775785E-1,5.8505094E-1,-5.2085824E-2,4.61843E-2,4.843266E-2,-6.272146E-2,-6.4317614E-2,1.5000246E-1,-6.091168E-2,6.443122E-1,-7.300255E-2,1.190233E-1,6.9510794E-1,1.07710995E-1,1.1413788E0,-6.374304E-2,2.4229656E-1,1.0849017E0,9.095862E-1,-4.3280137E-1,1.4118956E-1,7.7049977E-1,4.8340598E-1,-7.9881035E-2,-4.091663E-2,6.535732E-2,2.7872859E-2,-5.9916098E-2,5.7157826E-2,-6.066916E-2,-5.9925295E-2,5.172194E-2,-7.01999E-2,1.2612085E-2,-4.6217125E-2,6.36606E-2,3.448553E-2,5.6622624E-2,5.3754944E-2,-1.831507E-3],"categories":[],"categories_nodes":[],"categories_segments":[],"categories_sizes":[],"default_left":[0,0,0,0,0,0,0,0,0,0,0,0,0,0,0,0,0,0,0,0,0,0,0,0,0,0,0,0,0,0,0,0,0,0,0,0,0,0,0,0,0,0,0,0,0,0,0,0,0,0,0,0,0],"id":21,"left_children":[1,3,5,7,9,11,13,15,-1,17,-1,19,21,23,25,-1,-1,-1,-1,-1,27,-1,29,-1,31,33,35,37,-1,39,41,43,45,47,49,51,-1,-1,-1,-1,-1,-1,-1,-1,-1,-1,-1,-1,-1,-1,-1,-1,-1],"loss_changes":[4.012373E2,1.415889E2,1.4817929E2,6.397522E0,3.92564E0,1.9751514E2,8.7959305E1,9.614317E0,0E0,6.6154103E0,0E0,7.357735E1,1.0742318E2,5.7780956E1,4.4503326E1,0E0,0E0,0E0,0E0,0E0,6.7956436E1,0E0,3.766455E1,0E0,3.283364E1,2.8680267E1,1.0339127E2,1.0259773E1,0E0,5.208809E1,1.5026848E1,9.3701515E0,2.9940723E1,1.0227182E2,1.6956055E1,4.066288E1,0E0,0E0,0E0,0E0,0E0,0E0,0E0,0E0,0E0,0E0,0E0,0E0,0E0,0E0,0E0,0E0,0E0],"parents":[2147483647,0,0,1,1,2,2,3,3,4,4,5,5,6,6,7,7,9,9,11,11,12,12,13,13,14,14,20,20,22,22,24,24,25,25,26,26,27,27,29,29,30,30,31,31,32,32,33,33,34,34,35,35],"right_children":[2,4,6,8,10,12,14,16,-1,18,-1,20,22,24,26,-1,-1,-1,-1,-1,28,-1,30,-1,32,34,36,38,-1,40,42,44,46,48,50,52,-1,-1,-1,-1,-1,-1,-1,-1,-1,-1,-1,-1,-1,-1,-1,-1,-1],"split_conditions":[1E1,2.3285715E1,4E0,1.6666667E-1,2.1833334E1,1.9916666E1,6.429713E-1,1.42E1,-6.149226E-2,1.811111E1,6.31099E-2,2.0714285E1,2.009091E1,6.363636E-2,6E0,-5.2085824E-2,4.61843E-2,4.843266E-2,-6.272146E-2,-6.4317614E-2,1.1166667E1,-6.091168E-2,2.188889E1,-7.300255E-2,8.916667E0,1.1946108E1,1.75E1,2E0,-6.374304E-2,2.1428572E1,2.04E1,1.6727272E1,9.875E0,2.7142857E1,1.2595238E1,2.7142857E1,-7.9881035E-2,-4.091663E-2,6.535732E-2,2.7872859E-2,-5.9916098E-2,5.7157826E-2,-6.066916E-2,-5.9925295E-2,5.172194E-2,-7.01999E-2,1.2612085E-2,-4.6217125E-2,6.36606E-2,3.448553E-2,5.6622624E-2,5.3754944E-2,-1.831507E-3],"split_indices":[0,21,1,0,5,0,19,3,0,7,0,26,21,14,1,0,0,0,0,0,0,0,21,0,24,27,0,1,0,21,26,5,24,21,23,21,0,0,0,0,0,0,0,0,0,0,0,0,0,0,0,0,0],"split_type":[0,0,0,0,0,0,0,0,0,0,0,0,0,0,0,0,0,0,0,0,0,0,0,0,0,0,0,0,0,0,0,0,0,0,0,0,0,0,0,0,0,0,0,0,0,0,0,0,0,0,0,0,0],"sum_hessian":[1.7164606E3,3.1441516E2,1.4020454E3,2.8641443E2,2.800073E1,4.4835303E2,9.536924E2,8.584345E0,2.7783008E2,3.6191719E0,2.438156E1,1.9996707E2,2.4838594E2,1.0614368E2,8.475487E2,5.485847E0,3.0984976E0,2.4093492E0,1.2098225E0,1.53889E2,4.6078068E1,3.5256603E1,2.1312933E2,3.2783073E1,7.33606E1,6.8837787E2,1.5917084E2,2.7289688E1,1.8788378E1,1.1225356E2,1.0087578E2,2.9890347E1,4.3470257E1,8.2812325E1,6.0556555E2,1.3102234E2,2.814849E1,1.8213227E0,2.5468367E1,9.260716E1,1.96464E1,9.887226E1,2.003521E0,1.1904624E0,2.8699884E1,1.7545795E1,2.5924461E1,4.275347E1,4.005885E1,4.974405E2,1.0812506E2,6.0789352E1,7.0232994E1],"tree_param":{"num_deleted":"0","num_feature":"28","num_nodes":"53","size_leaf_vector":"1"}},{"base_weights":[4.736497E-2,-1.0285542E0,2.662557E-1,-6.060159E-2,6.005491E-2,7.5048015E-2,7.5811505E-1,-7.0360893E-1,2.3425679E-1,1.0167118E0,5.430832E-1,5.009948E-1,-8.8851553E-1,2.7272332E-1,-8.6791806E-2,-6.813891E-2,1.051189E0,-7.591084E-1,6.682786E-1,-5.6445863E-2,8.903387E-1,-6.1155874E-1,-6.2663905E-2,-1.20415576E-1,4.5648563E-1,1.194282E0,5.6073165E-1,-7.900882E-2,5.6067962E-2,8.577137E-1,1.8966949E-1,5.184989E-2,-3.6569845E-2,1.6578969E-2,-3.9197512E-2,-6.410242E-2,4.1454197E-3,4.7136333E-2,1.8160315E-2,6.0382623E-2,3.0853873E-2,3.9913427E-2,-1.4415942E-1,4.7120526E-2,-1.1673774E-1,-8.6302735E-2,2.8766671E-2],"categories":[],"categories_nodes":[],"categories_segments":[],"categories_sizes":[],"default_left":[0,0,0,0,0,0,0,0,0,0,0,0,0,0,0,0,0,0,0,0,0,0,0,0,0,0,0,0,0,0,0,0,0,0,0,0,0,0,0,0,0,0,0,0,0,0,0],"id":22,"left_children":[1,3,5,-1,-1,7,9,11,13,15,17,19,21,23,-1,-1,25,27,29,-1,31,33,-1,35,37,39,41,-1,-1,43,45,-1,-1,-1,-1,-1,-1,-1,-1,-1,-1,-1,-1,-1,-1,-1,-1],"loss_changes":[4.025539E2,1.1967056E2,1.3350552E2,0E0,0E0,1.2707598E2,2.1547516E1,3.920957E1,6.494154E1,1.6141174E1,3.623324E1,1.6107782E1,1.451194E1,6.039831E1,0E0,0E0,1.1772995E1,3.217126E1,1.8011246E1,0E0,5.460394E0,1.4554417E1,0E0,6.3133644E1,2.5484222E1,3.0715942E-1,3.6601517E1,0E0,0E0,4.095439E1,4.393732E1,0E0,0E0,0E0,0E0,0E0,0E0,0E0,0E0,0E0,0E0,0E0,0E0,0E0,0E0,0E0,0E0],"parents":[2147483647,0,0,1,1,2,2,5,5,6,6,7,7,8,8,9,9,10,10,11,11,12,12,13,13,16,16,17,17,18,18,20,20,21,21,23,23,24,24,25,25,26,26,29,29,30,30],"right_children":[2,4,6,-1,-1,8,10,12,14,16,18,20,22,24,-1,-1,26,28,30,-1,32,34,-1,36,38,40,42,-1,-1,44,46,-1,-1,-1,-1,-1,-1,-1,-1,-1,-1,-1,-1,-1,-1,-1,-1],"split_conditions":[9.75E0,2.0285715E1,8.083333E0,-6.060159E-2,6.005491E-2,-1.5714285E0,9E0,-1.8888888E0,2.6150297E1,1.0833333E1,9.666667E0,1.675E1,-4.8214287E-1,7.302918E-1,-8.6791806E-2,-6.813891E-2,1.45E1,1.7166666E1,9.333333E0,-5.6445863E-2,9.333333E0,1.1333333E1,-6.2663905E-2,1.8083334E1,9E0,2.3333333E0,3.2666668E1,-7.900882E-2,5.6067962E-2,2.9777779E1,2.9E1,5.184989E-2,-3.6569845E-2,1.6578969E-2,-3.9197512E-2,-6.410242E-2,4.1454197E-3,4.7136333E-2,1.8160315E-2,6.0382623E-2,3.0853873E-2,3.9913427E-2,-1.4415942E-1,4.7120526E-2,-1.1673774E-1,-8.6302735E-2,2.8766671E-2],"split_indices":[0,20,23,0,0,15,24,23,18,0,24,6,9,19,0,0,0,0,25,0,25,0,0,0,24,8,21,0,0,20,3,0,0,0,0,0,0,0,0,0,0,0,0,0,0,0,0],"split_type":[0,0,0,0,0,0,0,0,0,0,0,0,0,0,0,0,0,0,0,0,0,0,0,0,0,0,0,0,0,0,0,0,0,0,0,0,0,0,0,0,0,0,0,0,0,0,0],"sum_hessian":[1.7071318E3,2.8796945E2,1.4191624E3,2.6649597E2,2.1473482E1,1.022733E3,3.9642944E2,1.7303506E2,8.4969794E2,1.7829007E2,2.1813936E2,2.279885E1,1.5023622E2,8.3427014E2,1.5427756E1,1.9961487E0,1.7629391E2,1.8688786E1,1.9945058E2,4.029712E0,1.8769136E1,8.6917854E1,6.3318367E1,2.6585272E2,5.684174E2,1.3536542E2,4.092851E1,1.3119926E1,5.568859E0,1.4232555E2,5.7125027E1,1.7543207E1,1.2259294E0,1.3289391E1,7.362846E1,3.8811127E1,2.270416E2,9.002644E1,4.78391E2,1.3123329E2,4.1321263E0,3.900634E1,1.9221684E0,1.393338E2,2.9917536E0,8.990519E0,4.8134506E1],"tree_param":{"num_deleted":"0","num_feature":"28","num_nodes":"47","size_leaf_vector":"1"}},{"base_weights":[-3.1014713E-3,-9.549425E-1,2.1024828E-1,-1.1759559E0,9.043944E-1,-2.8214598E-1,4.320666E-1,-2.633471E-1,-6.0210943E-2,-6.0516115E-2,1.1229193E0,-9.5159096E-1,2.5994945E-1,5.44605E-1,-1.06420636E-1,-5.0635595E-2,4.3118786E-2,5.129893E-1,6.187458E-2,-6.3190006E-2,1.2511311E-1,-1.0642016E0,5.293964E-1,1.9331817E-1,7.2766346E-1,3.4113565E-1,-7.5903706E-2,-4.9541097E-2,5.2051306E-2,1.0898288E0,-6.2289156E-2,-6.1259527E-2,3.248276E-1,-6.460627E-2,6.118279E-1,-3.078344E-1,7.48547E-1,-6.485857E-2,7.43882E-1,8.8285655E-1,-1.4019245E-1,-4.134303E-2,6.41086E-2,4.929508E-2,-3.8458772E-2,6.348407E-2,1.9913817E-2,2.9483402E-2,-7.662379E-2,-1.0012299E-1,5.974206E-2,3.0671963E-2,4.8447836E-2,5.8611702E-2,-8.68678E-2,-8.128941E-2,3.0543903E-2],"categories":[],"categories_nodes":[],"categories_segments":[],"categories_sizes":[],"default_left":[0,0,0,0,0,0,0,0,0,0,0,0,0,0,0,0,0,0,0,0,0,0,0,0,0,0,0,0,0,0,0,0,0,0,0,0,0,0,0,0,0,0,0,0,0,0,0,0,0,0,0,0,0,0,0,0,0],"id":23,"left_children":[1,3,5,7,9,11,13,15,-1,-1,17,19,21,23,25,-1,-1,27,-1,-1,29,31,33,35,37,39,-1,-1,-1,41,-1,-1,43,-1,45,47,49,-1,51,53,55,-1,-1,-1,-1,-1,-1,-1,-1,-1,-1,-1,-1,-1,-1,-1,-1],"loss_changes":[3.2980548E2,1.23263794E2,1.4502678E2,6.5492554E0,1.6219574E1,1.4999855E2,5.551056E1,8.698912E0,0E0,0E0,1.4381523E0,6.229706E1,8.219547E1,4.8541306E1,1.0098287E2,0E0,0E0,6.1128254E0,0E0,0E0,5.7514717E1,9.122974E0,2.9436237E1,7.277434E1,1.7297089E1,3.1818184E1,0E0,0E0,0E0,1.0445061E1,0E0,0E0,4.2607846E0,0E0,2.5231056E1,1.5229282E2,1.5460254E2,0E0,1.3909393E1,4.550276E1,7.37729E1,0E0,0E0,0E0,0E0,0E0,0E0,0E0,0E0,0E0,0E0,0E0,0E0,0E0,0E0,0E0,0E0],"parents":[2147483647,0,0,1,1,2,2,3,3,4,4,5,5,6,6,7,7,10,10,11,11,12,12,13,13,14,14,17,17,20,20,21,21,22,22,23,23,24,24,25,25,29,29,32,32,34,34,35,35,36,36,38,38,39,39,40,40],"right_children":[2,4,6,8,10,12,14,16,-1,-1,18,20,22,24,26,-1,-1,28,-1,-1,30,32,34,36,38,40,-1,-1,-1,42,-1,-1,44,-1,46,48,50,-1,52,54,56,-1,-1,-1,-1,-1,-1,-1,-1,-1,-1,-1,-1,-1,-1,-1,-1],"split_conditions":[1E1,2.115244E1,4E0,1.6666667E-1,9.75E0,1.9916666E1,6E0,1.48E1,-6.0210943E-2,-6.0516115E-2,2.2285715E1,2.0714285E1,1.899256E1,5E0,1.7583334E1,-5.0635595E-2,4.3118786E-2,2.2428572E1,6.187458E-2,-6.3190006E-2,1.1166667E1,1.9142857E1,9.5E0,9.833333E0,1.6E1,2.4166666E1,-7.5903706E-2,-4.9541097E-2,5.2051306E-2,2E0,-6.2289156E-2,-6.1259527E-2,1.6833334E1,-6.460627E-2,9.571428E0,1.4583333E1,1.7416666E1,-6.485857E-2,2.8E1,9.75E0,9.75E0,-4.134303E-2,6.41086E-2,4.929508E-2,-3.8458772E-2,6.348407E-2,1.9913817E-2,2.9483402E-2,-7.662379E-2,-1.0012299E-1,5.974206E-2,3.0671963E-2,4.8447836E-2,5.8611702E-2,-8.68678E-2,-8.128941E-2,3.0543903E-2],"split_indices":[0,18,1,0,24,0,1,6,0,0,3,26,18,1,0,0,0,6,0,0,0,6,24,24,7,20,0,0,0,1,0,0,4,0,24,0,0,0,20,24,24,0,0,0,0,0,0,0,0,0,0,0,0,0,0,0,0],"split_type":[0,0,0,0,0,0,0,0,0,0,0,0,0,0,0,0,0,0,0,0,0,0,0,0,0,0,0,0,0,0,0,0,0,0,0,0,0,0,0,0,0,0,0,0,0,0,0,0,0,0,0,0,0,0,0,0,0],"sum_hessian":[1.6220684E3,2.9636887E2,1.3256996E3,2.6521158E2,3.1157307E1,4.1164792E2,9.1405164E2,8.276655E0,2.569349E2,2.4930341E0,2.8664272E1,1.8385103E2,2.2779688E2,7.5603625E2,1.5801535E2,5.0292215E0,3.2474337E0,5.399143E0,2.326513E1,1.4238907E2,4.146197E1,3.801738E1,1.897795E2,2.597107E2,4.9632556E2,1.2055306E2,3.7462284E1,1.1753644E0,4.2237787E0,2.4456598E1,1.7005371E1,3.4174496E1,3.8428814E0,7.5811267E0,1.8219836E2,1.3673686E2,1.22973854E2,3.3163028E0,4.9300928E2,5.6325794E1,6.422727E1,1.929577E0,2.2527021E1,2.4570007E0,1.3858806E0,4.3438595E1,1.3875977E2,7.920697E1,5.7529884E1,1.667855E1,1.062953E2,3.1447803E2,1.7853123E2,5.122149E1,5.1043067E0,2.1176378E1,4.305089E1],"tree_param":{"num_deleted":"0","num_feature":"28","num_nodes":"57","size_leaf_vector":"1"}},{"base_weights":[-3.18462E-4,-5.8913197E-2,1.6173472E-1,-1.6435425E-1,5.2000093E-1,-7.7000725E-1,1.6104537E-1,7.239979E-1,-1.8536763E-1,-5.460208E-1,-6.247399E-2,-3.4151527E-1,4.5212832E-1,-8.38967E-1,7.6155454E-1,-9.794837E-1,3.8483465E-1,-2.6268306E-1,-1.1363835E0,-5.863322E-1,1.0913337E0,6.229706E-1,-1.1179641E0,-7.959522E-2,5.2551486E-2,6.1021703E-1,9.166763E-1,-7.107E-2,-4.226775E-1,-6.0733336E-1,7.5297093E-1,-4.9018934E-2,4.328113E-3,-1.219926E-2,-6.381984E-2,-1.4022314E-3,-7.127721E-2,8.407304E-3,6.382289E-2,3.5294227E-2,-6.0411025E-2,-7.623654E-2,4.2093414E-4,3.59429E-2,-1.8760229E-2,5.5899013E-2,3.958344E-2,5.0200768E-2,-7.4484594E-2,2.548717E-2,-8.405835E-2,4.224719E-2,-7.2236344E-2],"categories":[],"categories_nodes":[],"categories_segments":[],"categories_sizes":[],"default_left":[0,0,0,0,0,0,0,0,0,0,0,0,0,0,0,0,0,0,0,0,0,0,0,0,0,0,0,0,0,0,0,0,0,0,0,0,0,0,0,0,0,0,0,0,0,0,0,0,0,0,0,0,0],"id":24,